-0.14704181253910065 0.28604620695114136 -0.11772659420967102 -0.0524313822388649 0.24654963612556458 -0.19888734817504883 -0.1720823049545288 0.012723468244075775 0.06033190339803696 -0.1625809520483017 -0.4373112916946411 0.08945194631814957 -0.10886750370264053 0.12088307738304138 -0.09335307031869888 0.3996061086654663 0.14360065758228302 -0.35079362988471985 0.09632160514593124 -0.08787998557090759 0.27281588315963745 0.3183826804161072 -0.7059755325317383 0.5529870986938477 0.17410579323768616 0.011492498219013214 -0.28571003675460815 0.02256168983876705 0.11516737937927246 -0.06342052668333054 0.027076300233602524 -0.46092933416366577 0.6724351644515991 -0.17782588303089142 0.028687365353107452 -0.09174025058746338 0.20042301714420319 0.33020585775375366 0.14349588751792908 0.5621773600578308 0.05674756318330765 0.5308884978294373 0.4486030042171478 -0.22711479663848877 -0.488981157541275 -0.07634598016738892 0.056350670754909515 -0.1951833963394165 0.3025476634502411 -0.434576153755188 0.854759156703949 -0.03794349357485771 0.19278711080551147 0.05003950744867325 0.675586462020874 0.14832986891269684 -0.13453525304794312 -0.20957262814044952 -0.11813230067491531 -0.2525750398635864 0.06456118822097778 -0.016857106238603592 -0.37573665380477905 0.11614491790533066 0.40636616945266724 0.1688845008611679 0.6432642936706543 0.4834235906600952 -0.0670551061630249 0.03690309077501297 -0.6460440754890442 -0.07717345654964447 -0.15548653900623322 0.3611721098423004 -0.04473142698407173 0.12815693020820618 0.17646382749080658 -0.1122007966041565 -0.06582838296890259 -0.5097519755363464 -0.3607134222984314 1.0259236097335815 0.1763140708208084 0.0891854539513588 0.22966234385967255 -0.21409524977207184 0.40732651948928833 -0.6674489974975586 0.2839433252811432 0.1452416479587555 -0.5240383744239807 0.2183375507593155 -0.22677123546600342 -0.06924187391996384 0.23331408202648163 -0.21007299423217773 0.03366728499531746 -0.21683374047279358 0.08608648180961609 -0.49700838327407837 -0.7527424097061157 -0.11796733736991882 -0.07764655351638794 0.34868428111076355 -0.14818860590457916 0.23375919461250305 0.3662090301513672 -0.20014287531375885 0.024326026439666748 -0.24704954028129578 0.372629851102829 0.33985820412635803 -0.7674598693847656 0.6233810782432556 0.13251283764839172 0.07093989104032516 -0.10718975961208344 0.18951968848705292 -0.15099237859249115 -0.04302819445729256 -0.08199464529752731 -0.47856414318084717 -1.199387788772583 -0.42593249678611755 0.2045123130083084 -0.22262829542160034 0.11057934910058975 0.3731851875782013 0.2646215856075287 0.6130960583686829 -0.2047857791185379 0.6658382415771484 0.6605972647666931 -0.21521906554698944 -0.8682339787483215 -0.2656283676624298 0.2101501077413559 -0.46456924080848694 0.5291433930397034 -0.3748319447040558 0.9788519740104675 0.16617633402347565 0.14412282407283783 0.14270025491714478 0.70236736536026 0.31378838419914246 -0.7323989272117615 -0.23856109380722046 -0.25670626759529114 -0.8402522802352905 0.04768458753824234 -0.5417141318321228 -0.4888821244239807 0.14220856130123138 0.3771500587463379 0.22303377091884613 0.2560921311378479 0.3824239671230316 -0.0985802486538887 -0.17991766333580017 -0.5094276070594788 -0.17723461985588074 -0.5651040077209473 0.18610194325447083 0.11703022569417953 0.004314404912292957 0.12364857643842697 -0.34082791209220886 -0.35861730575561523 -0.5463549494743347 -0.7747476696968079 0.7444721460342407 -0.2574445307254791 0.32561054825782776 0.09810402989387512 -0.6549654603004456 0.07556423544883728 -1.1965413093566895 0.30257683992385864 -0.1742510050535202 -0.9398552179336548 -0.22268913686275482 -0.32963672280311584 -0.26669609546661377 -0.052428413182497025 -0.537062406539917 -0.025693951174616814 -0.018107889220118523 -0.0008677927544340491 -0.34617704153060913 -0.4308817982673645 -0.39585697650909424 -0.2658872902393341 1.0855252742767334 0.5004434585571289 -0.34948277473449707 -0.14338529109954834 -0.3014758825302124 -0.189297616481781 -0.24481312930583954 1.0475037097930908 0.13717825710773468 -0.6311174035072327 0.41883376240730286 -0.16753776371479034 0.029337774962186813 -0.3949683606624603 0.1139536201953888 -0.13089945912361145 -0.040886059403419495 -0.04449905455112457 -0.20131544768810272 0.10480847954750061 -0.7819521427154541 -0.03202689811587334 -0.6361708641052246 -0.026896396651864052 -0.06701269000768661 -0.21021141111850739 -0.020160727202892303 -0.4197307825088501 -0.0843522697687149 -0.19953416287899017 -0.36417916417121887 -1.140860915184021 -0.40004464983940125 -0.06133246421813965 -0.23832350969314575 0.10388574004173279 -0.13189640641212463 0.021229688078165054 -0.2376248985528946 -0.14071722328662872 0.13816127181053162 0.21675977110862732 -0.26487499475479126 -0.8776771426200867 -0.378670871257782 -0.09290388226509094 -0.556907057762146 -0.045082803815603256 -0.2543927729129791 -0.291353702545166 -0.21076826751232147 -0.10240508615970612 0.036060433834791183 0.29339897632598877 0.00632358668372035 -0.20785677433013916 -0.2126089483499527 -0.2842586636543274 0.2837875485420227 -0.7192684412002563 -0.11647820472717285 0.13896605372428894 -0.6140311360359192 0.08293601125478745 -0.25552669167518616 -0.5370017290115356 -0.5383426547050476 -0.34460943937301636 0.3375034034252167 -0.4910602569580078 1.5106403827667236 -0.5313836336135864 -0.5751665234565735 -0.5092450380325317 -0.6636549234390259 0.07720962166786194 -0.766257107257843 -0.20563450455665588 0.2991155683994293 0.27134808897972107 0.12062277644872665 -0.11354158073663712 -0.08489867299795151 -0.24884171783924103 -0.35485178232192993 0.03565273806452751 -0.10478251427412033 -0.16214729845523834 0.4251536428928375 -0.06604880839586258 -0.9910861849784851 0.5973291397094727 -0.38090547919273376 0.051940660923719406 -0.3744223117828369 -0.18099917471408844 -0.1298367828130722 0.9359791874885559 0.06858664005994797 -0.5038228631019592 0.13085396587848663 0.03151952475309372 -0.15599918365478516 0.31924259662628174 -0.31815993785858154 0.014105275273323059 0.30309003591537476 -0.3619545102119446 -0.20482081174850464 0.9993388056755066 -0.14990361034870148 0.17787429690361023 0.14084415137767792 -0.4858691692352295 0.24680274724960327 0.11210852116346359 -0.07897479087114334 -0.1694081723690033 0.19193273782730103 0.04959932714700699 0.6238958239555359 0.5563998222351074 0.3081619441509247 0.03148038312792778 -0.3111850619316101 0.13714084029197693 0.340702623128891 -0.19415214657783508 -0.11655228585004807 0.017464926466345787 -0.15976184606552124 0.18706144392490387 -0.24757352471351624 0.04826114699244499 -0.4612562656402588 -1.0004161596298218 -0.4061083197593689 0.05877143517136574 -0.07901844382286072 -0.5077247023582458 -0.2083548754453659 0.036968763917684555 0.0556718111038208 -0.3144094944000244 -0.25579196214675903 -0.12487322092056274 -0.13093625009059906 -0.03334642946720123 -0.4144900143146515 0.4370141625404358 -0.1512961983680725 -0.27040016651153564 -0.2753456234931946 0.07981257885694504 0.16563184559345245 -0.21726620197296143 0.04003143310546875 -0.05511954426765442 0.201743021607399 -0.014794076792895794 0.9262928366661072 -0.06547985970973969 -0.4127691388130188 0.021169327199459076 1.1903530359268188 0.17784152925014496 -0.01588602550327778 -0.07543410360813141 0.13640020787715912 -0.326510488986969 -0.024548429995775223 -0.04242368042469025 0.12354881316423416 -0.14296741783618927 -0.22898492217063904 -0.14557069540023804 1.198245644569397 -0.46349769830703735 -0.1823224127292633 0.3169196844100952 -0.03525169938802719 0.18465614318847656 -0.3536984622478485 -5.847045758855529e-05 0.1395573914051056 0.059946347028017044 -0.02721109613776207 -0.07891425490379333 -0.4101337790489197 -0.2546118199825287 -0.1344236582517624 -0.23219895362854004 0.518639862537384 -0.10396474599838257 0.4710127115249634 0.09561257809400558 0.352984756231308 0.03551667183637619 -0.5212953686714172 -0.19340099394321442 0.8349713087081909 0.009932850487530231 0.921184241771698 0.11631092429161072 -1.1325469017028809 0.7239309549331665 0.02424507960677147 -0.1433381587266922 0.9175810813903809 0.2690248191356659 0.034658581018447876 -0.6762067079544067 0.61856609582901 0.11533080041408539 0.3701622188091278 -0.1660434603691101 0.31237250566482544 0.33950063586235046 0.1623339205980301 -0.08834943175315857 0.13863511383533478 -0.7078534364700317 0.007269165478646755 0.46826496720314026 0.12791404128074646 -0.0050108712166547775 -0.3887362480163574 0.29360055923461914 -0.957322359085083 -0.24785873293876648 -0.438506543636322 -0.09680414199829102 0.7433369755744934 1.2274538278579712 -0.08573944121599197 0.1769033819437027 0.015483585186302662 0.0290517620742321 -0.10575859248638153 0.4166187345981598 0.7867786884307861 -0.03918432071805 -1.2310587167739868 -0.35049039125442505 -0.2303287535905838 1.2544000148773193 -0.15786457061767578 -0.4694453179836273 -0.16342693567276 -0.01047473680227995 -0.03970534726977348 -0.24085406959056854 -0.28533992171287537 -1.642970323562622 0.041927438229322433 0.004748642444610596 -0.7898873686790466 0.0901009812951088 -0.09082604199647903 -0.515614926815033 0.058320969343185425 -0.035034988075494766 0.13107359409332275 -0.008040071465075016 -0.3006186783313751 -0.3353647291660309 1.7211804389953613 -0.8313327431678772 -0.5081343054771423 0.4803237318992615 0.23866064846515656 -0.2804424464702606 -0.356171578168869 0.06283871084451675 -0.21954050660133362 0.08979497849941254 -0.06313268095254898 0.29610392451286316 -1.0505808591842651 -0.8096583485603333 -0.4026772379875183 -0.2669532001018524 0.9045211672782898 -0.06507400423288345 0.4353291094303131 -0.09638266265392303 0.24202021956443787 -0.09640359878540039 -0.8053678870201111 0.008427580818533897 1.149904489517212 0.2510673701763153 1.1974245309829712 0.245025172829628 -1.2643975019454956 1.6348212957382202 0.14190331101417542 -0.26432549953460693 1.001476526260376 0.27055850625038147 -0.0026295999996364117 -1.0245177745819092 1.1637485027313232 0.2693690061569214 0.8001306653022766 -0.18988792598247528 0.35936957597732544 0.6085488200187683 0.1753128468990326 -0.18620064854621887 0.09781080484390259 -0.9146369099617004 -0.1871199905872345 0.5371376276016235 0.2454087883234024 -0.4724743962287903 -0.7309917211532593 0.6072234511375427 -1.6256660223007202 -0.33847519755363464 -0.5257941484451294 -0.04955168068408966 0.6238563060760498 1.5969314575195312 0.19392159581184387 0.39163634181022644 0.40889972448349 0.1893906146287918 0.017010405659675598 0.720777690410614 1.3314605951309204 -0.11939182132482529 -1.4536398649215698 -0.5511128306388855 -0.29178956151008606 1.472153663635254 -0.09412997961044312 -0.9592261910438538 -0.13226225972175598 -0.34081509709358215 -0.002870219759643078 -0.42342060804367065 0.29697689414024353 -1.9956588745117188 -0.0870627909898758 0.002249946119263768 -1.07172429561615 -0.025408927351236343 0.04840635135769844 0.010325095616281033 -0.06514031440019608 -0.050457123667001724 0.2868548035621643 -0.41430097818374634 -0.3058595359325409 -0.09668788313865662 1.1257699728012085 -0.20762899518013 -0.3948070704936981 0.40808767080307007 0.028824303299188614 -0.023691270500421524 -0.1803775280714035 0.13758663833141327 0.05803492292761803 0.110821433365345 0.021989749744534492 -0.2730266749858856 -0.15893672406673431 0.023736942559480667 0.03177949786186218 -0.05945026874542236 0.24083390831947327 -0.09803227335214615 0.4157146215438843 -0.03633392974734306 0.3523414731025696 0.003960078116506338 -0.23156233131885529 -0.2752579152584076 0.9509212970733643 0.23769035935401917 0.6240845918655396 0.13917118310928345 -0.5619747638702393 0.9590086936950684 0.25846073031425476 -0.3466251492500305 0.7578633427619934 0.14614930748939514 0.10710853338241577 -0.5384135842323303 0.8227396011352539 0.17322781682014465 0.41580960154533386 -0.04683219641447067 0.37356841564178467 0.5540744662284851 -0.06436681002378464 -0.1306537687778473 0.025500383228063583 -0.26583951711654663 0.08061996102333069 0.5488942861557007 0.20345504581928253 -0.04339523985981941 -0.7247428894042969 0.18888959288597107 -1.1143219470977783 -0.13465987145900726 -0.4595256447792053 0.20517991483211517 0.46432405710220337 0.9987452626228333 0.25300392508506775 0.2514922618865967 0.20271867513656616 -0.05636274814605713 0.06589905917644501 0.4524610936641693 0.6662251949310303 -0.07062914222478867 -1.4287573099136353 -0.39319565892219543 -0.005619365721940994 1.2614343166351318 0.04977801814675331 -0.6326526999473572 -0.05633637681603432 -0.22161877155303955 -0.15049654245376587 -0.11995083838701248 -0.09468911588191986 -1.5786901712417603 -0.14591209590435028 -0.2639480233192444 -0.8320407271385193 0.017149390652775764 -0.07937920093536377 0.17308907210826874 0.06143280491232872 -0.11648102849721909 -0.37754738330841064 0.4052949547767639 -0.3355617821216583 0.5909438729286194 -0.8270725607872009 -0.40327197313308716 -0.7621622681617737 -0.6345350742340088 -0.016563158482313156 0.24239079654216766 -0.37148603796958923 0.5180696845054626 -0.43195292353630066 -0.29822784662246704 -0.05835774540901184 -0.13790424168109894 0.32931816577911377 0.09646692126989365 -0.46090617775917053 0.7078678607940674 0.15254145860671997 -0.3919212818145752 0.07371837645769119 -0.07218444347381592 0.47531017661094666 0.3131273686885834 -0.15982337296009064 0.09829666465520859 -1.349806785583496 0.11440816521644592 0.786309540271759 -0.20314164459705353 0.5413311123847961 -1.3426510095596313 -1.0719391107559204 0.12560029327869415 -0.2391502410173416 0.7203468680381775 0.08510667085647583 -0.4150319993495941 -0.16571570932865143 0.0496976301074028 -0.2717227041721344 0.13544677197933197 -0.055602967739105225 0.27153831720352173 -0.22385142743587494 -0.7455762624740601 0.2962709367275238 -0.05832524597644806 0.08115143328905106 0.6165874600410461 -0.40339866280555725 0.23188097774982452 0.39446189999580383 0.503546953201294 1.0852686166763306 0.28529760241508484 0.44006145000457764 0.49807173013687134 -0.42298901081085205 0.473488450050354 -0.07151063531637192 -0.317827969789505 0.4012663662433624 -0.014526602812111378 -0.14761310815811157 0.7588354349136353 0.2855573296546936 0.2645840644836426 0.902951717376709 -0.03794502839446068 -0.5636817812919617 -1.0263943672180176 0.3945707380771637 0.4308120310306549 -0.16408978402614594 -0.020752644166350365 0.14199914038181305 -0.1904555708169937 -0.15260416269302368 1.3638910055160522 -0.12203571945428848 -0.5033058524131775 0.9120120406150818 -0.4402645528316498 0.41121357679367065 -0.00563185615465045 -0.05177048593759537 -0.03912096470594406 0.11301831901073456 0.18558038771152496 0.5119037628173828 0.130135640501976 -0.5489002466201782 0.9161420464515686 0.043352603912353516 -0.18982848525047302 -0.024842629209160805 -0.023888714611530304 -0.145598903298378 0.22510790824890137 -0.5020914077758789 0.2900778353214264 -0.07098064571619034 -0.16420260071754456 -0.5515949726104736 0.07160984724760056 0.6201308369636536 -0.44293785095214844 0.24040591716766357 0.15850089490413666 -0.1502300500869751 0.056642867624759674 0.2606830596923828 0.2670796811580658 -0.10609985888004303 -0.2935495674610138 -0.37260788679122925 0.27833521366119385 0.3225313723087311 0.01930798403918743 0.09142302721738815 -0.25159814953804016 1.1839145421981812 0.7073844075202942 -0.45692041516304016 -0.11811228096485138 -0.5983574390411377 -0.3496854603290558 -0.15349669754505157 0.05918622761964798 -0.1640862077474594 0.20317895710468292 -0.1086205542087555 0.3954422175884247 -0.334643691778183 -0.24582983553409576 -0.27229294180870056 0.34192031621932983 -0.9318447113037109 0.02888602390885353 0.1085314229130745 0.11740011721849442 -0.19933642446994781 0.30000120401382446 0.17517174780368805 -0.22652187943458557 0.6253758072853088 0.16989919543266296 -0.6795320510864258 -0.45358458161354065 0.25431737303733826 -0.18817828595638275 -0.6191117763519287 -0.027470894157886505 0.0842374786734581 -0.12193498760461807 -0.5431200265884399 0.06268767267465591 -0.5277105569839478 -0.337268203496933 -0.2777417004108429 -0.2800552546977997 -0.12691546976566315 0.2930801212787628 0.01900673098862171 0.9555145502090454 0.3408544957637787 1.1337980031967163 -0.20405994355678558 0.12477502226829529 0.05650268495082855 -0.13400933146476746 -0.5147461891174316 -0.46265894174575806 0.3700074851512909 -0.09449809789657593 -0.1621948778629303 0.055167246609926224 0.1937285214662552 0.060204245150089264 0.6291320323944092 0.275115430355072 -0.6264310479164124 0.9224328994750977 0.11125906556844711 -0.0735032930970192 -0.22624382376670837 0.1237482875585556 -0.18340350687503815 0.1274697184562683 -0.5327339172363281 0.3219059407711029 0.051792506128549576 -0.2736266255378723 -0.617949903011322 0.1714484989643097 0.8244046568870544 -0.4420410990715027 0.3713960349559784 0.18867215514183044 -0.3395988345146179 0.07035429775714874 0.38471677899360657 0.31587666273117065 -0.19319291412830353 -0.25065305829048157 -0.4840392768383026 0.1162603572010994 0.3614400029182434 -0.1269766390323639 -0.00860255490988493 -0.5228439569473267 1.2421960830688477 0.7714567184448242 -0.46824154257774353 -0.2398335039615631 -0.5531105995178223 -0.38204172253608704 -0.11978597939014435 -0.09971700608730316 -0.15099859237670898 0.17669297754764557 -0.06857350468635559 0.3750219941139221 -0.3954456150531769 -0.2850010097026825 -0.3227434754371643 0.3590209186077118 -1.0304242372512817 0.20666587352752686 -0.062051426619291306 0.09089501947164536 -0.3099302649497986 0.30793294310569763 0.24762330949306488 -0.15505057573318481 0.6739122271537781 0.2929743230342865 -0.5706879496574402 -0.2747577428817749 0.2955937683582306 -0.22665953636169434 -0.6962912082672119 0.02601376548409462 0.27064481377601624 -0.007140968460589647 -0.7082039713859558 0.18568111956119537 -0.3384788930416107 -0.21355856955051422 -0.41334718465805054 -0.37526917457580566 0.046613819897174835 0.2640729248523712 -0.004780715797096491 1.0657669305801392 0.08011426776647568 1.2246930599212646 -0.11866781860589981 0.03379536047577858 -0.049692463129758835 -0.038286104798316956 -0.6895458102226257 -0.011899002827703953 0.3263537287712097 0.21024300158023834 -0.0454024113714695 0.1256115883588791 0.10792411863803864 -0.0022361238952726126 0.21686501801013947 0.25203821063041687 -0.5180269479751587 0.6402409076690674 -0.028477270156145096 0.004345983732491732 -0.011129600927233696 0.13396432995796204 -0.314926415681839 0.38898006081581116 -0.3765486478805542 0.10653181374073029 0.25125882029533386 0.12351476401090622 -0.18478873372077942 0.03766176849603653 0.1824096143245697 -0.2729865312576294 0.11434779316186905 0.12187044322490692 -0.1815515160560608 -0.08199652284383774 0.22165384888648987 0.168051078915596 -0.2665620744228363 0.07568798959255219 0.06416337937116623 0.22193650901317596 0.502568244934082 -0.1892920583486557 0.01134350337088108 -0.01365942507982254 0.5300894975662231 1.0581846237182617 -0.293079137802124 -0.017480643466114998 -0.5966923832893372 -0.3607357144355774 -0.21132706105709076 0.06766415387392044 -0.009905741550028324 0.046693023294210434 -0.198743537068367 0.6270520091056824 -0.10177012532949448 -0.023984914645552635 -0.25654396414756775 0.047269534319639206 -0.6124359965324402 0.218773752450943 -0.3684872090816498 -0.004767424426972866 0.01415766030550003 0.24215449392795563 0.04281489923596382 0.026431623846292496 0.11136671155691147 0.31466585397720337 -0.460776150226593 -0.08297374099493027 0.020742882043123245 -0.19975563883781433 -0.6004965305328369 -0.05542325973510742 -0.12760531902313232 -0.12134365737438202 -0.27679938077926636 0.19839604198932648 0.1495768427848816 -0.06623539328575134 -0.18368856608867645 -0.15233492851257324 -0.26996272802352905 -0.2558523714542389 0.029841093346476555 0.37928909063339233 -0.461032509803772 0.14486636221408844 0.10157451033592224 0.0703764259815216 -0.09651605784893036 6.457474228227511e-06 -0.6882818937301636 -0.045487381517887115 0.858981728553772 -0.8045218586921692 -0.19009722769260406 0.10915089398622513 -0.6525928974151611 0.5605602264404297 -0.3306275010108948 -0.030399398878216743 -0.5855181217193604 -0.895971417427063 -0.8942248821258545 -0.40600165724754333 -0.4302992820739746 0.35032975673675537 0.5566524267196655 0.03495584800839424 0.5164014101028442 -0.5430046916007996 0.15515579283237457 0.014037681743502617 -0.6077728271484375 -0.3986583650112152 0.20780499279499054 -0.3025401830673218 -0.1995832771062851 -0.3285052180290222 0.015834223479032516 -0.5015462040901184 -0.4123955965042114 -0.4834822714328766 -0.26944348216056824 -0.018129270523786545 -0.5871789455413818 -0.06126628443598747 1.1896226406097412 0.5407428741455078 -0.5155123472213745 -0.011780129745602608 0.5855944752693176 1.10818612575531 0.5099575519561768 -0.9960095882415771 -0.6689510345458984 -0.2628139853477478 0.1547449380159378 -0.23924829065799713 0.7052741050720215 0.024525711312890053 -0.23559048771858215 -0.6857605576515198 0.022098904475569725 0.4774961471557617 0.45176345109939575 -0.2884814441204071 -0.3408855199813843 0.1963130086660385 0.022983690723776817 -0.39249977469444275 -0.14363299310207367 -0.4260822534561157 0.3587360680103302 0.0012422153959050775 -0.07490217685699463 0.8889821171760559 0.3340357542037964 -0.5242063403129578 -0.8677530884742737 0.5715709924697876 -1.1512798070907593 -0.0726836696267128 0.6176807284355164 1.1065187454223633 -0.8194804191589355 -0.06908975541591644 0.22355493903160095 -0.5915672779083252 -0.5249599814414978 -0.8735926151275635 0.5929725766181946 -0.07688957452774048 0.01881415955722332 -0.6124758720397949 -0.15152578055858612 -0.4066968262195587 -0.42329445481300354 -0.2392451912164688 -0.23315267264842987 -0.3669969439506531 1.1563889980316162 0.3915693759918213 0.9401894807815552 0.09047934412956238 0.2731427550315857 -0.016544442623853683 -0.013206624425947666 -0.07164059579372406 -0.027544479817152023 -0.052560850977897644 -0.08627771586179733 -0.08815296739339828 -0.43253111839294434 -0.2713277339935303 -0.10191512107849121 0.10627542436122894 -0.5212726593017578 -0.6369096040725708 -0.031247461214661598 -0.005056952591985464 -0.10099059343338013 -0.04138863459229469 0.17110507190227509 0.07136150449514389 -0.01934209279716015 -0.24540670216083527 -0.40798845887184143 -0.21240241825580597 -0.24239836633205414 -0.03273732587695122 0.028393778949975967 -0.29699185490608215 0.49162670969963074 0.0788474753499031 -0.3448110818862915 -0.0446496345102787 -0.768554151058197 0.4321153163909912 0.3893246650695801 0.7683094143867493 0.14043472707271576 0.1410907804965973 -0.2179456651210785 -0.6121904850006104 0.19284489750862122 -0.49475568532943726 -0.14595678448677063 0.13252225518226624 0.39367374777793884 0.22381195425987244 0.13883650302886963 -0.28060412406921387 -0.057082515209913254 0.8173775672912598 0.025314487516880035 -0.025729836896061897 -0.012508888728916645 -0.08337529748678207 -0.07028057426214218 -0.1551915407180786 0.050241876393556595 0.2578141987323761 0.1834876537322998 0.15803827345371246 0.12005940079689026 -0.09126652777194977 -0.1348804384469986 0.4951842725276947 0.4771355986595154 -0.44734328985214233 -0.42402487993240356 0.0473146066069603 -0.003254042472690344 0.5729702711105347 -0.6159975528717041 0.06617861986160278 0.18859250843524933 0.2662896513938904 -0.680121123790741 -0.11594995856285095 0.18421126902103424 -0.5452437996864319 0.2115761935710907 0.06524595618247986 0.14314468204975128 0.34868714213371277 -0.1642170250415802 -0.44424641132354736 0.1866184026002884 -0.03730618953704834 0.4208033084869385 0.24246594309806824 1.118079423904419 0.215010866522789 0.3742346167564392 0.10084979981184006 0.04964995011687279 -0.27684488892555237 0.0413719080388546 -0.207944855093956 0.08925066143274307 -0.08848943561315536 -0.6400834321975708 -0.28041356801986694 0.015415603294968605 0.30414849519729614 -0.8030838370323181 -0.5183490514755249 -0.18686659634113312 0.06908654421567917 0.27011507749557495 -0.10726816952228546 0.2497788518667221 -0.1258510947227478 -0.2039797008037567 -0.2760595679283142 -0.325003981590271 -0.29604068398475647 -0.35789310932159424 0.19109544157981873 -0.04706919193267822 -0.2519296407699585 0.6122836470603943 0.03891889750957489 -0.47372376918792725 -0.01464289054274559 -0.8044158816337585 0.452461838722229 0.3905600309371948 0.8199587464332581 0.15049920976161957 -0.05267367139458656 -0.36989977955818176 -0.7359145283699036 0.27540287375450134 -0.6998995542526245 -0.1783525049686432 0.04623730108141899 0.6598405241966248 0.15652063488960266 0.11131906509399414 -0.2509782612323761 0.13375166058540344 0.9369822144508362 0.08228239417076111 -0.18871477246284485 -0.06717391312122345 -0.05864508077502251 -0.1602514684200287 -0.4439097046852112 0.12343059480190277 0.3504752218723297 0.18745969235897064 0.3005315363407135 0.5278249979019165 0.046120334416627884 -0.18672321736812592 0.6011936664581299 0.4731294810771942 -0.555579423904419 -0.46968457102775574 0.10996688157320023 0.0199893731623888 1.0621545314788818 -0.7694554328918457 0.19818267226219177 0.07095901668071747 0.4328090250492096 -0.7764954566955566 -0.04446998983621597 0.32644006609916687 -0.5931646227836609 0.29401299357414246 0.2972971796989441 -0.03924563154578209 0.4494474232196808 -0.258839875459671 -0.6181700825691223 0.09023084491491318 -0.017989514395594597 0.32646551728248596 0.18082259595394135 0.9862422347068787 0.1489769071340561 0.1379673182964325 0.007165858987718821 0.0077227395959198475 -0.2551155388355255 -0.3717350661754608 -0.04274965077638626 0.23685498535633087 -0.011329438537359238 -0.05358356237411499 -0.19936831295490265 0.038254138082265854 0.15715451538562775 -0.23307675123214722 -0.6845908761024475 -0.00996986124664545 0.003741167252883315 -0.2961682379245758 0.012399828992784023 0.18298502266407013 -0.04827471077442169 -0.07112861424684525 0.02536713518202305 -0.3891415596008301 -0.04551916942000389 -0.1994059532880783 0.04599124565720558 0.17247401177883148 -0.22621692717075348 0.5402222871780396 -0.11003251373767853 -0.1854187697172165 0.1290106326341629 -0.5506188869476318 0.42601144313812256 0.06056754291057587 0.44900739192962646 -0.03427913412451744 0.017231084406375885 0.08693338930606842 -0.5974353551864624 0.35245421528816223 -0.23040339350700378 -0.17643766105175018 0.06550638377666473 0.4546491205692291 0.3722059726715088 0.23975029587745667 -0.5724281668663025 0.020068392157554626 0.46221423149108887 -0.19681178033351898 -0.2673601806163788 0.0642533078789711 -0.09763748943805695 -0.12022670358419418 0.035401977598667145 0.05543915927410126 0.08663200587034225 0.04975182190537453 0.35440337657928467 -0.05635160952806473 -0.3421388268470764 -0.26957279443740845 0.22055590152740479 0.5431151390075684 -0.4371194541454315 -0.25009700655937195 0.09432820230722427 -0.09818514436483383 0.3269246220588684 -0.7354979515075684 0.19157913327217102 -0.006218222435563803 0.5855507850646973 -0.35037362575531006 -0.22317510843276978 0.10736490041017532 -0.3938201069831848 0.0380958653986454 -0.11555828154087067 4.518974310485646e-05 0.1851596236228943 0.08719582110643387 -0.21817047894001007 0.06738287955522537 0.012245429679751396 -0.0036789574660360813 -0.35904407501220703 -1.0757392644882202 -1.060459852218628 0.03570636361837387 0.2968924939632416 0.07034441083669662 0.7846856117248535 -0.40525299310684204 0.050508834421634674 0.05029832571744919 0.02355712465941906 0.33123040199279785 0.534443736076355 -0.12685342133045197 -0.3705883026123047 0.016490546986460686 -0.8610297441482544 0.5586851835250854 0.6385023593902588 -0.021529940888285637 0.08790069073438644 0.623790442943573 0.4749387800693512 0.11082769185304642 -0.47044625878334045 -0.7993252873420715 -0.48796775937080383 0.6377463936805725 -0.23328149318695068 0.11707814037799835 -0.3827591836452484 -0.7380478978157043 0.3079099655151367 -0.9931191205978394 -0.20749691128730774 1.1654775142669678 -0.13504494726657867 0.4224092662334442 1.0454550981521606 -0.9353890419006348 -0.6980005502700806 -0.8741045594215393 0.7711890935897827 0.5731086730957031 0.2647501826286316 0.6430853605270386 0.04338189214468002 -0.4270906448364258 0.35276079177856445 0.3246332108974457 0.34265339374542236 -0.8298822045326233 0.7761406302452087 -0.5548585057258606 0.4359370768070221 1.280417799949646 -0.5609320998191833 0.3138549029827118 0.11440742760896683 -0.36856919527053833 -0.147131085395813 -0.022421902045607567 -0.4851505756378174 -0.6873757839202881 -0.07998247444629669 0.21058475971221924 -0.14897485077381134 -0.039238881319761276 0.05740967392921448 -0.6593201160430908 0.021625978872179985 0.15894098579883575 0.12285115569829941 0.32380151748657227 -0.23170581459999084 1.3410875797271729 -0.2650247812271118 -0.26226016879081726 0.5146781206130981 -0.2222485989332199 -0.5915830135345459 -0.22694993019104004 -0.6243668794631958 -0.08519323915243149 1.148547649383545 0.23424170911312103 -0.5924149751663208 -0.27963685989379883 -0.17828069627285004 0.5723252892494202 -0.13458262383937836 -0.07613857090473175 0.5415905117988586 -0.03330657631158829 0.1506708711385727 -0.18124550580978394 -0.015658151358366013 0.7446030378341675 0.904796838760376 -0.5645233392715454 0.14246273040771484 -0.7317950129508972 0.12219039350748062 -0.1741756796836853 0.05434582009911537 0.3283473551273346 -0.2622724771499634 0.12378989905118942 -0.3258405029773712 0.16284164786338806 0.06500113755464554 -0.027508370578289032 0.5137851238250732 -0.012032469734549522 0.6010038256645203 -0.22146686911582947 0.14087063074111938 0.3564908504486084 0.013399241492152214 -0.15815633535385132 -0.10513054579496384 0.15170300006866455 0.1612430363893509 -0.45764613151550293 -1.2110074758529663 -0.4264927804470062 0.4605105519294739 -0.4828108251094818 0.06636495888233185 0.42865628004074097 -0.028337154537439346 -0.04579315707087517 -0.3708290755748749 -0.019944587722420692 -0.6251809000968933 -0.6749305129051208 -0.03196103498339653 0.575922966003418 0.07896173745393753 -0.29171109199523926 -0.207791268825531 0.2115723192691803 -0.22156937420368195 -0.13669893145561218 0.03945125266909599 0.4259936809539795 0.2572917938232422 -0.7129590511322021 -0.3102715015411377 0.32172802090644836 -0.2742035984992981 -0.34917688369750977 0.03398896008729935 -0.22405226528644562 0.28305962681770325 0.4540921449661255 -0.06301342695951462 0.46087396144866943 -0.22694197297096252 -0.21589456498622894 -0.074715755879879 0.38202518224716187 0.6911882162094116 0.5695174932479858 -0.08759017288684845 -0.6744828820228577 0.9461336731910706 -0.055312927812337875 0.6380026936531067 0.1766250729560852 -0.3262951076030731 -0.2384803742170334 -0.4978340268135071 0.05596083030104637 0.535359799861908 -0.091224804520607 -0.07950875163078308 0.06711352616548538 0.023052945733070374 0.051866915076971054 -0.2105994075536728 -0.0670599639415741 0.6955873370170593 -0.06457383930683136 -0.01704258657991886 -0.1894010454416275 -0.07774796336889267 0.886470377445221 1.2158983945846558 -0.5102560520172119 0.18473321199417114 -0.733311116695404 0.38797062635421753 0.05896088853478432 0.07714960724115372 0.16698448359966278 -0.1974358856678009 0.08395107090473175 -0.2622185945510864 0.06815862655639648 0.0291098915040493 -0.12403007596731186 0.49583151936531067 0.03725329041481018 0.5186970829963684 -0.08284825086593628 0.12694638967514038 0.3525264859199524 0.11424071341753006 -0.07815178483724594 -0.20145748555660248 0.10988292843103409 -0.039835844188928604 -0.5919072031974792 -1.402787446975708 -0.5614365339279175 0.3179064393043518 -0.3776477575302124 0.14451636373996735 0.4071574807167053 -0.18466433882713318 -0.10561490058898926 -0.3275572657585144 0.02514033578336239 -0.456672340631485 -0.84490966796875 -0.010575741529464722 0.5400412678718567 -0.008938963524997234 -0.20302121341228485 -0.14926248788833618 0.1605955809354782 -0.18941019475460052 0.029284199699759483 -0.003977482672780752 0.43859267234802246 0.20129534602165222 -0.6676600575447083 -0.11618904769420624 0.15128269791603088 -0.45627811551094055 -0.29989802837371826 0.1805834323167801 -0.3469879925251007 0.2160506546497345 0.5068530440330505 -0.16186067461967468 0.5110921263694763 -0.0937093123793602 -0.12816639244556427 -0.01237506978213787 0.47630608081817627 0.5902640223503113 0.5127770900726318 0.08007926493883133 -0.8412549495697021 1.1365841627120972 -0.011230424977838993 0.6992312073707581 0.2875341475009918 -0.41972383856773376 -0.3726275563240051 -0.5996848940849304 -0.014170557260513306 0.45076635479927063 -0.144809290766716 0.013810167089104652 -0.046264130622148514 -0.11315518617630005 -0.13730986416339874 0.155807226896286 0.07344396412372589 0.09144562482833862 0.08729735761880875 0.07265686243772507 -0.14915400743484497 -0.055260688066482544 0.8861964344978333 1.07917320728302 -0.6389665007591248 0.27186378836631775 -0.48893049359321594 0.15820369124412537 0.07881848514080048 0.1958717554807663 0.2142818123102188 0.05674928054213524 0.1640893667936325 -0.3018929958343506 0.035231977701187134 0.29451867938041687 0.002881665714085102 0.3210718035697937 -0.019931621849536896 0.521049976348877 -0.19105389714241028 0.09648100286722183 0.2990889251232147 -0.10451710969209671 0.2822122573852539 -0.18601977825164795 -0.045350946485996246 0.007647163700312376 -0.09363605082035065 -1.114971399307251 -0.35849082469940186 0.2523261606693268 -0.19353441894054413 0.3073359727859497 -0.01483365148305893 0.12345142662525177 0.040986765176057816 -0.739147961139679 0.1287425309419632 -0.3656167685985565 -0.15566112101078033 -0.026033498346805573 0.24586644768714905 -0.07935601472854614 -0.1234857439994812 -0.17588210105895996 0.17024095356464386 -0.1320658177137375 -0.09965252876281738 0.09447464346885681 0.17219966650009155 0.19542820751667023 -0.4602392017841339 0.03861255943775177 0.2175433486700058 -0.3632368743419647 -0.37733981013298035 0.13030530512332916 -0.09987681359052658 -0.21507693827152252 0.3652265667915344 0.0964764729142189 0.33672448992729187 -0.27639538049697876 -0.15178412199020386 -0.15464240312576294 0.13493452966213226 0.09933982044458389 0.4515722990036011 -0.14929412305355072 -0.3562082052230835 1.109460711479187 0.23386067152023315 0.31793975830078125 0.20312127470970154 0.0008925608708523214 -0.0023224784526973963 -0.22178924083709717 -0.031215813010931015 0.3357875645160675 0.3617299497127533 0.011326847597956657 -0.10229025781154633 0.08616965264081955 -0.27841585874557495 -0.7873984575271606 -0.4710344076156616 0.442619264125824 0.1375081092119217 0.11004502326250076 -0.45626622438430786 0.044105976819992065 -1.055818796157837 -0.6857948899269104 -0.6760990619659424 -0.32090920209884644 -0.7588996291160583 -0.21513405442237854 -0.034423764795064926 0.5932883620262146 -0.008233257569372654 0.03264354541897774 0.782469630241394 0.30351167917251587 0.0030133475083857775 0.011341475881636143 0.32706165313720703 -0.5098105669021606 0.057468630373477936 -0.003605333622545004 0.2949981987476349 0.3361673951148987 0.4353885352611542 -0.006376825738698244 -0.04602612555027008 0.5315356254577637 0.6239508390426636 0.00011631575762294233 0.31618136167526245 -1.3814598321914673 -0.0362795852124691 -0.5024951100349426 0.5926641225814819 -0.3720482587814331 0.03772727772593498 -0.7740632891654968 -0.3800817131996155 -0.9075099229812622 0.6406439542770386 -0.0697009339928627 0.00684980396181345 -0.05646394193172455 0.236664280295372 0.2652670741081238 -0.12158873677253723 0.4877931773662567 0.3812159597873688 -0.24257473647594452 -0.4985482692718506 -0.6781057119369507 0.06357314437627792 -0.3072715401649475 -0.4705699384212494 0.04953752085566521 -0.006222630850970745 -0.1190253496170044 -0.13962960243225098 0.29624563455581665 -0.216525599360466 0.33555009961128235 -0.12683050334453583 -0.38747525215148926 -0.07788194715976715 -0.26777714490890503 -0.27866971492767334 -0.09190274775028229 0.06089506298303604 0.43298766016960144 0.8733721971511841 -0.15541081130504608 -0.457904189825058 -0.7383160591125488 0.16527584195137024 0.3445771336555481 -0.7779238224029541 0.8213475942611694 0.043184831738471985 -0.1230563372373581 -0.17298518121242523 -0.35370370745658875 0.15546485781669617 -0.4275205433368683 -0.26920995116233826 -0.16344480216503143 0.10383224487304688 -0.34218886494636536 0.09076901525259018 -0.4646415114402771 -0.24654872715473175 0.22589454054832458 0.12550848722457886 0.04445863887667656 0.030882634222507477 0.24124591052532196 0.19576495885849 0.6174848079681396 0.5622690320014954 0.37798750400543213 -0.06829583644866943 0.20968766510486603 -0.6830717325210571 -0.2021428346633911 0.1707025170326233 0.4461996555328369 0.1798393875360489 -0.14140728116035461 -0.5403417944908142 0.3420947790145874 0.5214886665344238 0.010594896040856838 -0.4943371117115021 -0.42457419633865356 0.21344755589962006 0.1508675515651703 0.7918682098388672 2.0750469502672786e-06 0.07722869515419006 0.1443357765674591 0.05435324087738991 0.14543162286281586 0.333448588848114 -0.09071184694766998 -0.31069108843803406 -1.0754536390304565 -0.7730754017829895 -0.5209646821022034 1.0584090948104858 0.8359912037849426 -0.3997196555137634 0.0818285420536995 -0.04068093001842499 0.10172150284051895 0.1046774834394455 0.37041690945625305 0.04905831813812256 -0.9207485914230347 -0.05685991421341896 0.03617475554347038 0.03705991804599762 0.13506025075912476 -0.05327395722270012 0.226103276014328 0.0830308347940445 0.04443129152059555 1.0039879083633423 -0.28960052132606506 -0.4556402266025543 -0.04834531247615814 0.44174888730049133 0.3263896703720093 0.44208309054374695 0.4826193153858185 -1.0211682319641113 -0.30786940455436707 0.8471781611442566 0.3049587607383728 -0.00021498894784599543 -0.07898378372192383 0.3138192594051361 0.26668480038642883 0.5117384195327759 0.1476193368434906 -0.619655191898346 -0.191715270280838 -0.11807578057050705 -0.5804083943367004 1.1382668018341064 0.07588805258274078 0.22820600867271423 0.33911609649658203 -1.7820664644241333 -0.5782687664031982 0.13546480238437653 -0.11708389967679977 0.4594520330429077 -0.1578466147184372 0.03753820061683655 -0.6035411357879639 -0.4448658525943756 0.07499408721923828 0.05911178141832352 0.2967780828475952 0.3280029594898224 0.2296336442232132 0.5434179306030273 1.011629343032837 0.5076351761817932 0.5217142701148987 0.055740322917699814 0.09561749547719955 -1.4406298398971558 -0.12481687217950821 0.17590384185314178 0.5888731479644775 0.6208327412605286 -0.35925599932670593 -1.002503752708435 0.293249249458313 0.4356398284435272 -0.19038794934749603 -0.7297729849815369 -0.37516576051712036 0.3724575638771057 -0.20137040317058563 1.0735712051391602 0.0738057941198349 0.058649223297834396 0.06397666782140732 0.271575391292572 0.17608141899108887 0.4624568819999695 0.373014897108078 -0.16918550431728363 -1.037634015083313 -0.8198941946029663 -1.0057302713394165 1.6026726961135864 1.046834111213684 -0.5653185248374939 -0.04882645606994629 -0.4185907244682312 0.07363669574260712 -0.2014578878879547 0.5322896838188171 0.08124915510416031 -1.4712419509887695 -0.23352698981761932 0.12132645398378372 0.0890253409743309 0.1257837861776352 -0.2346062958240509 0.10494915395975113 0.188566654920578 -0.03983375430107117 1.3620665073394775 -0.09124673157930374 -0.5126696825027466 0.2969397008419037 0.695766031742096 0.7446178793907166 0.49750831723213196 0.24835000932216644 -1.5215083360671997 -0.511280357837677 1.127296805381775 0.5776285529136658 0.24022425711154938 -0.4803459346294403 0.3779687285423279 0.17237287759780884 0.7132839560508728 0.47643038630485535 -0.7672777771949768 -0.17483209073543549 -0.25322824716567993 -0.9023792147636414 1.9133856296539307 0.3399498462677002 -0.16493025422096252 0.3010704815387726 -2.0924015045166016 -0.640326976776123 0.23377634584903717 -0.2141374796628952 0.32506659626960754 0.022542491555213928 -0.011692811734974384 -0.6143091917037964 -0.36809903383255005 0.09024524688720703 0.24351634085178375 -0.009662635624408722 -0.07082085311412811 0.10230721533298492 0.6028441786766052 0.48401719331741333 0.37706688046455383 0.44630730152130127 0.2527065873146057 0.009222337044775486 -0.6747384667396545 0.0021946073975414038 0.20553584396839142 0.5086508393287659 0.5781737565994263 0.07359988242387772 -0.7991708517074585 -0.02379520609974861 0.3131696283817291 -0.2566119432449341 -0.33078262209892273 -0.20130544900894165 0.2508694529533386 -0.21122407913208008 0.8940079808235168 0.0977487787604332 0.020604955032467842 0.23550520837306976 -0.07299462705850601 0.14657586812973022 -0.013859868049621582 0.3076245188713074 -0.13806846737861633 -0.9652546048164368 -0.18880075216293335 -0.5544207692146301 0.8429909944534302 0.4453648626804352 -0.37281477451324463 0.09185419231653214 -0.04440857097506523 0.23336181044578552 -0.08923661708831787 0.5368787050247192 -0.16300582885742188 -1.426162600517273 -0.2184758186340332 -0.061093371361494064 0.10978001356124878 0.06853418797254562 0.015042634680867195 -0.2928875684738159 0.11558844149112701 -0.20118586719036102 1.2352254390716553 -0.4322407841682434 -0.4802696108818054 0.1820959895849228 0.12425018846988678 0.7074785232543945 -0.025157364085316658 -0.12280599027872086 -0.8968059420585632 -0.33951422572135925 0.42070433497428894 0.31069329380989075 0.281342089176178 -0.2010447084903717 -0.1207781732082367 0.22574929893016815 0.35550886392593384 0.4062199592590332 -0.5290907025337219 0.0056517417542636395 -0.31855159997940063 -0.3089935779571533 1.5070266723632812 0.20096634328365326 -0.07181847095489502 -0.39181816577911377 -1.4895834922790527 -0.21789708733558655 -0.07991896569728851 0.10618613660335541 -0.03683280944824219 -0.9210710525512695 0.24413180351257324 -0.40737271308898926 -0.4839712083339691 0.014860318042337894 -0.07612258195877075 -0.3374880254268646 -0.1089140847325325 0.7036876082420349 -0.5502534508705139 0.2942119538784027 0.223486065864563 -0.18252795934677124 -0.3660077452659607 -0.15465259552001953 -0.8671214580535889 -0.3855249285697937 0.18384599685668945 0.3494454324245453 0.3380155563354492 0.12582950294017792 0.3166411221027374 0.536777913570404 -0.28758201003074646 0.5900633931159973 0.49100741744041443 0.7951454520225525 -0.5495116114616394 0.20021961629390717 0.6560249924659729 -0.21660612523555756 -0.3683640658855438 0.24142716825008392 0.16615788638591766 0.17832687497138977 -0.7081896662712097 -0.057063989341259 0.029762327671051025 -0.7780595421791077 -0.2694060802459717 0.23131924867630005 0.5180602073669434 -0.6062253713607788 -0.39585885405540466 -0.5342274308204651 -0.29236286878585815 -0.10499732196331024 0.5622220635414124 0.3435814380645752 0.048860665410757065 -0.9711117744445801 0.4403187036514282 0.32919347286224365 0.4576970636844635 0.05215170979499817 0.04865001142024994 -0.23661695420742035 -0.4953763782978058 0.6510750651359558 -0.9788718223571777 0.4223371148109436 0.38409799337387085 -0.3171612620353699 -0.16344407200813293 0.6861820816993713 -0.15679338574409485 0.19186462461948395 -0.5457165241241455 0.44084635376930237 0.5289229154586792 0.2999216914176941 -0.19488367438316345 -0.45570769906044006 -0.20252922177314758 -0.22072230279445648 0.1590455174446106 -0.79154372215271 0.5894970297813416 -0.1267852485179901 0.25340065360069275 -0.43160727620124817 -0.9161159992218018 -0.051012758165597916 -0.32267752289772034 0.7419558763504028 1.0629198551177979 -0.7039058804512024 0.24570105969905853 -0.09296607971191406 0.1727086454629898 0.32994234561920166 -0.08383162319660187 -0.0035389093682169914 -0.2619627118110657 -0.17997893691062927 0.09834068268537521 0.4884306788444519 0.035577837377786636 0.3263404369354248 -0.057157792150974274 0.10777196288108826 -0.07693666219711304 -0.1857978254556656 -0.2134266048669815 0.09171503037214279 0.0707164779305458 -0.60425865650177 -0.3113892376422882 0.0089896060526371 -0.9142993688583374 0.09764204919338226 0.03420266881585121 -0.4096398651599884 -0.31634995341300964 -0.14566166698932648 -0.585458517074585 0.1895257830619812 -0.06343954056501389 1.0980058908462524 0.3950437903404236 0.04131711646914482 -0.6383644938468933 -0.11688969284296036 -0.16687333583831787 0.0776774138212204 0.39828428626060486 -0.16087432205677032 0.08331877738237381 -0.2059926837682724 0.13839830458164215 -0.19789375364780426 -0.33864811062812805 0.37704694271087646 -0.09645677357912064 0.05574020743370056 0.030837595462799072 0.253074049949646 -0.30139559507369995 0.11618347465991974 0.033759705722332 -0.2137458622455597 0.12814398109912872 -0.12514185905456543 -0.20785817503929138 -0.02269822545349598 0.27834299206733704 -0.13804709911346436 0.22605662047863007 -0.19873127341270447 0.3070988953113556 -0.14193902909755707 0.041689734905958176 -0.2755884528160095 -0.25925564765930176 0.3586595952510834 -0.10320635885000229 0.007909351028501987 0.3124583065509796 -0.614436149597168 -0.3182847797870636 -0.1860073208808899 0.2938429117202759 -0.23333169519901276 0.03076927177608013 -0.022889254614710808 -0.17462484538555145 0.1860949993133545 -0.5477771162986755 0.43871670961380005 0.09649936109781265 0.20688921213150024 -0.0003863902238663286 0.0908064916729927 0.05386543646454811 -0.1942417025566101 -0.25254181027412415 0.11609576642513275 -0.11953913420438766 -0.3819059431552887 0.1773654967546463 0.3302142918109894 -0.30152013897895813 -0.4714273512363434 -0.12179943919181824 -0.3322783410549164 0.057319339364767075 0.6091029047966003 0.052999336272478104 0.4860835373401642 -0.16287319362163544 0.26032039523124695 -0.03792952746152878 -0.48894715309143066 -0.043275509029626846 0.09645643830299377 0.15569329261779785 -0.6345986127853394 -0.31760767102241516 -0.058791499584913254 -1.4853570461273193 0.1782025247812271 0.3403664231300354 -0.8724632263183594 -0.34720659255981445 -0.09868492186069489 -0.7631158232688904 0.4122065603733063 0.029337987303733826 1.6781394481658936 0.5009573101997375 0.11166711151599884 -0.6600394248962402 -0.03983112797141075 -0.1789679080247879 0.21299394965171814 0.2687855064868927 -0.028981445357203484 0.30049392580986023 -0.08128540962934494 0.12390743941068649 -0.18923845887184143 -0.28929033875465393 0.427977979183197 -0.04106920212507248 0.11688645929098129 -0.026088375598192215 0.30002233386039734 -0.41347742080688477 0.06228075549006462 -0.0761173665523529 -0.14235931634902954 0.19905711710453033 -0.3247482180595398 -0.12547089159488678 0.19081300497055054 0.3225676119327545 -0.097051702439785 0.14550380408763885 -0.35791832208633423 0.502734363079071 -0.22545644640922546 -0.006805155426263809 -0.3505612015724182 -0.2398013025522232 0.2949070930480957 0.02870279550552368 -0.0814485177397728 0.6767236590385437 -0.7697176933288574 -0.2717220187187195 -0.33348527550697327 0.2247520536184311 -0.14199264347553253 0.22153912484645844 0.10198758542537689 -0.33790913224220276 0.11509856581687927 -0.5122658610343933 0.695476233959198 0.13077521324157715 0.24549637734889984 -0.013399267569184303 -0.01740936189889908 -0.012214818969368935 -0.23694445192813873 -0.3365851640701294 0.3488031029701233 -0.15003669261932373 -0.2047979086637497 0.15542356669902802 0.2937243580818176 -0.18845582008361816 0.19069403409957886 -0.061873164027929306 -0.1586773544549942 -0.07136721163988113 0.9685872197151184 0.14571267366409302 0.03288491442799568 -0.20679788291454315 -0.035188186913728714 0.04330362007021904 -0.04137149080634117 0.1697327196598053 -0.09961512684822083 0.18850404024124146 -0.6157035827636719 -0.1883556842803955 0.17850099503993988 -2.073878049850464 0.008993342518806458 0.2918998599052429 -0.469176322221756 -0.10739661753177643 -0.10474129021167755 -0.2601162791252136 0.5170319080352783 0.22293874621391296 1.7697244882583618 0.5991151332855225 0.02913634665310383 -0.5270479917526245 0.0723951980471611 0.18542475998401642 0.16181397438049316 0.45205724239349365 -0.11446861177682877 0.2198125123977661 -0.23690547049045563 0.089494988322258 0.2659686803817749 -0.24119722843170166 0.10175153613090515 0.0059501174837350845 0.36488935351371765 0.15922150015830994 0.3277335464954376 -0.2609544098377228 -0.015606185421347618 0.007979190908372402 -0.13755552470684052 0.25384578108787537 -0.12482018768787384 -0.45560404658317566 0.18915517628192902 0.27186718583106995 0.04620879888534546 0.3046008050441742 0.10625659674406052 0.22604937851428986 0.07422824203968048 0.014026342891156673 -0.21659347414970398 -0.010168050415813923 0.4794963598251343 -0.12818169593811035 0.054176654666662216 0.31335991621017456 -0.6382182836532593 -0.16570957005023956 -0.24484366178512573 0.17399612069129944 -0.019425341859459877 0.34911099076271057 0.0024618085008114576 -0.4020594358444214 -0.06996571272611618 -0.058992933481931686 0.2837699055671692 0.09165424108505249 0.32506105303764343 -0.0402415432035923 0.13177822530269623 0.13193188607692719 -0.023701883852481842 0.05657541751861572 0.2317606806755066 -0.20868432521820068 -0.1652175933122635 0.1230577751994133 -0.5748221278190613 0.4851536452770233 0.6112447381019592 -0.0720912367105484 0.0052856942638754845 0.14252859354019165 -0.4708487391471863 0.29557663202285767 -0.13583867251873016 -0.20947568118572235 -0.1205015629529953 -0.17207710444927216 -0.16883797943592072 -0.21736297011375427 -0.7492954730987549 -0.5582612752914429 0.9144833087921143 -0.20221540331840515 0.05763502046465874 1.4762316942214966 -0.31264424324035645 -0.28618255257606506 0.8096470236778259 0.4955042600631714 0.03861527517437935 -0.5111253261566162 0.3596871495246887 0.6477398872375488 -1.346595287322998 -0.35244274139404297 0.0786953717470169 -0.39135417342185974 0.361090749502182 0.03146813064813614 -0.30134037137031555 -0.5879436135292053 0.14083875715732574 -0.06722819805145264 -0.28539249300956726 0.2890852391719818 0.154112309217453 -0.128773033618927 0.5562787652015686 0.025598810985684395 0.5058214664459229 0.49412521719932556 0.07856777310371399 0.19297802448272705 0.16647055745124817 -0.27083253860473633 0.004556204658001661 -0.41646602749824524 0.8716130256652832 -0.44727063179016113 -0.2595062851905823 0.3792820870876312 -0.4282679855823517 0.5804873704910278 0.41906699538230896 0.3937571048736572 -0.1883918195962906 -0.2531503438949585 -0.008591491729021072 -0.08781267702579498 0.14536724984645844 0.03958113491535187 -0.14847879111766815 -0.30766767263412476 -0.6458379626274109 0.22012284398078918 -0.24094292521476746 0.06557568907737732 0.9006903171539307 0.3169446587562561 0.08991026133298874 -0.3277921676635742 -0.05110049992799759 0.07602624595165253 -0.09513206779956818 0.2949181795120239 -0.713413655757904 0.1378341168165207 0.4241376221179962 0.08499536663293839 0.24884989857673645 -0.18314598500728607 0.2530272901058197 -0.2350562959909439 -0.005541239865124226 0.4431723654270172 -0.16003990173339844 -0.18367275595664978 -0.6042945981025696 -0.277510404586792 -0.20200859010219574 0.054306793957948685 0.00036839779932051897 -0.32885870337486267 0.15830503404140472 -0.04536982253193855 0.8016912937164307 -0.4931367039680481 -0.4227239191532135 0.22900792956352234 -0.1805131733417511 0.41845089197158813 -0.017153382301330566 -0.36580365896224976 0.3456419110298157 0.2769030034542084 -0.25722572207450867 0.05048208683729172 0.13119715452194214 -0.6369771957397461 0.15098443627357483 -0.10396330803632736 0.1408471316099167 -0.06365755200386047 -0.016374316066503525 0.1499181091785431 -0.03502483293414116 -0.06801868230104446 -0.14199544489383698 -0.03180966153740883 0.09388090670108795 0.010398929007351398 0.22911705076694489 -0.2514333426952362 0.3108014166355133 0.055481672286987305 -0.2962811589241028 -0.4267670512199402 0.11056890338659286 0.2895020544528961 -0.04115023463964462 0.5384703278541565 -0.024844178929924965 0.06387247145175934 0.3660796880722046 -0.2357408106327057 -0.6070541739463806 0.08218945562839508 0.4488013684749603 0.605381429195404 -0.27998700737953186 0.10514727979898453 0.14470955729484558 -0.3237001299858093 0.03281041607260704 0.7063865065574646 -1.0330432653427124 0.06473277509212494 -0.9704665541648865 -0.38742750883102417 0.06757878512144089 0.30543753504753113 0.3726862072944641 0.26123055815696716 -0.4642798900604248 0.3375799357891083 -0.008195015601813793 0.012029875069856644 -0.18567389249801636 -0.6667172908782959 0.17168913781642914 0.4313625395298004 0.11525945365428925 -0.1288294494152069 0.17979677021503448 0.324490487575531 0.13009360432624817 0.12916219234466553 -0.7270014882087708 0.1978956013917923 0.3471447825431824 -0.4874294102191925 0.07291298359632492 0.029668891802430153 -0.11207538843154907 0.39272740483283997 -0.08888698369264603 -0.25206881761550903 -0.6498948335647583 -0.4876350164413452 -0.1551574468612671 0.0004885137896053493 -0.028788717463612556 -0.3011893332004547 0.13306167721748352 -0.007275132928043604 0.7968072891235352 -0.5887394547462463 -0.415966659784317 0.17112907767295837 -0.2338857352733612 0.2761370539665222 0.029827916994690895 -0.3072893023490906 0.43195703625679016 -0.13486403226852417 -0.18865486979484558 0.11217756569385529 -0.10932490229606628 -0.6391293406486511 0.12564094364643097 -0.07567095756530762 0.13602480292320251 -0.10268595069646835 0.09922430664300919 0.17639246582984924 0.18260669708251953 0.05718471109867096 -0.02748519740998745 -0.10736480355262756 -0.007938782684504986 0.028666656464338303 0.2659914195537567 -0.3197632133960724 0.35342931747436523 0.04628484696149826 -0.5376461744308472 -0.4116291403770447 0.35740789771080017 0.3370247781276703 -0.057561665773391724 0.3743532598018646 0.020229030400514603 0.2005070447921753 0.23045963048934937 -0.2820383310317993 -0.4179876148700714 0.1397314965724945 0.2742658853530884 0.5949345827102661 0.12484769523143768 0.18420259654521942 0.376616895198822 -0.30759674310684204 0.08690148591995239 0.7422195672988892 -0.9348965883255005 0.0717364177107811 -1.0180965662002563 -0.30381739139556885 0.015475762076675892 0.3075992465019226 0.3992391526699066 0.29971247911453247 -0.545833945274353 0.35551777482032776 -0.195899099111557 0.062288347631692886 -0.4503072500228882 -0.6180949807167053 0.14089761674404144 0.31245648860931396 0.2023422122001648 -0.25352269411087036 0.2533428370952606 0.5584082007408142 0.26155370473861694 -0.0905260518193245 -0.4699998199939728 -0.007944122888147831 0.33068135380744934 -0.4240650236606598 0.2396247833967209 -0.011288215406239033 -0.06131172925233841 0.327433705329895 -0.21228469908237457 -0.3425462245941162 -0.053914979100227356 -0.1394934505224228 0.03427064046263695 -0.044021520763635635 -0.04324892908334732 0.29603251814842224 0.0713624358177185 -0.39473241567611694 0.5019530653953552 -0.14560064673423767 -0.47065308690071106 0.06455397605895996 -0.10396914184093475 0.06896011531352997 -0.01579449139535427 -0.22707659006118774 0.09449634701013565 -0.184819296002388 0.532937228679657 0.0948934331536293 0.04323332756757736 -0.04365132749080658 -0.22539889812469482 0.20055225491523743 -0.07398685067892075 0.1503748744726181 0.0285195205360651 0.27847474813461304 0.15226082503795624 -0.047035496681928635 -0.053435854613780975 -0.2737504839897156 0.015863558277487755 -0.12688489258289337 0.12091001123189926 -0.1997392326593399 -0.10070083290338516 0.22720085084438324 -0.13433782756328583 -0.2789307236671448 -0.0797436311841011 0.08368685096502304 0.07544472068548203 0.6592275500297546 -0.039556946605443954 0.11975637078285217 -0.081210657954216 -0.1611311137676239 -0.3084636628627777 0.1736512929201126 -0.3708477318286896 0.9288191795349121 -0.10313006490468979 -0.19505161046981812 0.2187717705965042 -0.03911777213215828 0.08150763809680939 0.6101982593536377 -0.29755616188049316 -0.03346272185444832 -1.0033491849899292 -0.3781440258026123 0.3568041920661926 -0.12784157693386078 -0.013805053196847439 0.31854045391082764 -0.3614410161972046 0.07233286648988724 -0.07858296483755112 0.1725819706916809 -0.22783374786376953 -0.28730669617652893 0.08537913113832474 -0.18720875680446625 -0.27294594049453735 0.1311810314655304 0.03543933108448982 0.722514271736145 0.20439115166664124 -0.1235242709517479 -0.3371843099594116 0.09896247088909149 0.12654350697994232 -0.5274731516838074 0.061443932354450226 -0.17784327268600464 -0.1829300820827484 0.2586112320423126 0.3187866508960724 0.581932783126831 -0.7368822693824768 -0.020596977323293686 0.11314476281404495 0.6396749019622803 0.06610504537820816 0.07294343411922455 0.4902714192867279 0.36500272154808044 -0.5231436491012573 0.3552154302597046 -0.6983488202095032 -0.12234670668840408 -0.022379765287041664 0.05695129185914993 -0.5173301100730896 0.6133642792701721 0.31219378113746643 0.3301549255847931 0.3510168194770813 0.8729737997055054 0.16598045825958252 -0.5366224646568298 0.1507587730884552 0.1428138166666031 0.07733526080846786 0.5347606539726257 0.2719089388847351 -0.04656809940934181 -0.12731949985027313 -0.39430344104766846 -0.19716906547546387 -0.6293493509292603 -0.3948547840118408 0.01188349537551403 -0.08410868048667908 -0.6400682926177979 -0.12795765697956085 0.1721734255552292 -0.4475115239620209 0.21508808434009552 -0.071445532143116 -0.42547494173049927 0.470039039850235 1.2311208248138428 0.1873493641614914 -0.8848984241485596 -0.022897550836205482 -0.42250001430511475 -0.9749634265899658 -0.5931587219238281 -0.12068638205528259 1.3961702585220337 0.6346103549003601 -0.1445125788450241 0.47106918692588806 0.6222822070121765 -0.5740830898284912 0.8392595648765564 -0.10412567853927612 -0.009284972213208675 1.1882243156433105 -0.1760118007659912 -0.5921157598495483 0.6202466487884521 -0.3182500898838043 -0.9591216444969177 0.16422073543071747 0.17169594764709473 -0.17055979371070862 -0.11159864068031311 0.16102664172649384 1.2974944114685059 -0.1957460343837738 -0.328344464302063 -0.5173407196998596 -0.0756748765707016 -0.02162526361644268 -1.1063803434371948 -0.31666916608810425 -0.8337836265563965 0.6561551094055176 -0.2514379620552063 -0.8158589005470276 -0.9982967376708984 0.21487994492053986 -0.012071332894265652 0.08464916795492172 -0.39186403155326843 -0.5743910670280457 0.5041716694831848 -0.27833202481269836 0.27623170614242554 -0.054592374712228775 0.04512239992618561 0.1938452571630478 0.5274672508239746 -0.253823459148407 -0.29637667536735535 -0.25852471590042114 0.01218823716044426 -0.32589876651763916 -0.27765047550201416 -0.2587212920188904 0.08670259267091751 0.21299441158771515 -0.06664528697729111 -0.06524921953678131 0.06832819432020187 0.13504108786582947 0.04830849915742874 -0.657136082649231 0.46352139115333557 -0.14495959877967834 -0.0856688842177391 -0.8232390880584717 -0.19234083592891693 0.2783915102481842 -0.23577892780303955 -0.23726752400398254 -0.42024385929107666 -0.6256181001663208 -0.20651504397392273 0.11739137768745422 -0.6776918768882751 0.5063745975494385 0.03452166169881821 -0.5531875491142273 -0.5237562656402588 -0.4266010522842407 -0.2433420717716217 0.08228307962417603 -0.1351415365934372 -0.6148936152458191 -0.318319171667099 0.14386239647865295 -0.4708766043186188 -0.00019975032773800194 -0.24540632963180542 0.10396256297826767 0.03494816645979881 0.2999926507472992 0.1184321865439415 0.6217730045318604 0.4375625550746918 -1.4470916986465454 -0.24372422695159912 -0.6977630853652954 -0.5396241545677185 -0.344321072101593 -0.3750649392604828 -0.35546913743019104 0.3700588345527649 -0.07222341001033783 0.3929828107357025 0.34475287795066833 0.09624265879392624 -0.17389582097530365 -0.09238412231206894 -0.35705074667930603 -0.5349547266960144 -0.8271748423576355 -0.09862110018730164 -0.10123148560523987 -0.2649313807487488 -0.2135472446680069 -0.09529592096805573 -0.43412673473358154 -0.671165406703949 -0.32424867153167725 0.37929630279541016 -0.6235717535018921 -0.06163020431995392 -0.623175323009491 -0.34592247009277344 -0.09360962361097336 -0.2810226380825043 -0.19460149109363556 -0.5404440760612488 -0.6516308188438416 0.6556469202041626 -0.3480117619037628 0.39961713552474976 -0.008667582646012306 -0.11080150306224823 0.5697686076164246 0.15703195333480835 0.028409689664840698 -0.4993487000465393 -0.35832950472831726 -0.2585674822330475 -0.044764887541532516 1.0649943351745605 -0.08151368796825409 0.7362735867500305 0.37315964698791504 -0.013845984824001789 0.007239022757858038 0.04149536043405533 1.6023385524749756 0.1808413416147232 -0.711895763874054 1.0027036666870117 -0.10736524313688278 0.011640535667538643 -0.7872918844223022 0.18018785119056702 0.38803598284721375 -0.3509047329425812 -0.1576126217842102 -0.4126585125923157 -1.4326376914978027 -0.5307865738868713 0.12526828050613403 -0.6747109293937683 0.8835374116897583 0.4909430146217346 -0.022776387631893158 -0.4452994763851166 -0.6061285734176636 0.07737388461828232 0.7873268723487854 -0.08862664550542831 -0.8066476583480835 -0.420307993888855 0.18326668441295624 -0.39966174960136414 0.2653564512729645 -0.26026225090026855 0.41328665614128113 0.09671740978956223 0.5786197185516357 0.3390175998210907 0.8684558868408203 0.46696576476097107 -1.8335124254226685 0.036329686641693115 -0.7321632504463196 -0.6763548851013184 -0.5473545789718628 -0.5690526962280273 -0.26137810945510864 0.7321668863296509 -0.030131477862596512 0.570694625377655 0.7316845655441284 0.5868882536888123 -0.19685760140419006 -0.20650158822536469 -0.369983971118927 -0.40214619040489197 -0.8869261741638184 0.21601267158985138 0.020165691152215004 -0.21947655081748962 -0.11329908668994904 0.004551418591290712 -0.6973135471343994 -0.5610182285308838 0.047988854348659515 0.7791069149971008 -0.8743165731430054 1.4188035726547241 -0.7218729853630066 -0.6315212249755859 -0.11874307692050934 -0.27364277839660645 0.02011503465473652 -0.4726536273956299 -0.33411291241645813 0.11091473698616028 0.5920637845993042 0.2939651608467102 0.16583645343780518 0.09558689594268799 0.5049564242362976 0.2430053949356079 0.4476071298122406 0.16083233058452606 0.30742496252059937 0.23251181840896606 -0.012749471701681614 0.7889584302902222 -0.6260617971420288 0.6467825174331665 0.3292580842971802 0.5104798078536987 0.365811824798584 -0.06446599215269089 1.6435515880584717 0.27253761887550354 -0.023883741348981857 0.7059973478317261 0.8030891418457031 -0.004456482827663422 0.20526188611984253 0.15894606709480286 0.2328435480594635 0.11679364740848541 0.1330043375492096 0.11062970012426376 -1.0005793571472168 0.14592066407203674 0.08457940816879272 0.0025090412236750126 0.30102649331092834 0.7536497712135315 0.8877561092376709 0.2921066880226135 -0.04694437235593796 0.37032854557037354 0.5429235100746155 -0.03568726405501366 -0.39425569772720337 0.33943477272987366 0.2485881894826889 -0.44932353496551514 0.25610271096229553 0.11987108737230301 0.946273684501648 0.4079667925834656 0.9431653618812561 0.3126569092273712 0.6560285091400146 0.6856103539466858 -1.1451411247253418 0.030675912275910378 -0.697196364402771 0.11428941041231155 0.47837740182876587 -0.106135293841362 -0.15867319703102112 0.7584633231163025 0.3470255136489868 0.5138955116271973 1.167686104774475 0.6189951300621033 0.3572784960269928 0.2744807004928589 -0.1568402349948883 -0.3390399217605591 -0.04118574410676956 0.7263526320457458 0.033219341188669205 0.22982025146484375 0.5062656998634338 0.6463231444358826 -0.408664733171463 -0.016604652628302574 0.245300754904747 0.6536954641342163 -0.18781262636184692 0.28827452659606934 0.1481953114271164 0.1391751617193222 0.5713605880737305 0.36641478538513184 0.06775983422994614 -0.38158532977104187 -0.9347712397575378 -0.46336954832077026 0.9935460090637207 -0.24805141985416412 -0.11963240802288055 0.20606781542301178 -0.275127649307251 -0.2326187789440155 0.0917356014251709 -0.3365228474140167 0.4513850212097168 0.6258752346038818 0.3903890550136566 0.1645890176296234 -0.46245843172073364 -0.23040007054805756 0.3421916961669922 -0.1393083781003952 -0.47450146079063416 -0.49582064151763916 0.36219170689582825 1.036238431930542 0.17951905727386475 -0.37230193614959717 0.3916246294975281 -0.7112399935722351 -0.40536800026893616 0.45659032464027405 0.2784525454044342 -0.05309847742319107 0.14001117646694183 0.1474805772304535 -0.47204309701919556 -0.35368993878364563 -0.2714955806732178 -0.18911035358905792 0.5363518595695496 0.20741082727909088 0.4117419719696045 -0.6124908328056335 -0.5582478046417236 -0.16765381395816803 -0.08366880565881729 -0.113925039768219 0.018686985597014427 0.12695272266864777 0.08380082249641418 0.40911969542503357 -0.5506131052970886 -0.27660009264945984 -0.7673435807228088 0.3554033041000366 0.7424453496932983 0.2466355860233307 0.10208278894424438 -0.15034842491149902 1.0798282623291016 0.3291490972042084 0.4780126214027405 -0.4933335483074188 0.4696989357471466 0.17800848186016083 -0.0016705823363736272 0.7476707696914673 0.4310319125652313 -0.19534769654273987 -0.536918044090271 -0.46410438418388367 0.08903347700834274 -0.1922435611486435 -0.3485773503780365 0.2751915454864502 0.07362784445285797 -0.8614235520362854 -0.03815329074859619 0.155231773853302 0.14726638793945312 0.41167202591896057 0.3348783552646637 0.19942335784435272 0.1305578649044037 0.7509586811065674 -1.0561755895614624 -0.47756439447402954 -1.384152889251709 -0.42468690872192383 0.22250522673130035 0.11159858852624893 0.018776992335915565 -0.7065675258636475
0.15472762286663055 -0.14797580242156982 -0.06770005822181702 -0.08718942105770111 0.006300569046288729 0.0012312314938753843 -0.24917195737361908 -0.267697811126709 -0.24912147223949432 0.1652398556470871 -0.07413167506456375 -0.19984911382198334 -0.1765478402376175 0.0503910668194294 -0.0568733811378479 -0.11491470783948898 0.08546075224876404 -0.013939205557107925 -0.08926238119602203 -0.0816049873828888 -0.06946379691362381 -0.02999897301197052 0.06775312125682831 -0.21378549933433533 -0.08926764130592346 0.18833208084106445 0.020114585757255554 -0.13296100497245789 -0.26278284192085266 0.007134390063583851 -0.01601029559969902 0.06635668128728867 0.06100519001483917 0.022528929635882378 0.1248960867524147 0.07893901318311691 0.1067698746919632 0.03780243545770645 0.21219462156295776 0.05816592276096344 0.16454538702964783 -0.08893889933824539 -0.3181043565273285 0.09381656348705292 0.17394043505191803 0.19858381152153015 -0.13550040125846863 0.10396014153957367 -0.0643615573644638 0.061429232358932495 0.08108143508434296 -0.047492366284132004 0.005818630568683147 0.09937130659818649 -0.2542222738265991 -0.23082737624645233 0.2707088589668274 0.02905646711587906 0.1355556845664978 -0.016164159402251244 0.13496465981006622 0.023709658533334732 0.03216387331485748 -0.07573052495718002 -0.014074817299842834 -0.18839533627033234 0.1268826127052307 -0.0913691446185112 0.009259248152375221 -0.054004110395908356 -0.012246285565197468 0.02536589466035366 -0.056387484073638916 -0.2563750743865967 -0.0567568801343441 0.07692103087902069 -0.14439520239830017 -0.0542951375246048 0.0774192214012146 0.15709304809570312 0.0003186203830409795 -0.1630954146385193 0.08023608475923538 0.0947064757347107 -0.014402967877686024 0.1522253453731537 -0.04705009609460831 0.023273421451449394 0.08155176788568497 -0.037519168108701706 0.18163402378559113 -0.12617503106594086 -0.020772816613316536 -0.12928378582000732 -0.09392967075109482 0.005089344456791878 -0.18841876089572906 -0.24574324488639832 -0.16226892173290253 0.11152825504541397 -0.08392637968063354 -0.168960303068161 -0.09164202958345413 -0.09889236837625504 -0.03717770427465439 -0.20230311155319214 0.004297877661883831 -0.137974351644516 -0.11616139858961105 -0.16037732362747192 -0.18988409638404846 -0.046777307987213135 -0.07297635823488235 -0.29269465804100037 -0.094892717897892 0.18780389428138733 0.10054799914360046 -0.1443372368812561 -0.4039612412452698 -0.10253627598285675 -0.034359410405159 0.003360447473824024 0.07609724253416061 0.07662118226289749 0.12397634238004684 0.18842603266239166 -0.1289723664522171 0.0001653242070460692 0.20818032324314117 -0.02757064253091812 0.30742305517196655 -0.013299328275024891 -0.4774737060070038 0.19514240324497223 0.11697003245353699 0.3531883955001831 -0.11897242069244385 0.11199036240577698 -0.13168957829475403 0.006568071898072958 0.1258760541677475 -0.1317983865737915 -0.010492526926100254 0.11485562473535538 -0.3384937644004822 -0.22527670860290527 0.36298689246177673 -0.057777825742959976 0.11876150220632553 -0.12515214085578918 0.23750685155391693 0.22928950190544128 -0.010698674246668816 -0.1840897649526596 -0.04430574178695679 -0.09151189774274826 0.09722432494163513 -0.0631338581442833 0.10441924631595612 -0.1011444628238678 0.02970922365784645 -0.044759348034858704 -0.08821666985750198 -0.1496778428554535 -0.08082765340805054 -0.03909267857670784 -0.25760650634765625 -0.1426355242729187 0.06047126650810242 0.012343652546405792 0.12044164538383484 -0.27555400133132935 0.129348024725914 -0.0963498130440712 0.031131552532315254 0.24117445945739746 -0.09260644763708115 0.05952727422118187 0.019185692071914673 -0.0006314757047221065 0.039053987711668015 -0.08223920315504074 0.10275746881961823 -0.07284053415060043 -0.039090223610401154 -0.05603495240211487 -0.2643011808395386 -0.06048329174518585 -0.2160928100347519 0.046573322266340256 -0.10904079675674438 -0.021879354491829872 -0.02189343236386776 -0.34125104546546936 0.02662888914346695 -0.14012138545513153 0.05295868590474129 -0.13912807404994965 -0.008527841418981552 -0.010991730727255344 -0.36232203245162964 0.01811043545603752 0.027097711339592934 -0.11723831295967102 -0.14908453822135925 -0.004134957678616047 0.0689118355512619 -0.07818315178155899 -0.2714134156703949 0.022097518667578697 -0.030077708885073662 -0.0020157017279416323 0.14304694533348083 -0.03952812775969505 0.09367847442626953 0.0962558463215828 0.08089281618595123 -0.09818248450756073 0.022145504131913185 -0.020811043679714203 0.10708638280630112 0.008454769849777222 -0.2803438603878021 0.07913218438625336 0.1523025631904602 0.07935711741447449 -0.034558869898319244 0.10884714126586914 -0.028111057355999947 0.014104891568422318 0.06558743864297867 -0.0803537592291832 -0.22177135944366455 0.10310430079698563 -0.31115689873695374 -0.24718455970287323 0.22807656228542328 0.03234732151031494 0.25744110345840454 -0.1100446954369545 0.14744193851947784 0.01288760919123888 0.0050089554861187935 -0.15398047864437103 -0.0322071835398674 -0.033385198563337326 -0.07799473404884338 0.022988103330135345 0.03343287482857704 -0.04445377737283707 0.16504943370819092 0.18306031823158264 0.12282448261976242 -0.20907533168792725 0.14029018580913544 0.012868959456682205 -0.13746784627437592 0.02344709262251854 0.09804435819387436 0.18878273665905 0.0068663666024804115 -0.10320883244276047 0.14800839126110077 -0.22974541783332825 0.24673189222812653 0.14940263330936432 -0.12130627781152725 -0.0700225904583931 -0.15382838249206543 0.14203613996505737 -1.518345832824707 -0.16529062390327454 0.6432150602340698 -0.4982544481754303 0.47795671224594116 -0.2422734647989273 -0.6683196425437927 -0.3067665696144104 0.06610109657049179 -0.28081226348876953 0.3863983750343323 0.3249538540840149 0.05044126883149147 -0.15757843852043152 0.056387197226285934 -0.7355698943138123 0.24974331259727478 -0.11577614396810532 0.15132389962673187 -0.11369019001722336 0.1324489563703537 0.37774553894996643 -0.06195525825023651 0.13635455071926117 0.2299870401620865 -0.17185093462467194 0.409015029668808 -0.1854662001132965 -0.006682331208139658 0.1927962601184845 -0.045989345759153366 0.16860198974609375 0.5916081070899963 0.18178796768188477 -0.04884219542145729 -0.19283543527126312 -0.03619248792529106 -0.3090825378894806 -0.3459436297416687 0.3108510375022888 0.13477976620197296 0.2492309957742691 -0.3691844344139099 -0.19182321429252625 0.14669376611709595 -0.060356203466653824 0.030795257538557053 0.20202162861824036 0.24677862226963043 0.08910184353590012 -0.7230873703956604 0.5297691822052002 0.9056761860847473 -0.19264355301856995 -0.10360940545797348 -0.15404073894023895 0.00398891419172287 -0.4529721438884735 0.08512891829013824 -0.5204898715019226 0.27187204360961914 0.16968676447868347 -0.4046681225299835 -0.010475152172148228 0.4092366397380829 -0.6076788902282715 -0.47034600377082825 -0.2473701685667038 0.22564077377319336 0.03540864959359169 -0.059455208480358124 0.034836817532777786 -0.02141558937728405 -0.27381446957588196 -0.24282827973365784 -0.5605344176292419 -0.20932921767234802 0.7474091649055481 0.00033387469011358917 0.03852588310837746 -0.08501625806093216 0.28771689534187317 -0.0971062183380127 0.2007765918970108 0.0960812196135521 -0.11506638675928116 -0.6099898219108582 0.853757381439209 0.15873926877975464 -0.22460481524467468 -0.10618284344673157 -0.0661676675081253 -0.1320449560880661 -0.05758244916796684 0.009599748067557812 -0.07899096608161926 -0.1432940512895584 0.03515952080488205 -0.22427238523960114 -0.019945785403251648 0.17096392810344696 -0.03917945176362991 -0.12790726125240326 -0.009509159252047539 -0.07736670225858688 -0.04161415994167328 -0.12112731486558914 -0.020402200520038605 -0.07051197439432144 -0.038148511201143265 -0.13562992215156555 -0.14976686239242554 -0.043122291564941406 -0.28050440549850464 -0.05674704909324646 -0.11500734835863113 0.03344237431883812 -0.12331520020961761 -0.04219403490424156 0.01911819726228714 0.051522281020879745 -0.24850860238075256 0.067531518638134 -0.034788619726896286 0.09611327201128006 0.09457225352525711 -0.06902489811182022 -0.0373883917927742 -0.26737985014915466 -0.22776906192302704 -0.0614611878991127 -0.13743484020233154 -0.06751809269189835 -0.017906321212649345 -0.028935031965374947 0.009949436411261559 -0.049356963485479355 -0.0950855240225792 -0.014278074726462364 0.12506715953350067 -0.13462267816066742 -0.02500641904771328 -0.1598242223262787 -0.05424594134092331 -0.23320059478282928 -0.18685761094093323 -0.04025882109999657 0.08977853506803513 0.12046372890472412 -0.033337611705064774 -0.1585283726453781 0.003948801662772894 -0.0906778872013092 -0.08155495673418045 0.008970050141215324 0.053697168827056885 -0.19830086827278137 -0.15780051052570343 -0.03454792499542236 -0.023201610893011093 0.010732973925769329 -0.024408383294939995 -0.23602399230003357 -0.11910891532897949 -0.019405722618103027 0.037428118288517 -0.10065237432718277 0.07501431554555893 -0.032926615327596664 0.06540118902921677 0.032568491995334625 -0.13123801350593567 -0.11007322371006012 0.002201863331720233 -0.21994535624980927 -0.07814909517765045 -0.0023538731038570404 0.09620268642902374 -0.06825539469718933 -0.07103097438812256 0.04630284383893013 0.04472147300839424 -0.2899932265281677 -0.007140177767723799 -0.09091918915510178 -0.04465951398015022 0.049896374344825745 -0.07957280427217484 -0.18195252120494843 0.07407517731189728 0.0935291275382042 -0.040092188864946365 -0.08803740888834 -0.2723725736141205 -0.07731249183416367 -0.09299810975790024 -0.14219945669174194 0.014935304410755634 -0.21845191717147827 -0.1443493813276291 -0.2520378828048706 -0.01921025477349758 -0.030803445726633072 -0.23253874480724335 -0.09610794484615326 -0.16592134535312653 0.09694675356149673 -0.15657983720302582 -0.0016910616541281343 0.005278041586279869 0.10661179572343826 -0.23421014845371246 0.04772638902068138 -0.07043114304542542 0.13613712787628174 0.1281563639640808 0.00968244206160307 -0.12891657650470734 -0.31152820587158203 -0.11154568195343018 0.031017282977700233 -0.09296897053718567 -0.020153379067778587 0.08878450840711594 0.16828837990760803 0.06988110393285751 -0.08906184881925583 -0.15521551668643951 -0.060921043157577515 0.05690287798643112 -0.051438018679618835 0.050830792635679245 -0.2360597401857376 -0.07483682781457901 -0.22297091782093048 -0.06228792667388916 -0.0684785395860672 0.10663174092769623 0.12070490419864655 0.0048150778748095036 -0.08010958135128021 0.06697062402963638 -0.1243235245347023 -0.08639296889305115 -0.014157380908727646 0.03730710223317146 -0.09794624894857407 -0.05786607414484024 -0.04055798053741455 0.14127260446548462 0.018410461023449898 0.0641375333070755 -0.18492072820663452 -0.10285524278879166 -0.08741404861211777 0.014272809959948063 -0.15451323986053467 0.15328921377658844 0.03524530678987503 -0.019095800817012787 0.12155957520008087 -0.1833474487066269 -0.12420616298913956 -0.23836414515972137 -0.25939521193504333 0.04244795814156532 -0.07254603505134583 -0.04547610878944397 -0.07818207889795303 -0.06647627800703049 0.02523813210427761 -0.026718052104115486 -0.09701166301965714 0.10987018048763275 -0.01853819191455841 -0.05956331267952919 -0.03351818770170212 0.062392111867666245 -0.015207654796540737 0.08435578644275665 0.1542227417230606 0.037684038281440735 -0.07657703012228012 -0.13600659370422363 0.006476025562733412 0.13215668499469757 -0.06425606459379196 0.10105066746473312 -0.018628548830747604 -0.21100646257400513 -0.1422473043203354 0.041372932493686676 0.06272470206022263 0.12375347316265106 -0.11811064183712006 0.03519835323095322 0.21012192964553833 -0.0556454174220562 0.13288076221942902 0.028422849252820015 0.017942549660801888 -0.018299851566553116 0.05460278317332268 0.1331932246685028 0.1608995944261551 0.25317806005477905 -0.050134673714637756 0.09227310866117477 -0.06974104791879654 0.14837385714054108 0.09285115450620651 -0.06962023675441742 0.017139840871095657 -0.036335282027721405 0.07236500084400177 0.025603419169783592 0.07679038494825363 -0.06277726590633392 0.045297857373952866 0.09185530245304108 0.11443289369344711 0.050374746322631836 0.06875530630350113 0.00896595511585474 -0.09626578539609909 0.017853612080216408 0.09624197334051132 0.04728452116250992 0.09723234921693802 0.09330032020807266 0.22788797318935394 0.14874067902565002 -0.06815584003925323 0.004376828204840422 0.0775156319141388 -0.0387919619679451 -0.09989065676927567 0.08414308726787567 -0.0154054444283247 0.07063516229391098 0.01876119151711464 0.15842026472091675 0.15457096695899963 0.06534536182880402 0.022210102528333664 0.04380795359611511 -0.07802684605121613 0.23462507128715515 0.020759809762239456 0.1306791454553604 0.11577524989843369 -0.02217530831694603 -0.013484889641404152 -0.20898538827896118 0.15038073062896729 0.03767865523695946 0.017685716971755028 -0.015012716874480247 -0.05384853854775429 0.05893093720078468 0.05474955961108208 -0.5050005912780762 -0.12237001955509186 -0.03708270564675331 -0.02177545614540577 -0.31214118003845215 -0.04841523990035057 -0.4413054585456848 -0.07158985733985901 0.052383970469236374 0.014858205802738667 -0.1345910131931305 0.12228097021579742 0.0287290308624506 0.11154907941818237 -0.11664848029613495 -0.4393528997898102 0.1549847573041916 0.22431033849716187 -0.3683009445667267 0.0286732017993927 0.4311855137348175 -0.6617300510406494 0.05666874721646309 -0.18789145350456238 0.049910012632608414 -0.3322891891002655 -0.1303836554288864 0.38771453499794006 -0.019224921241402626 -0.12366101145744324 -0.08604832738637924 0.5483905673027039 0.12035886943340302 -0.16606701910495758 0.1601797491312027 -0.08308429270982742 0.5395592451095581 -0.4447820484638214 -0.41660237312316895 -0.17544381320476532 0.26379430294036865 0.15607060492038727 0.4897889494895935 -0.17337505519390106 -0.3948729634284973 -0.157701313495636 -0.060054097324609756 0.10742592811584473 0.3794938623905182 -0.21432965993881226 0.42633146047592163 -0.5002469420433044 -0.24386121332645416 0.036716390401124954 0.026667974889278412 -0.24948465824127197 -0.47857481241226196 0.0854749083518982 -0.18596233427524567 0.23488850891590118 0.41460978984832764 -0.17036014795303345 -0.13896548748016357 0.15846656262874603 -0.3788502812385559 -0.09490369260311127 0.0817636251449585 0.08659759908914566 0.050038307905197144 0.17799757421016693 -0.22415442764759064 -0.254060298204422 0.12699390947818756 -0.1550319939851761 -0.04978129640221596 -0.21458402276039124 -0.4412733018398285 0.06360844522714615 -0.4184489846229553 0.4021238088607788 -0.26311177015304565 -0.30912378430366516 0.1493111550807953 0.3012070059776306 -0.10388609021902084 -0.19061285257339478 0.1851428747177124 -0.22892968356609344 -0.03793274983763695 -0.05669854208827019 -0.07181937992572784 0.04658041521906853 0.01054482813924551 -0.06939448416233063 -0.088078573346138 -0.04854787886142731 0.15611571073532104 0.02957344427704811 -0.2507793605327606 -0.08808034658432007 0.09218785166740417 0.05770062655210495 0.1379561424255371 -0.01980370283126831 -0.01975390501320362 -0.007784886285662651 0.009746766649186611 -0.017728034406900406 -0.00469234911724925 0.19891925156116486 -0.05990660935640335 -0.359967976808548 0.12763087451457977 -0.03938932716846466 -0.13207867741584778 -0.15451963245868683 0.16227133572101593 0.15449129045009613 0.039551883935928345 0.017924588173627853 -0.16161921620368958 -0.1219174712896347 0.007612260058522224 -0.18743866682052612 -0.12092020362615585 0.15788280963897705 0.052884846925735474 -0.44382771849632263 -0.05162963643670082 -0.09988768398761749 -0.014086319133639336 0.25025439262390137 -0.20472897589206696 -0.07751006633043289 -0.11672188341617584 -0.07318391650915146 -0.10809618979692459 -0.0887455940246582 -0.10807503759860992 0.1491769552230835 0.005857138894498348 -0.13124515116214752 0.10462525486946106 0.27390751242637634 0.13649436831474304 -0.15721866488456726 0.05027283728122711 -0.10847833752632141 0.031099004670977592 -0.07432053983211517 -0.07738252729177475 -0.009153779596090317 -0.13821548223495483 0.17330878973007202 -0.04808957874774933 -0.07654842734336853 0.22591112554073334 -0.03532608225941658 0.07700274884700775 -0.11245964467525482 -0.08151393383741379 -0.33055585622787476 0.32553476095199585 0.04875974357128143 -0.2936458885669708 0.008888316340744495 0.10294957458972931 -0.04648684337735176 -0.22549931704998016 -0.1190144419670105 -0.053906913846731186 -0.31275826692581177 0.0061743357218801975 -0.3473891019821167 0.12054326385259628 0.14966697990894318 -0.22721990942955017 0.039388928562402725 -0.12522903084754944 -0.187747523188591 -0.06451667845249176 0.014659318141639233 -0.001880219322629273 -0.03525213152170181 -0.24261924624443054 -0.029457135125994682 0.01781611144542694 0.18306373059749603 -0.1929064840078354 -0.2641673684120178 0.10124443471431732 0.019042549654841423 0.42031773924827576 -0.051560625433921814 0.34944161772727966 -0.0037334254011511803 -0.08403245359659195 -0.07097898423671722 -0.16122379899024963 0.509657084941864 0.12408918142318726 -0.2895219624042511 0.21174626052379608 0.11412036418914795 -0.09589911252260208 -0.15029335021972656 0.12454322725534439 0.2110058069229126 0.04103346914052963 0.12994810938835144 -0.21703575551509857 -0.3634766638278961 -0.10948412865400314 -0.05816766992211342 -0.22038792073726654 0.19570231437683105 0.17765961587429047 -0.4965408146381378 -0.1069127768278122 -0.19771714508533478 -0.0017944046994671226 0.3728327751159668 -0.09307745099067688 -0.18198156356811523 -0.07155629992485046 -0.06639373302459717 -0.26728156208992004 -0.1497466266155243 -0.22104278206825256 0.3288438320159912 0.09695752710103989 -0.1544370949268341 0.1723836213350296 0.2992677092552185 0.2375166267156601 -0.42145538330078125 0.06919676065444946 -0.15500704944133759 -0.04269899055361748 -0.2607739269733429 -0.19299212098121643 -0.06661882996559143 -0.1429080218076706 0.08121003210544586 0.1107686460018158 0.038277916610240936 0.25421014428138733 0.013338658027350903 0.05412822589278221 -0.2582148015499115 -0.022412598133087158 -0.5398550033569336 0.2791726887226105 -0.01138925738632679 -0.2726459503173828 0.07507973909378052 0.08976233005523682 -0.13467423617839813 -0.3074079155921936 -0.11521835625171661 -0.05325288325548172 -0.3900543451309204 0.35424965620040894 -0.436888724565506 0.1028042882680893 0.15572619438171387 -0.13394109904766083 0.14822052419185638 -0.2593440115451813 0.03461378812789917 -0.07641423493623734 0.07602560520172119 0.06074473634362221 -0.09951025247573853 -0.02231213077902794 0.01910938136279583 0.1977558434009552 0.04050084576010704 -0.030519874766469002 -0.034026265144348145 0.18348243832588196 0.02958250604569912 0.5463373064994812 0.013076827861368656 0.14914396405220032 -0.10289281606674194 -0.07512786984443665 0.11843903362751007 -0.09432491660118103 0.48464855551719666 0.2427123486995697 -0.24808357656002045 0.2056874781847 0.19607742130756378 -0.00744543457403779 0.004968383349478245 0.2336067110300064 0.28323084115982056 0.20032550394535065 0.1500842422246933 -0.09343273192644119 -0.21467120945453644 0.023849695920944214 -0.0889095738530159 -0.05336699262261391 0.06452075392007828 0.14677461981773376 -0.10133808106184006 0.02202780358493328 0.10027951747179031 0.0505094975233078 -0.09434914588928223 -0.12098073959350586 -0.026152094826102257 0.060315825045108795 -0.0305790938436985 -0.17494633793830872 -0.06663515418767929 -0.08282481133937836 0.3766683042049408 0.0004945773398503661 0.07670585811138153 0.07545483857393265 0.2941199839115143 0.1067436933517456 -0.22551113367080688 0.014032780192792416 -0.237954244017601 0.13446831703186035 0.13655686378479004 0.014069528318941593 -0.00881438609212637 0.04280981048941612 0.29003533720970154 0.23249857127666473 0.2399420291185379 0.0769432783126831 0.14801812171936035 0.17521639168262482 -0.11060096323490143 0.11506626754999161 -0.2325385957956314 0.38669249415397644 0.23486733436584473 -0.17866289615631104 0.06971094757318497 0.08128413558006287 -0.11587215214967728 -0.1334570050239563 0.05052903667092323 -0.003880299860611558 -0.07566989213228226 0.3442469835281372 0.04867992922663689 0.1299426108598709 0.31778696179389954 -0.22453492879867554 0.07121749967336655 -0.01891140080988407 0.47659826278686523 0.22988761961460114 -1.6347038745880127 -0.1925770491361618 0.5552409887313843 -0.12684552371501923 0.32468342781066895 0.5200293660163879 0.13802459836006165 0.07058548182249069 0.27020126581192017 -0.6019551157951355 -0.2759156823158264 -0.14444229006767273 -0.031295981258153915 0.5627780556678772 -0.8732534050941467 0.958957850933075 0.5252248048782349 0.021774260327219963 -0.27113091945648193 -0.30474361777305603 -0.09376172721385956 0.1986471712589264 -0.17325147986412048 0.5165285468101501 -0.29730844497680664 -0.15014338493347168 -0.04145710915327072 0.046248048543930054 -0.012839463539421558 -0.23110145330429077 -0.3886071741580963 -0.3508005440235138 -0.12331108748912811 0.14986126124858856 0.1118665412068367 -0.5699441432952881 -0.21143995225429535 -0.2573447823524475 0.8227053880691528 0.17874647676944733 0.213774174451828 -0.4361864924430847 -0.5800455212593079 -0.01617499068379402 -0.05411742255091667 0.5360817313194275 -0.15966428816318512 -0.11377367377281189 0.25545796751976013 -0.29265451431274414 -0.12724201381206512 0.37551364302635193 -0.02112068049609661 0.43446946144104004 -0.7076142430305481 0.04822276532649994 0.3538912832736969 0.2541183531284332 -0.1423397809267044 -0.12564411759376526 -0.09409857541322708 -0.556686282157898 -0.2667500972747803 0.37578070163726807 0.14360348880290985 0.056026849895715714 0.5196711421012878 -0.35867711901664734 0.4610317051410675 0.4285026490688324 -0.42981213331222534 0.5916458964347839 -0.019869057461619377 -0.07749203592538834 -0.5391287207603455 -0.6587968468666077 0.22378353774547577 -0.4484412968158722 -0.4582419991493225 -0.6085765361785889 0.07548200339078903 -0.6075153946876526 0.995519757270813 0.36318889260292053 -0.5001460909843445 -0.8397355079650879 -0.2929331064224243 0.21065765619277954 0.27926331758499146 -0.019778700545430183 0.03834971413016319 -0.03221909701824188 -0.07699327170848846 0.0015469595091417432 -0.07974850386381149 -0.03181106224656105 -0.011054664850234985 0.20290440320968628 0.006864338647574186 0.2070470154285431 0.062064822763204575 0.06766048818826675 0.1078670546412468 0.07668384164571762 -0.03655263036489487 -0.02795681171119213 0.01672985963523388 0.058766938745975494 0.1348566710948944 0.08365846425294876 -0.0007923096418380737 -0.022776760160923004 0.20790936052799225 0.016250044107437134 -0.07554415613412857 0.1600898802280426 0.032258834689855576 0.12223494797945023 -0.08482956141233444 -0.019678033888339996 -0.04583204537630081 0.04091024026274681 -0.01969566009938717 0.21237967908382416 -0.019933555275201797 0.0364229679107666 0.23508070409297943 0.08490699529647827 0.2179911583662033 0.25398701429367065 -0.04902727156877518 -0.03488972410559654 0.004191884305328131 0.10033368319272995 -0.05366799980401993 -0.03728654980659485 0.0495695136487484 -0.041068196296691895 0.32322078943252563 0.1036355048418045 0.2442643791437149 0.13769327104091644 0.12562541663646698 0.18034259974956512 0.07027740031480789 -0.008922665379941463 0.0072284871712327 0.14461326599121094 0.10187378525733948 -0.031059453263878822 -0.12018503248691559 0.05201839283108711 0.05134912580251694 0.07629545778036118 0.25260621309280396 0.05251048505306244 0.025877678766846657 0.14361603558063507 -0.09525877237319946 -0.08225300163030624 -0.04973858967423439 0.12428438663482666 0.011059015057981014 0.08310315757989883 0.09066010266542435 0.021023862063884735 0.005004496313631535 -0.07697378098964691 -0.04848546162247658 0.15278244018554688 0.10434773564338684 0.1685635894536972 0.09025418758392334 0.0098331980407238 0.03294119983911514 -0.014258194714784622 0.09992142766714096 0.03615984693169594 0.030546437948942184 0.09302151203155518 0.03020433709025383 -0.07869047671556473 0.13086166977882385 -0.038265883922576904 0.014426500536501408 -0.10524284839630127 0.07168613374233246 0.22395357489585876 -0.14419348537921906 0.10734117776155472 -0.027929063886404037 0.1083228588104248 0.05065934360027313 0.1417876034975052 0.05860111489892006 -0.03956250473856926 0.1278597116470337 0.016430821269750595 0.22342616319656372 0.16588269174098969 -0.06627951562404633 0.05415772646665573 0.10990655422210693 -0.055818378925323486 0.03465351462364197 0.02645406499505043 0.0038216575048863888 0.09102687239646912 -0.012572661973536015 -0.08952734619379044 -0.12313531339168549 0.10169769823551178 -0.05366319790482521 0.15440642833709717 0.07693371921777725 0.09333979338407516 0.30188024044036865 0.07007277756929398 0.1021554172039032 0.18829450011253357 0.10066869854927063 0.07895536720752716 0.006157494615763426 0.07364112883806229 0.03354662284255028 -0.02285899594426155 -0.044189102947711945 -0.0034787538461387157 0.2818905711174011 -0.019964855164289474 0.1890716552734375 0.19803540408611298 0.06799709051847458 0.16089588403701782 0.012333210557699203 0.07817164063453674 0.05908789485692978 0.026322927325963974 0.06693195551633835 -0.07969774305820465 -0.06507693231105804 0.0893983244895935 0.004641528706997633 0.046432897448539734 0.24581967294216156 0.08456064760684967 0.08899472653865814 0.177040696144104 -0.081790491938591 -0.15370237827301025 -0.0915277898311615 0.19955796003341675 -0.03182656690478325 0.07819737493991852 0.020762791857123375 -0.05077069252729416 0.11835964024066925 -0.133811354637146 -0.12347352504730225 0.10313047468662262 0.07157023251056671 0.10971008986234665 0.11890896409749985 0.06499124318361282 -0.006020613946020603 0.03246733918786049 -0.03458166867494583 0.12278928607702255 -0.1529669612646103 -0.09177900850772858 -0.0906308963894844 -0.15566767752170563 -0.1432451754808426 -0.1313440203666687 -0.15355923771858215 -0.02267574332654476 -0.08692862093448639 -0.04580738767981529 -0.0467299148440361 -0.0301952101290226 -0.07898883521556854 0.2668214738368988 0.04558064788579941 -0.0752183347940445 -0.009270681999623775 -0.12348984181880951 -0.0021069974172860384 0.03819618746638298 0.26260873675346375 -0.03853622078895569 -0.024902774021029472 0.01388921495527029 0.022722799330949783 -0.0059841289184987545 -0.3090716004371643 0.025634557008743286 0.025306029245257378 0.06769943237304688 0.04451717808842659 0.019840572029352188 -0.0960942730307579 -0.2584693133831024 -0.07416625320911407 -0.21280738711357117 0.03447659686207771 -0.09684931486845016 -0.14434181153774261 -0.20147602260112762 -0.11249352246522903 -0.017611201852560043 -0.15483219921588898 -0.0677906721830368 -0.041741881519556046 0.1402674913406372 -0.10330978780984879 -0.12405914813280106 -0.058895859867334366 0.11289025843143463 0.004548342432826757 -0.07448872923851013 -0.1310485601425171 0.06281673163175583 0.08663273602724075 -0.054586976766586304 -0.10394928604364395 -0.006882807705551386 -0.07367045432329178 -0.1372319757938385 0.00282533117569983 -0.1766730546951294 -0.02499469369649887 -0.14514341950416565 -0.12008624523878098 0.04551710560917854 0.1944519281387329 -0.018938269466161728 -0.10584818571805954 -0.08206494152545929 -0.06904994696378708 -0.12695303559303284 -0.17293821275234222 -0.1703251451253891 0.0030507235787808895 -0.3626753091812134 -0.0696932002902031 -0.11478111147880554 -0.05186968296766281 -0.0536954365670681 -0.08655906468629837 0.0065325903706252575 -0.032203804701566696 0.32742857933044434 -0.13616541028022766 -0.09707732498645782 -0.2467024326324463 -0.031009390950202942 0.04209621623158455 -0.1088167130947113 -0.10066118091344833 0.3982830047607422 -0.1477222442626953 -0.3137359917163849 0.13856062293052673 0.02722270041704178 -0.015275242738425732 0.1513303518295288 -0.07893776893615723 0.28236839175224304 0.2019013911485672 -0.1633199006319046 0.02738872915506363 0.05254872888326645 -0.25641775131225586 0.4290277659893036 -0.09062162041664124 0.1647709757089615 0.0003272614849265665 0.0891648456454277 -0.27344924211502075 -0.26744720339775085 0.041018322110176086 0.11511755734682083 -0.24818268418312073 0.3003697693347931 0.10695597529411316 -0.20817765593528748 -0.10416056960821152 -0.38305050134658813 -0.08495577424764633 0.18058839440345764 -0.39012348651885986 0.31015753746032715 -0.026570236310362816 -0.17521318793296814 0.39656057953834534 -0.6055104732513428 0.21628297865390778 0.5674501657485962 0.39399072527885437 0.13677769899368286 -0.11005254089832306 -0.472844660282135 -0.10884499549865723 -0.06193867325782776 -0.13449282944202423 0.5980984568595886 -0.24873468279838562 -0.2586333453655243 0.012652448378503323 0.23885855078697205 0.2580459713935852 0.14755965769290924 -0.3589341938495636 -0.06066349148750305 -0.16372822225093842 0.18248285353183746 0.37682268023490906 -0.16383448243141174 -0.48103177547454834 -0.12343030422925949 0.061849579215049744 0.2583388388156891 -0.001309298793785274 0.03575895354151726 -0.11327390372753143 0.04879661649465561 0.24585013091564178 -0.14040210843086243 -0.13911032676696777 0.24955496191978455 -0.1695026159286499 -0.15663474798202515 0.18476277589797974 -0.29356634616851807 0.00017252347606699914 0.09635686874389648 0.22525739669799805 0.362040251493454 -0.08147259801626205 -0.04430762305855751 0.278673380613327 -0.1914849728345871 -0.004104175604879856 0.34221354126930237 -0.41813886165618896 -0.3263293504714966 -0.0802002027630806 -0.09815037250518799 -0.15566910803318024 0.06043361499905586 -0.17066188156604767 0.08474812656641006 0.02229640819132328 0.07347061485052109 -0.041611772030591965 0.012574628926813602 -0.13979415595531464 -0.0788850337266922 -0.13090993463993073 -0.0210963673889637 0.010011320933699608 -0.12921810150146484 0.014752848073840141 -0.08405286073684692 -0.051851291209459305 -0.14388656616210938 -0.06523934006690979 -0.11051744967699051 -0.07863637059926987 0.026750978082418442 0.059492696076631546 -0.038317691534757614 -0.13802272081375122 -0.01594298519194126 -0.04399578645825386 -0.18505236506462097 -0.08364167809486389 0.03312583640217781 0.013874297961592674 -0.007623258512467146 0.06079276278614998 -0.20519496500492096 -0.1080855131149292 -0.2327858954668045 -0.09567635506391525 -0.07108086347579956 -0.1963374763727188 0.057860326021909714 0.04859231039881706 -0.09675322473049164 -0.2505153715610504 -0.00557679682970047 -0.05339110642671585 -0.09418880194425583 -0.022590272128582 -0.08285783976316452 -0.01638607122004032 0.02176782488822937 -0.07416678965091705 -0.02162463217973709 -0.18223246932029724 -0.09386908262968063 -0.021644221618771553 -0.0822361633181572 -0.0013324831379577518 -0.02893015183508396 -0.09803279489278793 -0.19267867505550385 -0.029924314469099045 0.005764695815742016 -0.030660441145300865 0.008396505378186703 -0.0705893412232399 -0.08288748562335968 -0.14039677381515503 -0.035599030554294586 -0.026037970557808876 -0.020706990733742714 0.04879368469119072 0.0347474068403244 -0.08475765585899353 -0.21988128125667572 -0.06270778179168701 -0.07730381935834885 -0.03242303431034088 0.1139698401093483 -0.019773613661527634 0.02776041254401207 -0.06265116482973099 -0.17095795273780823 0.031215041875839233 -0.05081157013773918 -0.08303478360176086 -0.11774971336126328 0.05573701485991478 -0.02912324294447899 0.047302983701229095 -0.1977466493844986 -0.09563113003969193 0.03472084179520607 -0.06886745989322662 0.0005166139453649521 -0.017531568184494972 0.06006496399641037 -0.17699408531188965 -0.08520548045635223 -0.10698970407247543 -0.15790124237537384 -0.009685518220067024 -0.05297449603676796 0.07498351484537125 -0.07993586361408234 0.055378422141075134 -0.08508046716451645 -0.10410428792238235 -0.08038367331027985 -0.10934039205312729 -0.04677218571305275 0.007753678131848574 -0.031507931649684906 0.055476851761341095 0.057213108986616135 -0.1332436054944992 -0.04423385486006737 -0.10746470838785172 0.05398370698094368 -0.1035509929060936 -0.06464970111846924 0.016881678253412247 -0.07873256504535675 -0.011751579120755196 -0.1232864186167717 -0.1385612189769745 -0.22112523019313812 -0.03205433860421181 -0.1103360578417778 -0.08144832402467728 0.10221341252326965 0.025610346347093582 -0.14757461845874786 -0.15753617882728577 -0.1572689563035965 -0.03975117579102516 -0.09350044280290604 -0.0852474719285965 0.028727460652589798 -0.040318675339221954 -0.04248829185962677 -0.028047215193510056 -0.012034010142087936 -0.21281325817108154 -0.06631071865558624 0.03332250937819481 -0.09024427831172943 0.05238339677453041 -0.09869100153446198 -0.012323446571826935 -0.15969663858413696 0.047639429569244385 -0.1219998374581337 -0.09805087000131607 0.0438440665602684 -0.10596617311239243 -0.032684896141290665 -0.14033012092113495 -0.0062969583086669445 0.14312025904655457 -0.14542193710803986 0.04654421657323837 0.06919167190790176 -0.08188079297542572 -0.17528507113456726 -0.037810854613780975 -0.13347654044628143 -0.17963844537734985 0.08114652335643768 -0.013406568206846714 -0.010579344816505909 0.041370030492544174 -0.284163236618042 0.11013192683458328 -0.0008992879302240908 0.015238720923662186 0.040693264454603195 0.03131513670086861 -0.05372167378664017 -0.055837586522102356 -0.2222982943058014 0.0605880506336689 -0.025246184319257736 0.025991812348365784 -0.05088252201676369 0.032865628600120544 0.03001115843653679 0.05232108756899834 0.04545797035098076 -0.03728390857577324 0.11315884441137314 0.05744145065546036 0.08338576555252075 0.0034319786354899406 0.04071696475148201 -0.06066063418984413 -0.07871416956186295 0.029442038387060165 0.06021394580602646 -0.016711434349417686 -0.016476912423968315 -0.11077947914600372 0.048297323286533356 -0.05831175297498703 -0.05918801575899124 0.022397955879569054 -0.022912783548235893 0.03272264078259468 -0.004354786593466997 0.04693830385804176 0.04645766317844391 0.09737949818372726 0.17386941611766815 0.09388724714517593 0.12122461199760437 0.004802226088941097 0.0045263804495334625 0.14006388187408447 0.01203101221472025 0.10478829592466354 0.17233364284038544 0.13541314005851746 0.06095347926020622 -0.04079270735383034 -0.079875148832798 0.09716632217168808 0.026435045525431633 0.024353129789233208 0.055830199271440506 0.06553575396537781 0.0705401822924614 0.01987408474087715 0.04257998242974281 -0.04654605686664581 0.0710630789399147 0.0561392642557621 -0.05562398582696915 0.042528264224529266 -0.1415247619152069 -0.10616734623908997 -0.005036733578890562 -0.005384697113186121 -0.02203592099249363 0.10387367010116577 -0.0173618383705616 -0.0518559105694294 -0.13347196578979492 -0.07575816661119461 -0.09822951257228851 0.10662582516670227 0.05738527327775955 0.04416428506374359 0.04952404275536537 0.08799566328525543 0.005692963022738695 0.016746867448091507 0.057088933885097504 0.09744370728731155 0.04079660400748253 -0.025231482461094856 -0.033448852598667145 0.01002847496420145 