-0.3078133463859558 0.5739402174949646 0.07280826568603516 0.27763813734054565 0.5563917756080627 -0.30443957448005676 0.4964684844017029 -0.2341614067554474 0.6393305659294128 -0.3593934178352356 -0.4842988848686218 0.22070997953414917 -0.6522480249404907 0.5762425065040588 -0.49516215920448303 -0.4430786967277527 0.5440467000007629 -0.026493430137634277 0.4716699719429016 -0.18071448802947998 -0.41178110241889954 -0.043064892292022705 0.6653652787208557 -0.34719687700271606 0.5535276532173157 -0.5132896900177002 -0.5849992036819458 -0.31534600257873535 0.034327030181884766 -0.5636597871780396 -0.5303127765655518 0.5739871859550476 -0.5565071105957031 0.14060449600219727 -0.6268064975738525 0.002400696277618408 -0.6056181192398071 -0.05070805549621582 -0.5017023086547852 0.3889773488044739
0.2339192032814026 -0.28157711029052734 0.2810567617416382 -0.30690762400627136 -0.3773743510246277 0.5368338227272034 0.35610073804855347 -0.43151214718818665 -0.17319798469543457 0.042933642864227295 -0.2654084861278534 -0.4580598473548889 0.16049045324325562 0.04216986894607544 0.48854726552963257 -0.526709258556366
-0.2577987015247345 0.3533530831336975 0.43600767850875854 -0.0620761513710022 0.630619466304779 0.28075075149536133 0.5146393179893494 -0.28472697734832764
0.5047088265419006 -0.39130255579948425 0.06094866991043091 0.517799437046051 -0.34280550479888916 0.61646968126297 -0.523298978805542 0.23794037103652954
