0.5841107964515686 0.07515889406204224 -0.5473390221595764 0.15523147583007812 0.6844845414161682 0.17603552341461182 0.3677669167518616 -0.6626935005187988 -0.5905573964118958 0.0646895170211792 0.10657304525375366 -0.09928834438323975 -0.09150451421737671 0.19311004877090454 -0.187238872051239 -0.19268035888671875 0.4775910973548889 0.22827661037445068 0.6893237233161926 -0.4452221989631653 0.11491107940673828 -0.017776429653167725 -0.2919257581233978 -0.27947676181793213 -0.5872661471366882 -0.026680052280426025 0.3793392777442932 0.24702495336532593 0.301604688167572 -0.6926562786102295 -0.42246079444885254 -0.49855294823646545 0.6724088788032532 0.40471142530441284 0.34599536657333374 -0.5400481224060059 -0.4008399546146393 -0.6063748002052307 0.36509066820144653 0.6290225386619568
0.4956344962120056 0.5457068085670471 0.4377606511116028 0.3866564631462097 -0.347541481256485 0.6118056178092957 -0.15177321434020996 -0.36729156970977783 -0.05712062120437622 0.024280309677124023 -0.3041629195213318 -0.5054635405540466 0.27684080600738525 -0.4204520583152771 -0.49944233894348145 -0.4285424053668976
-0.6855445504188538 0.3557233214378357 -0.22853335738182068 -0.3879265785217285 -0.19873005151748657 -0.40659216046333313 -0.23383072018623352 -0.635477602481842
0.4176117777824402 -0.019273996353149414 0.35556358098983765 0.091427743434906 -0.6211448907852173 -0.5435449481010437 -0.21654242277145386 -0.5909163355827332
