0.28738391399383545 -0.6705049872398376 -0.5025718212127686 -0.4509376287460327 0.4290458559989929 0.2815711498260498 -0.5994341969490051 -0.19738227128982544 -0.1469038724899292 -0.6562310457229614 -0.6599083542823792 -0.6200156807899475 -0.5144419074058533 0.17726129293441772 0.09538507461547852 -0.6484420895576477 0.5827966332435608 0.3841293454170227 0.46856755018234253 -0.1283092498779297 0.28883010149002075 0.10914558172225952 0.258484423160553 -0.6980897188186646 0.615732729434967 0.4008496403694153 -0.004221081733703613 0.08951932191848755 0.3584417700767517 0.5187851786613464 0.3619709610939026 -0.0408439040184021 0.24711263179779053 -0.17016881704330444 0.23965609073638916 0.2975321412086487 -0.4545711278915405 -0.2908015251159668 -0.357751727104187 0.03888857364654541
0.3580757975578308 0.3123883605003357 -0.6857690215110779 0.01682358980178833 0.38110238313674927 -0.0351557731628418 0.19273972511291504 0.5613583922386169 -0.7027494311332703 -0.5349494218826294 0.5647755265235901 0.28622132539749146 -0.4062897861003876 0.013133466243743896 0.4123501181602478 -0.35240647196769714 -0.54294753074646 0.04650545120239258 -0.06453704833984375 0.2743135094642639
-0.004370361566543579 -0.11816922575235367 -0.0266142338514328 0.1709352731704712 0.11870196461677551 0.21674898266792297 -0.13964912295341492 -0.2045993059873581 -0.19437770545482635 0.09981873631477356 -0.047012507915496826 0.0007789731025695801 0.1994219720363617 0.14432305097579956 -0.12539918720722198 -0.05728866159915924 0.13420331478118896 -0.11560947448015213 -0.006608501076698303 0.19691875576972961 0.2071090042591095 -0.19408923387527466 -0.1765432357788086 0.026887208223342896 0.09189435839653015 0.13040503859519958 -0.0229327529668808 -0.08057524263858795 0.034838199615478516 0.18545874953269958 0.1302337348461151 0.10512900352478027 -0.17000964283943176 -0.10154667496681213 -0.010930031538009644 0.1023293137550354 0.07570341229438782 -0.13640490174293518 0.20500722527503967 -0.07704409956932068 -0.19085045158863068 0.024773776531219482 -0.13621382415294647 -0.1341204196214676 -0.11869197338819504 -0.0261402428150177 0.15213805437088013 -0.06144806742668152 -0.19675447046756744 0.12067115306854248 0.039289236068725586 0.13057535886764526 -0.08581189811229706 -0.1025138571858406 -0.10099766403436661 -0.07191833853721619 0.1405707597732544 0.12647241353988647 -0.07214322686195374 0.09837904572486877 -0.09977447241544724 -0.0035856813192367554 -0.048241108655929565 0.039685845375061035 0.2084362804889679 0.07505086064338684 0.20253702998161316 -0.06789101660251617 0.15013763308525085 0.16644731163978577 0.12398767471313477 0.0554736852645874 -0.07370300590991974 -0.03945145010948181 0.19445660710334778 -0.17207111418247223 -0.07269401848316193 0.149200439453125 -0.06832419335842133 -0.20198525488376617 -0.14883989095687866 -0.1083437129855156 0.06268835067749023 -0.03583782911300659 0.02357877790927887 0.082609623670578 0.10458028316497803 -0.07855501770973206 -0.1517421454191208 -0.0804300308227539 -0.10434962809085846 -0.1550338864326477 0.025204405188560486 0.017227530479431152 0.2102491557598114 0.02747771143913269 0.12673893570899963 -0.15494462847709656 0.11700871586799622 -0.12244151532649994 -0.19266298413276672 0.16259995102882385 -0.04560829699039459 -0.20871327817440033 -0.12439945340156555 -0.2192259579896927 0.2131618857383728 -0.08153203129768372 0.0631173849105835 -0.03845912218093872 0.1807594895362854 -0.17101144790649414 -0.17427951097488403 0.013852998614311218 0.08112215995788574 0.13717931509017944 0.0799936056137085 -0.19370496273040771 -0.10652598738670349 -0.15992411971092224 -0.0019158273935317993 0.02250492572784424 0.04206535220146179 -0.06407871842384338 -0.09686073660850525 0.14455506205558777 -0.0029579848051071167 -0.014652028679847717 -0.06370359659194946 0.030160218477249146 -0.2093036025762558 -0.21252325177192688 -0.07616151869297028 0.17855298519134521 0.16969388723373413 0.19054216146469116 0.1350359320640564 0.016728028655052185 0.029357731342315674 -0.2210523784160614 0.00558878481388092 -0.1894804686307907 -0.03341645002365112 -0.16648268699645996 -0.11577805131673813 -0.07554422318935394 -0.07997012138366699 -0.1333998441696167 0.06271791458129883 -0.050333842635154724 0.20009580254554749 0.08272337913513184 0.0445915162563324 0.015199288725852966 -0.10812193900346756 0.11352419853210449 0.06825858354568481 0.13092878460884094 -0.14308491349220276 0.16648808121681213 0.12823233008384705 0.13543373346328735 0.19521546363830566 -0.07847720384597778 0.0439910888671875 0.02233949303627014 -0.18660619854927063 -0.07582040131092072 -0.17797379195690155 0.03458419442176819 0.013510093092918396 -0.0651928037405014 0.14207231998443604 -0.06511971354484558 -0.08228494226932526 0.13723626732826233 -0.18429388105869293 -0.08462712168693542 -0.18993718922138214 -0.04694259166717529 -0.14656931161880493 -0.1312357783317566 -0.1925743818283081 0.06191936135292053 0.14464396238327026 -0.053199395537376404 0.15445640683174133 0.20054417848587036 0.01687517762184143 0.13445231318473816 0.005487114191055298 0.09943926334381104 0.2035074532032013 0.09007528424263 0.061106592416763306 -0.18998421728610992 -0.19013740122318268 -0.06693677604198456 0.0810750424861908 -0.165429949760437 0.2217249572277069 0.21748453378677368 0.2161923050880432 -0.012534290552139282 0.14278826117515564 -0.2151288539171219 -0.02960115671157837 0.21650302410125732 0.03839966654777527 -0.039396464824676514 0.060684144496917725 0.1328553855419159 0.13206464052200317 0.1269001066684723 0.05070739984512329 -0.1343100517988205 -0.014734774827957153 -0.20274825394153595 -0.12970325350761414 -0.1743299663066864 -0.1685810089111328 0.0203104168176651 -0.011963129043579102 -0.20285914838314056 -0.0060074180364608765 -0.0673513114452362 0.014317765831947327 0.0872347354888916 -0.17323818802833557 -0.13082200288772583 0.19280216097831726 0.08807924389839172 0.04636073112487793 0.10817605257034302 0.13208556175231934 -0.007828250527381897 -0.1982932984828949 0.0637710690498352 0.0783318281173706 0.016762182116508484 0.0316140353679657 0.060412585735321045 0.12868180871009827 0.07501623034477234 -0.2034902274608612 0.10731261968612671 0.2023460566997528 -0.0015476793050765991 0.21889925003051758 -0.1170748621225357 -0.19857078790664673 -0.21486994624137878 0.08504685759544373 0.10189986228942871 -0.0900191217660904 0.007854864001274109 -0.10837108641862869 -0.06424659490585327 0.039139002561569214 -0.20859195291996002 0.01891675591468811 -0.13313345611095428 0.1566869020462036 0.09814897179603577 0.09472551941871643 0.17987802624702454 -0.012510225176811218 0.11956870555877686 -0.11796005815267563 0.15371325612068176 0.040857672691345215 0.09372425079345703 0.2057872712612152 -0.0017845630645751953 -0.1671428382396698 -0.16780050098896027 -0.03256998956203461 0.21601566672325134 -0.12248358130455017 -0.08435575664043427 -0.21969987452030182 -0.2050911784172058 -0.012744560837745667 -0.20526860654354095 -0.17294228076934814 0.085671067237854 0.15592005848884583 0.0446716845035553 0.20828071236610413 0.206953763961792 0.01421743631362915 0.18706145882606506 0.209788978099823 -0.2184915840625763 -0.0931130051612854 0.005986720323562622 -0.211274653673172 -0.14693324267864227 0.17671865224838257 -0.15726011991500854 -0.006229668855667114 0.07543930411338806 -0.18297486007213593 -0.059454068541526794 0.020625025033950806 0.015553668141365051 0.08725374937057495 0.014921203255653381 -0.026067152619361877 -0.027899250388145447 -0.03688773512840271 0.064125657081604 0.19771641492843628 -0.029527664184570312 0.028137952089309692 -0.09634067118167877 -0.1865207701921463 0.14734581112861633 -0.06544111669063568 0.03945118188858032 -0.17214515805244446 -0.014339327812194824 0.052870601415634155 -0.17594698071479797 -0.07108229398727417 -0.013095110654830933 -0.15897905826568604 0.04325738549232483 -0.0779581367969513 -0.014011815190315247 -0.0329677015542984 0.2087518274784088 0.07659521698951721 0.06657421588897705 -0.07607170939445496 -0.05855183303356171 0.08174481987953186 0.02535887062549591 0.05189359188079834 0.12769287824630737 -0.12623615562915802 0.09803184866905212 -0.17625026404857635 -0.10459601134061813 0.17972320318222046 0.16481885313987732 0.12177875638008118 0.1801576018333435 -0.11866393685340881 -0.16603738069534302 0.022838890552520752 -0.13246381282806396 0.15235021710395813 -0.009623304009437561 -0.06053338944911957 -0.1723492443561554 -0.11138825863599777 -0.13411343097686768 -0.20903228223323822 -0.10456698387861252 -0.15599390864372253 -0.1920222043991089 0.16511178016662598 -0.18120987713336945 0.022280022501945496 0.14917972683906555 -0.21669265627861023 -0.20548878610134125 -0.06000490486621857 0.09440803527832031 -0.20304399728775024 0.0669284462928772 -0.1627788245677948 0.05919957160949707 0.1861570179462433 -0.16871613264083862 -0.07636500895023346 -0.16860823333263397 0.14609387516975403 0.16379013657569885 -0.16748467087745667 0.08025014400482178 -0.12299084663391113 -0.010938450694084167 -0.06886379420757294 0.08978983759880066 0.18386131525039673 -0.17257308959960938 -0.09469708800315857 -0.12383176386356354 -0.031350210309028625 0.08160132169723511 -0.04670862853527069 0.11235874891281128 -0.19118930399417877 -0.1775396168231964 -0.0812065601348877 0.165094792842865 -0.045539528131484985 0.00926026701927185 -0.22305725514888763 0.21446844935417175 0.033050209283828735 0.020322293043136597 0.12451016902923584 -0.0006251931190490723 0.18454402685165405 0.034341663122177124 -0.11311375349760056 0.11080029606819153 -0.1680377870798111 -0.12491103261709213 -0.18088382482528687 0.07522651553153992 0.2210937738418579 0.21843501925468445 -0.12458513677120209 0.05457574129104614 0.19668114185333252 0.18517035245895386 -0.11059047281742096 0.16734746098518372 -0.14743652939796448 0.1419992446899414 -0.08833697438240051 0.18972817063331604 0.16020876169204712 -0.1171276718378067 0.02278316020965576 0.002152472734451294 -0.09343117475509644 0.083070307970047 -0.18888449668884277 -0.17455771565437317 0.13717788457870483 -0.13924959301948547 0.1899266242980957 -0.04387098550796509 -0.12243637442588806 -0.14983785152435303 0.1266230046749115 0.005817428231239319 0.15897631645202637 0.21804478764533997 0.15364137291908264 -0.03971955180168152 0.0854358971118927 -0.06567645072937012 -0.21248723566532135 -0.0590963214635849 0.08566597104072571 -0.200065016746521 -0.012735068798065186 -0.09135898947715759 -0.21188220381736755 -0.17144906520843506 0.20356696844100952 -0.07136772572994232 0.14687979221343994 -0.060333311557769775 -0.1833471953868866 -0.04433061182498932 0.14924457669258118 0.046601295471191406 0.023102179169654846 -0.1389538198709488 0.01997441053390503 -0.017793655395507812 -0.09847834706306458 -0.009507983922958374 0.10326027870178223 -0.11369173228740692 -0.09487093985080719 0.19387531280517578 0.1173132061958313 0.14540502429008484 -0.02207392454147339 0.1546737253665924 0.0048243701457977295 -0.14906246960163116 0.1121048629283905 -0.15687750279903412 0.028919994831085205 -0.10105393826961517 -0.21269910037517548 -0.07490897178649902 0.05705353617668152 -0.11448442935943604 -0.03715337812900543 0.16918081045150757 -0.15236318111419678 -0.012146338820457458 0.21689173579216003 0.13552138209342957 -0.0826374888420105 -0.1846083104610443 0.0437178909778595 0.14247247576713562 0.1469596028327942 -0.20573599636554718 0.004236578941345215 -0.20033112168312073 -0.15508314967155457 0.12535282969474792 -0.07443325221538544 -0.14962366223335266 0.201084166765213 0.011550530791282654 0.19541186094284058 0.16511204838752747 -0.19778336584568024 0.09159138798713684 0.03244054317474365 0.17101633548736572 0.04083779454231262 0.20573574304580688 -0.17095281183719635 0.05937358736991882 -0.05931749939918518 0.019092634320259094 0.11380305886268616 0.08591774106025696 0.15838369727134705 0.005397871136665344 -0.17128251492977142 -0.16345331072807312 -0.05456218123435974 -0.11697588860988617 -0.05465136468410492 -0.04754781723022461 -0.07451945543289185 0.076739102602005 0.08623000979423523 -0.0005114823579788208 -0.20350489020347595 0.12988629937171936 0.0659441351890564 -0.023024067282676697 0.19926375150680542 0.11807850003242493 0.20777153968811035 -0.16409903764724731 -0.06836305558681488 -0.20160849392414093 0.20031851530075073 0.1984405815601349 -0.1124783530831337 -0.18142691254615784 -0.06473195552825928 0.07071557641029358 0.21026930212974548 0.12785986065864563 0.21794721484184265 -0.04677779972553253 -0.04818110167980194 -0.20093178749084473 0.0846455991268158 -0.06050226092338562 0.2048616111278534 -0.08854000270366669 0.12953665852546692 -0.16130179166793823 0.21629279851913452 -0.08935463428497314 0.10457488894462585 0.08409211039543152 -0.1824193000793457 0.1371467411518097 0.09102892875671387 -0.12877720594406128 0.19732490181922913 0.16141247749328613 0.0009279698133468628 0.042351722717285156 -0.12790191173553467 -0.02918054163455963 0.18331897258758545 0.0988120436668396 0.11128339171409607 -0.20569849014282227 -0.008997231721878052 -0.11556341499090195 0.19146305322647095 -0.12142723053693771 -0.07468543946743011 -0.20103469491004944 -0.051217034459114075 0.03162413835525513 -0.17540869116783142 -0.0036434531211853027 -0.03794580698013306 -0.11441968381404877 -0.11251252889633179 -0.06572720408439636 0.00867338478565216 0.0475727915763855 -0.09503623843193054 0.094891756772995 -0.07166451215744019 0.14277857542037964
-0.12585116922855377 0.10736757516860962 0.2123623788356781 0.20265549421310425 0.11187493801116943 -0.07505014538764954 -0.14890338480472565 -0.20571988821029663 -0.18660324811935425 0.07036924362182617 0.012589335441589355 -0.14370015263557434 -0.11925414949655533 0.1514231264591217 0.16984516382217407 -0.1601611226797104 -0.0696491152048111 -0.04935269057750702 0.21964144706726074 0.0719136893749237 0.14442649483680725 -0.0045299232006073 -0.028955519199371338 0.040919333696365356 0.0965765118598938 -0.08783796429634094 0.15895304083824158 -0.14563295245170593 -0.07995311915874481 -0.01788969337940216
0.08422914147377014 -0.1295720636844635 0.08610314130783081 0.12076884508132935 0.021719828248023987 0.11112287640571594 -0.057400599122047424 0.034743532538414 0.01828630268573761 -0.07136677205562592 -0.006967872381210327 -0.17437684535980225 -0.08484134823083878 -0.08453793078660965 -0.0006799250841140747 0.10262957215309143 0.16833162307739258 -0.051535189151763916 -0.0931113064289093 0.18136611580848694 0.11520931124687195 -0.07342451810836792 -0.028408512473106384 -0.12051895260810852 0.05686984956264496 -0.05289320647716522 -0.010872960090637207 -0.029266104102134705 -0.15495866537094116 -0.18022798001766205 0.11776721477508545 0.036823198199272156 -0.017582640051841736 0.012194305658340454 0.13868632912635803 -0.058041997253894806 -0.10549785196781158 0.11272132396697998 0.09183034300804138 0.10439404845237732 0.0569513738155365 -0.0959048718214035 -0.12355158478021622 -0.10329417139291763 -0.03423856198787689 0.01908758282661438 0.13954609632492065 -0.09500332176685333 -0.11793870478868484 0.015781879425048828 -0.004754245281219482 0.12674909830093384 -0.10693333297967911 -0.1513482928276062 -0.1562783122062683 0.04502539336681366 0.07790154218673706 -0.017065688967704773 -0.048553675413131714 -0.001514241099357605 -0.15370409190654755 -0.1331128478050232 -0.17469201982021332 -0.05053924024105072 -0.09083934873342514 0.13318917155265808 0.18063199520111084 0.16726303100585938 -0.1212879866361618 -0.014413043856620789 -0.06602190434932709 -0.17270244657993317 0.14040571451187134 -0.13474401831626892 0.06244282424449921 0.09663176536560059 0.021459028124809265 0.11096280813217163 -0.14139464497566223 -0.014837324619293213 0.07362803816795349 -0.17625775933265686 0.14144837856292725 -0.1118883565068245 -0.11906969547271729 -0.17475248873233795 0.18209582567214966 -0.1047210544347763 -0.026168957352638245 -0.04957641661167145 -0.06074091047048569 -0.03536041080951691 0.08814719319343567 -0.08575920015573502 -0.12504926323890686 0.052015796303749084 0.11731231212615967 -0.01616331934928894 0.13763681054115295 0.010439366102218628 -0.09758459776639938 -0.16574758291244507 0.08683991432189941 0.05297185480594635 -0.028260424733161926 0.1724558174610138 0.05356551706790924 0.16705322265625 -0.05985267460346222 0.013501942157745361 -0.1714620590209961 -0.02966199815273285 0.1371840238571167 0.07048168778419495 0.030402034521102905 -0.020860150456428528 -0.06985082477331161 0.17156967520713806 0.06407725811004639 -0.028208285570144653 0.07571738958358765 0.11473643779754639 0.04969693720340729 -0.16443441808223724 -0.1551423817873001 0.02632543444633484 -0.006137549877166748 -0.0312289297580719 0.11324054002761841 -0.1328415870666504 0.17377927899360657 0.0036884546279907227 0.10801339149475098 0.11224785447120667 -0.07661263644695282 -0.0016073733568191528 -0.16069923341274261 -0.09689879417419434 -0.1600101888179779 0.1647757589817047 0.03857386112213135 0.004213988780975342 0.15027400851249695 -0.014564409852027893 0.08919265866279602 -0.13985757529735565 -0.07166154682636261 0.0012138336896896362 0.018735289573669434 0.06573982536792755 -0.1567782163619995 0.1738811433315277 0.11224374175071716 -0.12263375520706177 0.18133190274238586 -0.1117185726761818 0.000979602336883545 0.0801960825920105 0.024232789874076843 0.13971981406211853 0.023381084203720093 0.13336613774299622 0.1813907027244568 -0.07961735874414444 0.13558322191238403 0.07645308971405029 -0.09893391281366348 0.06687331199645996 -0.04258225858211517 -0.15875038504600525 -0.1650700718164444 0.037869855761528015 -0.12245863676071167 -0.028303369879722595 -0.015140503644943237 -0.017819389700889587 0.056123316287994385 0.15843799710273743 -0.011031314730644226 0.1437092125415802 0.10129609704017639 0.1675281524658203 0.009617865085601807 -0.04711942374706268 0.055725470185279846 -0.09075927734375 0.025613635778427124 -0.09534633159637451 -0.1591200828552246 -0.05232560634613037 0.07872864603996277 0.090008944272995 0.1703706681728363 0.050809189677238464 -0.150254487991333 0.06751659512519836 -0.1687900424003601 -0.07580018788576126 0.15051612257957458 -0.163082093000412 -0.07027168571949005 -0.09103492647409439 -0.07771825045347214 0.06055554747581482 -0.15942765772342682 0.15856322646141052 0.11068704724311829 -0.17758044600486755 0.10793200135231018 -0.07650566101074219 0.18043097853660583 -0.08793134987354279 -0.005812481045722961 -0.026312455534934998 -0.009294107556343079 0.16339373588562012 -0.06577043235301971 -0.10457536578178406 0.1324799656867981 -0.16540604829788208 -0.12834015488624573 0.039340585470199585 0.017196938395500183 0.07986977696418762 0.14805909991264343 0.13360604643821716 -0.013304919004440308 0.12206646800041199 0.09844499826431274 0.11850744485855103 0.11894717812538147 -0.019290298223495483 0.18142589926719666 -0.10359271615743637 0.12837901711463928 -0.009378030896186829 0.1107742190361023 0.019871920347213745 0.12202608585357666 -0.05370908975601196 -0.14592242240905762 0.010134071111679077 0.00935661792755127 -0.11650416254997253 0.15080726146697998 -0.03138437867164612 0.09002518653869629 -0.0416535884141922 0.07173323631286621 -0.061060041189193726 0.11938667297363281 0.016190245747566223 0.07499516010284424 -0.017006099224090576 0.1574442982673645 -0.05590906739234924 0.07956472039222717 0.1451166570186615 -0.047616973519325256 0.06656457483768463 0.07793223857879639 0.14531001448631287 0.12364178895950317 0.059292376041412354 -0.033023491501808167 0.08248108625411987 0.09252381324768066 0.006330698728561401 -0.10200200974941254 0.10155609250068665 0.04676997661590576 0.09015059471130371 0.027358323335647583 0.025326937437057495 0.1732366681098938 -0.18030020594596863 -0.05788350850343704 -0.16994905471801758 -0.126813605427742 -0.14431308209896088 -0.07014624029397964 -0.167955681681633 -0.0241260826587677 0.09826117753982544 -0.01039576530456543 -0.05644378066062927 -0.17771011590957642 0.0007622987031936646 0.063973069190979 0.17370983958244324 0.0596189945936203 0.06547385454177856 -0.16612844169139862 -0.06978431344032288 0.00826062262058258 -0.07794570922851562 0.028125882148742676 -0.0029219835996627808 0.046213164925575256 0.09591621160507202 -0.1590396910905838 0.06381967663764954 0.13316059112548828 0.023759692907333374 -0.09533671289682388 0.028112098574638367 -0.00792701542377472 -0.16666826605796814 0.1303696632385254 -0.09933720529079437 -0.13909438252449036 0.0727124810218811 0.05944134294986725 0.03148135542869568 -0.163824200630188 0.14944085478782654 0.13762310147285461 0.08023187518119812 -0.11471123993396759 -0.14666874706745148 -0.17840908467769623 0.07899370789527893 0.18160873651504517 -0.06614550203084946 -0.011106833815574646 -0.007203280925750732 0.024542391300201416 0.037882208824157715 0.1807597279548645 -0.1797446459531784 -0.09804180264472961 0.1196737289428711 -0.055094122886657715 -0.036292776465415955 -0.13037952780723572 -0.11214015632867813 -0.12934477627277374 -0.039914101362228394 -0.018999353051185608 0.1687866449356079 0.11149096488952637 -0.1617477387189865 0.14948615431785583 0.15603232383728027 0.09145808219909668 0.14446228742599487 -0.16500763595104218 -0.06450606882572174 0.12315434217453003 -0.026578634977340698 -0.0679326131939888 -0.10284741222858429 -0.1197282075881958 0.1613301932811737 -0.16183575987815857 0.1805591881275177 0.0020633935928344727 0.03287211060523987 0.09324321150779724 -0.05475102365016937 -0.14792612195014954 -0.18207678198814392 -0.0798976868391037 0.08176219463348389 0.01266239583492279 -0.03734371066093445 -0.1410447359085083 -0.16272953152656555 -0.1241302341222763 -0.05435797572135925 0.022767141461372375 0.052858442068099976 0.1740192472934723 0.018145307898521423 0.09419834613800049 0.02658851444721222 0.11198407411575317 -0.03783833980560303 0.03369639813899994 0.040580376982688904 0.1041211485862732 -0.1724344938993454 -0.15046843886375427 -0.06666717678308487 -0.048110246658325195 0.08340796828269958 -0.0660310611128807 0.0777546763420105 0.010288268327713013 -0.05056370794773102 -0.1673945039510727 -0.11793570220470428 0.013696178793907166 0.05308297276496887 0.1307770013809204 0.1713186800479889 0.004562065005302429 -0.061331599950790405 -0.07230556011199951 0.17752885818481445 0.0013349950313568115 -0.08757669478654861 0.15459784865379333 0.15900224447250366 -0.04389679431915283 0.009760960936546326 -0.08706577122211456 0.10719242691993713 -0.14298276603221893 0.16780754923820496 -0.17147628962993622 -0.14541234076023102 0.05483953654766083 -0.13434550166130066 -0.05258828401565552 0.17513224482536316 -0.12775546312332153 0.16297918558120728 -0.15624016523361206 0.08473411202430725 0.06030723452568054 -0.09419004619121552 -0.11168871074914932 0.018668711185455322 0.11724895238876343 -0.15966910123825073 0.03594502806663513 -0.13114143908023834 -0.1499437838792801 -0.11454792320728302 -0.06305820494890213 0.07003629207611084 0.1287192404270172 0.029168710112571716 -0.1799384355545044 0.06534940004348755 0.1804993450641632 0.06249767541885376 0.14384648203849792 -0.07457094639539719 0.14479854702949524 0.06517857313156128 0.1148081123828888 0.14425799250602722 0.14552488923072815 0.12052321434020996 -0.002837762236595154 0.09498608112335205 -0.06767742335796356 -0.04400476813316345 -0.009234234690666199 -0.06505298614501953 0.11005064845085144 -0.13059107959270477 0.12176927924156189 0.11550605297088623 -0.030736729502677917 -0.1795780509710312 -0.18196703493595123 -0.07455810159444809 0.14976584911346436 0.06047314405441284 -0.07903844118118286 -0.1198669970035553 0.040808647871017456 0.028439462184906006 0.045535504817962646 0.01338726282119751 -0.04158535599708557 -0.005131423473358154 -0.0009661316871643066 -0.0780177116394043 0.10101315379142761 0.034670278429985046 0.016099944710731506 -0.16820856928825378 0.033173009753227234 -0.07706253230571747 -0.14334261417388916 -0.1321086585521698 -0.08863040059804916 -0.12525510787963867 -0.009938761591911316 0.07505103945732117 -0.015007153153419495 -0.017100989818572998 -0.07758442312479019 0.046683475375175476 0.08016067743301392 -0.17670002579689026 0.11802691221237183 -0.115879125893116 -0.028579726815223694 0.03758539259433746 -0.09806156158447266 -0.11341812461614609 0.016266703605651855 -0.03490257263183594 -0.07588491588830948 0.14666470885276794 0.05910030007362366 -0.11016315221786499 0.08361753821372986 0.13648340106010437 -0.0009989887475967407 0.061858564615249634 -0.057943664491176605 -0.09214992821216583 0.1068706214427948 0.12493640184402466 -0.1180865541100502 0.07556447386741638 0.054753378033638 0.1824876368045807 -0.02438533306121826 0.04425881803035736 0.15693652629852295 0.10050371289253235 0.05257861316204071 0.049134865403175354 -0.09060581773519516 0.078147292137146 -0.07656525075435638 -0.13551124930381775 0.08134129643440247 0.05047681927680969 -0.1202276349067688 -0.01789925992488861 -0.16125927865505219 -0.04934197664260864 -0.022222012281417847 -0.010958701372146606 0.15205717086791992 -0.09747083485126495 0.1468081772327423 0.0261232852935791 -0.009142979979515076 -0.03454586863517761 -0.16558758914470673 0.02003873884677887 0.01758994162082672 0.09027263522148132 0.06323373317718506 0.09328868985176086 -0.072187140583992 0.05876913666725159 0.12254828214645386 -0.0340987890958786 -0.15288008749485016 -0.14775094389915466 -0.1373644769191742 -0.16257387399673462 -0.002572193741798401 0.009612932801246643 0.1642867922782898 0.10669493675231934 0.022238999605178833 -0.12909568846225739 0.18028005957603455 0.0604831725358963 0.04255920648574829 0.16748878359794617 0.04787793755531311 0.022538959980010986 -0.15543782711029053 -0.043645039200782776 0.1426236629486084 0.011641785502433777 -0.005821943283081055 0.15392786264419556 0.027575403451919556 0.1230635941028595 -0.14545698463916779 0.13126224279403687 0.1518268585205078 -0.06268337368965149 0.0736188292503357 -0.11120948195457458 -0.1351926028728485 0.16880550980567932 0.12726745009422302 0.1610276699066162 -0.07927791774272919 -0.027030572295188904 -0.06937283277511597 -0.12718376517295837 0.0682593584060669 -0.10449782013893127 0.05268429219722748 0.014463216066360474 0.13644829392433167 0.1588565707206726 0.15330025553703308 0.09853309392929077 0.031065046787261963 -0.10389173775911331 0.14740246534347534 -0.041009336709976196 0.03947211802005768 -0.060388147830963135 -0.1472214162349701 -0.16450698673725128 -0.1592663675546646 0.0353667289018631 0.1255086362361908 -0.14340715110301971 0.032076314091682434 0.008459523320198059 -0.13467343151569366 -0.026180580258369446 0.04258434474468231 0.06861487030982971 0.06751522421836853 0.005768761038780212 0.046210095286369324 0.06207744777202606 0.05163604021072388 -0.12491665780544281 0.0936187207698822 -0.14966937899589539 -0.049074575304985046 -0.12744876742362976 0.12121221423149109 0.14639049768447876 -0.033533379435539246 -0.055044084787368774 0.15025243163108826 -0.05288422107696533 -0.015622824430465698 -0.0189620703458786 0.023646563291549683 0.08321225643157959 -0.08207816630601883 -0.09044445306062698 -0.15559089183807373 0.16124263405799866 -0.006688892841339111 0.10150286555290222 -0.020878508687019348 -0.0908542349934578 -0.08523742109537125 0.07549712061882019 -0.1141681969165802 -0.11134916543960571 -0.021353617310523987 0.08825358748435974 -0.10488435626029968 -0.027996644377708435 0.15174409747123718 -0.03876742720603943 -0.10889381915330887 -0.05211953818798065 0.14860209822654724 0.043120354413986206 -0.15208731591701508 -0.1253216713666916 -0.04555150866508484 -0.12053737044334412 -0.14030864834785461 -0.02695801854133606 -0.1440519541501999 0.02479146420955658 -0.07483778148889542 0.008873701095581055 -0.10079338401556015 0.07213878631591797 -0.08844050765037537 0.033280521631240845 0.02855338156223297 0.10757172107696533 0.029942840337753296 0.1723080575466156 0.003730177879333496 -0.14927777647972107 0.042028605937957764 0.17995241284370422 0.03934451937675476 0.1598057746887207 0.05535703897476196 0.10111606121063232 -0.020819127559661865 -0.17834816873073578 0.06496092677116394 -0.15295258164405823 0.1565796434879303 0.16683217883110046 0.007134169340133667 -0.008981660008430481 0.16775497794151306 -0.1790589988231659 0.18203046917915344 0.16148465871810913 0.13009318709373474 0.08440330624580383 0.1648373305797577 0.016436606645584106 -0.08456285297870636 0.16953667998313904 -0.08835677802562714 -0.08262493461370468 -0.13005267083644867 -0.15150991082191467 -0.031223103404045105 0.1109638512134552 -0.10680477321147919 -0.053399816155433655 -0.17120210826396942 -0.17396850883960724 -0.14306029677391052 0.07517355680465698 0.06438006460666656 -0.008442983031272888 0.051394253969192505 0.07593506574630737 -0.1614261418581009 0.1115545928478241 -0.025157898664474487 -0.042298316955566406 0.16665875911712646 0.035792455077171326 -0.05131888389587402 -0.11888840049505234 0.01053386926651001 -0.05019716918468475 0.14218351244926453 -0.09845602512359619 0.112242192029953 0.05376659333705902 0.11434069275856018 -0.06991235911846161 0.08078327775001526 0.05638648569583893 0.16558092832565308 -0.13433434069156647 0.03681915998458862 -0.048353031277656555 0.010055974125862122 0.08364912867546082 0.00022445619106292725 0.15770366787910461 0.14847558736801147 0.042819470167160034 0.008545473217964172 0.02472861111164093 -0.06461773812770844 -0.047899872064590454 -0.08589629828929901 -0.17433202266693115 0.025133922696113586 0.17441537976264954 -0.15388135612010956 0.15594539046287537 0.16860240697860718 -0.029752075672149658 0.0379260778427124 -0.05760285258293152 -0.031086698174476624 -0.160081684589386 -0.09105797857046127 0.15553772449493408 0.10773193836212158 -0.06632627546787262 0.04859846830368042 -0.058894991874694824 -0.013825684785842896 -0.0006929785013198853 -0.11943481862545013 0.1271536648273468 0.08097052574157715 0.12553736567497253 0.08106967806816101 0.1626916229724884 -0.03259293735027313 -0.07753662765026093 -0.059168294072151184 0.18203693628311157 0.14171630144119263 -0.059395208954811096 0.1590372622013092 -0.114155612885952 0.11085677146911621 0.12126484513282776 0.07749918103218079 -0.0811137780547142 -0.048521965742111206 0.14879068732261658 0.00299932062625885 -0.10186643898487091 0.15172773599624634 -0.03970848023891449 -0.16646450757980347 -0.12984901666641235 0.0218973308801651 0.11768046021461487 -0.03479352593421936 -0.10566143691539764 -0.11637046188116074 -0.153694748878479 0.11434227228164673 0.04933938384056091 -0.006026104092597961 0.13015735149383545 -0.06094702333211899 -0.03617236018180847 0.1179991364479065 0.10334038734436035 0.10030859708786011 0.16661858558654785 -0.16147367656230927 -0.11751101166009903 0.06033781170845032 -0.09215229749679565 -0.0841139554977417 0.1768859624862671 0.17266637086868286 -0.15591344237327576 0.08297649025917053 -0.13546307384967804 -0.08770151436328888 -0.0902937576174736 0.010331779718399048 0.04298792779445648 0.08113527297973633 0.11586940288543701 0.0525168776512146 -0.03858421742916107 -0.0581430047750473 0.05320961773395538 0.15305185317993164 0.17210814356803894 -0.14464516937732697 0.07645291090011597 0.09818658232688904 0.11807441711425781 -0.020446375012397766 0.14741382002830505 0.026359975337982178 -0.1713183969259262 -0.14158037304878235 -0.001125916838645935 -0.11822493374347687 -0.0563286691904068 -0.05943521112203598 0.02243131399154663 -0.10897598415613174 0.010443031787872314 -0.09023299068212509 -0.01790575683116913 -0.12432803213596344 -0.11231043934822083 -0.054300084710121155 -0.1498086005449295 -0.011634662747383118 0.17109403014183044 0.07079276442527771 -0.025114834308624268 -0.12497380375862122 -0.07236634939908981 -0.18030832707881927 -0.13963396847248077 -0.002733886241912842 0.06269475817680359 -0.039423540234565735 -0.0035921335220336914 0.06502524018287659 -0.06905335187911987 -0.10749111324548721 0.13573959469795227 -0.1764966994524002 -0.061861567199230194 0.014194980263710022 0.08700776100158691 -0.09189721941947937 0.012514561414718628 0.10826665163040161 -0.17332834005355835 -0.0880083292722702 0.1602761447429657 -0.1172524020075798 0.07406142354011536 -0.17135195434093475 0.18003839254379272 0.14018595218658447 -0.07644961774349213 -0.1048608049750328 0.17179924249649048 -0.1509271264076233 0.17470932006835938 -0.015063345432281494 -0.021745145320892334 -0.0651225671172142 0.18027690052986145 -0.06503250449895859 -0.09695235639810562 -0.0237676203250885 0.11436194181442261 -0.08060538023710251 0.0765562653541565 -0.14168310165405273 0.12898188829421997
0.17559999227523804 -0.058316946029663086 0.07354187965393066 0.05396655201911926 -0.012320280075073242 -0.041405946016311646 -0.17989465594291687 0.12129968404769897 0.14864778518676758 -0.1563103049993515 -0.022906020283699036 -0.12487119436264038 0.03726513683795929 -0.011976107954978943 0.18092668056488037 -0.12294045835733414 -0.12979193031787872 -0.12429806590080261 0.14274254441261292 -0.044743478298187256 0.019147351384162903 0.07215166091918945 0.08968102931976318 -0.05478060245513916 -0.0070209801197052 0.16485527157783508 -0.1388450413942337 0.07155129313468933 0.13748803734779358 -0.02876664698123932
0.0023328810930252075 -0.10325876623392105 -0.012824341654777527 -0.08094549924135208 0.07481878995895386 0.17846402525901794 -0.1300848424434662 0.09846770763397217 0.09485968947410583 0.064493328332901 -0.16297057271003723 -0.07321671396493912 0.12626352906227112 0.16065731644630432 0.14839670062065125 0.06559006869792938 0.1746949553489685 -0.1145540326833725 -0.13129565119743347 -0.058538034558296204 -0.015449777245521545 0.16883766651153564 0.1491398811340332 0.13395661115646362 0.06504537165164948 -0.09490705281496048 0.07173880934715271 0.01763327419757843 -0.011198922991752625 0.016851171851158142 0.1004951000213623 0.11651948094367981 0.06810292601585388 -0.16158872842788696 -0.025538161396980286 0.09341871738433838 -0.14620733261108398 -0.14144901931285858 -0.013958334922790527 0.0869174599647522 0.01719258725643158 -0.16901981830596924 0.1249275803565979 -0.0755426213145256 0.0014317631721496582 -0.17106115818023682 0.0883343517780304 -0.06436476856470108 0.012725859880447388 -0.1085619106888771 0.09259074926376343 -0.14581115543842316 -0.1631244271993637 0.17758440971374512 0.06782430410385132 -0.1263474076986313 -0.14719712734222412 0.15536066889762878 -0.1679062396287918 0.06915396451950073 -0.06300289928913116 -0.057408154010772705 0.09387749433517456 -0.012813225388526917 0.06026028096675873 0.17480096220970154 0.10675594210624695 0.08486968278884888 -0.07210645824670792 -0.0753948837518692 -0.0585966482758522 0.1529930830001831 -0.0031044483184814453 -0.03683933615684509 -0.14599578082561493 -0.12705658376216888 -0.0686788260936737 -0.01641686260700226 -0.02571159601211548 0.0970732569694519 0.09497672319412231 -0.11390195041894913 -0.08201618492603302 -0.015161857008934021 0.017918482422828674 0.10930681228637695 0.15122950077056885 -0.022535309195518494 -0.12710967659950256 -0.16939358413219452 0.08720207214355469 -0.005991384387016296 -0.008374035358428955 -0.020566165447235107 -0.04012399911880493 0.08924219012260437 -0.0585620179772377 0.06851211190223694 -0.02236698567867279 0.0841996967792511 -0.03207138180732727 0.10536080598831177 -0.10734166204929352 -0.031667932868003845 0.14197316765785217 -0.09250812232494354 -0.07203143835067749 0.09470376372337341 0.07326188683509827 0.12916895747184753 -0.17364932596683502 -0.023808464407920837 0.07213875651359558 -0.020448654890060425 -0.15680021047592163 0.17360761761665344 -0.14843544363975525 0.06770825386047363 0.08471626043319702 0.004625111818313599 0.008716672658920288 -0.0597488135099411 -0.05905874818563461 -0.16788659989833832 0.09342125058174133 -0.09758725017309189 -0.1510142982006073 -0.08060973882675171 0.05352109670639038 0.16124024987220764 -0.09820340573787689 0.17130142450332642 -0.05930667370557785 -0.12326276302337646 -0.08663372695446014 -0.0009865164756774902 0.03824612498283386 0.13302293419837952 -0.17141315340995789 -0.014534533023834229 -0.12155081331729889 0.03850366175174713 -0.1544816493988037 -0.11465704441070557 -0.02384069561958313 0.03207394480705261 -0.12989814579486847 -0.036566779017448425 -0.036650046706199646 0.030422881245613098 -0.03820855915546417 -0.023281261324882507 0.1519230604171753 0.0027159899473190308 -0.0888160988688469 0.15124770998954773 -0.03884284198284149 -0.16031327843666077 -0.09958121180534363 0.12426337599754333 0.07472744584083557 0.13057789206504822 0.02895432710647583 0.1656987965106964 -0.16270361840724945 -0.14096562564373016 -0.10124286264181137 0.010325789451599121 -0.178460031747818 0.13317447900772095 -0.034852802753448486 -0.07379671931266785 -0.028902247548103333 0.08281460404396057 -0.029489293694496155 -0.005590096116065979 -0.1626332700252533 0.009180217981338501 -0.12974520027637482 0.13603293895721436 -0.10920259356498718 -0.11064771562814713 0.1547151803970337 -0.15841321647167206 -0.08892174065113068 -0.04535840451717377 0.14160460233688354 -0.18165384232997894 0.06956282258033752 0.15713980793952942 -0.18155479431152344 -0.10294236987829208 -0.165198415517807 -0.10329528152942657 0.13402077555656433 0.0209282785654068 0.12222433090209961 -0.16947665810585022 0.026320233941078186 0.11342078447341919 0.1651841402053833 -0.1739947348833084 0.14285066723823547 0.052774325013160706 -0.08128249645233154 0.02656860649585724 0.08232980966567993 0.12547209858894348 0.16833865642547607 -0.0659136027097702 0.004136562347412109 0.17067795991897583 -0.0727718248963356 -0.05361141264438629 -0.02003704011440277 -0.14588141441345215 0.05353057384490967 -0.11915318667888641 -0.12783747911453247 -0.018378809094429016 0.1528441309928894 0.004420742392539978 0.11368823051452637 -0.15898479521274567 -0.0230436772108078 0.012322455644607544 0.15651953220367432 0.1728687882423401 0.013676553964614868 -0.02229440212249756 -0.08756770938634872 0.1545535922050476 -0.14361514151096344 -0.04364223778247833 -0.1345640867948532 -0.1658342480659485 -0.18088462948799133 -0.00014366209506988525 0.12577012181282043 -0.1666868031024933 0.09568950533866882 -0.036648914217948914 -0.06511209905147552 -0.08574366569519043 -0.06534332782030106 0.09239047765731812 0.08061057329177856 -0.17463132739067078 -0.05170866847038269 -0.10858646035194397 0.0876859724521637 -0.1508808135986328 -0.11109822243452072 -0.08025573194026947 0.12292024493217468 -0.08609720319509506 0.17099493741989136 0.10174307227134705 0.040702998638153076 0.1158282458782196 -0.04289589822292328 -0.10247717797756195 -0.12678498029708862 -0.13059835135936737 0.10268151760101318 -0.11083587259054184 0.02540534734725952 0.026333540678024292 0.04273560643196106 -0.003902941942214966 -0.0847354456782341 -0.12733665108680725 0.14391764998435974 -0.12883830070495605 -0.1730620115995407 0.09959891438484192 0.040823206305503845 -0.09369242191314697 0.165985107421875 0.18140506744384766 -0.049653559923172 -0.13524192571640015 0.13424062728881836 0.16818299889564514 -0.1777997612953186 -0.16219112277030945 0.10289674997329712 -0.17606203258037567 -0.08207087218761444 0.05774711072444916 0.12609225511550903 0.07296034693717957 -0.14128360152244568 -0.06892313808202744 -0.1488160490989685 -0.13323479890823364 -0.13365775346755981 -0.019587546586990356 0.013186529278755188 -0.1362462043762207 -0.09249748289585114 0.128180593252182 -0.14611975848674774 0.15839287638664246 -0.04928642511367798 -0.03466314077377319 -0.1683155745267868 0.12038129568099976 0.06196914613246918 -0.15825603902339935 0.1380573809146881 -0.08982166647911072 0.1032760739326477 0.09928351640701294 0.021658629179000854 -0.120884470641613 -0.13818782567977905 -0.06302107125520706 0.013451293110847473 -0.028729230165481567 0.13138103485107422 0.07614454627037048 -0.06132260710000992 0.15668320655822754 0.1780766248703003 -0.08717609941959381 0.14175409078598022 0.15505218505859375 0.045234695076942444 -0.11992528289556503 0.0583590567111969 0.08523714542388916 -0.11032074689865112 0.16199734807014465 0.027313828468322754 -0.09271465241909027 -0.10090984404087067 0.17698934674263 -0.005034506320953369 0.08610519766807556 -0.16399423778057098 -0.011023014783859253 -0.10734777897596359 0.0997244119644165 0.0056048184633255005 0.168044775724411 -0.09591960906982422 0.1303621232509613 -0.0661458969116211 0.15498659014701843 -0.012169986963272095 0.12650364637374878 -0.056245461106300354 0.037287503480911255 -0.1671171635389328 -0.08926481753587723 -0.008874267339706421 -0.03626739978790283 0.002530410885810852 0.03865210711956024 0.13661637902259827 -0.048403382301330566 0.15015673637390137 0.1049182116985321 -0.06435105949640274 -0.08380239456892014 0.17107298970222473 -0.10222890973091125 0.035109907388687134 0.17431440949440002 0.16693606972694397 0.03226873278617859 0.04204697906970978 -0.05536489188671112 -0.14352896809577942 -0.17945055663585663 0.058848291635513306 -0.06432729214429855 -0.0015009045600891113 -0.12394950538873672 0.05148571729660034 0.027863293886184692 0.11551225185394287 -0.1711219847202301 0.05112692713737488 -0.17038068175315857 -0.07802306115627289 -0.0945269837975502 0.04227393865585327 -0.00411243736743927 0.01586732268333435 -0.1718767136335373 0.1547141671180725 -0.050969913601875305 -0.17286577820777893 0.1674148142337799 0.078653484582901 -0.06440651416778564 0.022769466042518616 0.17370951175689697 0.1718325912952423 0.021905839443206787 -0.05726459622383118 -0.043412283062934875 -0.15408268570899963 0.09917742013931274 0.12168091535568237 -0.1730453372001648 0.09394001960754395 -0.140978142619133 0.08270236849784851 -0.12778593599796295 -0.1531710922718048 0.043113335967063904 0.05769437551498413 -0.09084144234657288 -0.17746204137802124 -0.16071510314941406 -0.08027318865060806 0.08245864510536194 0.09916910529136658 -0.07827472686767578 -0.1779325008392334 -0.06599508970975876 -0.08741426467895508 0.0400983989238739 -0.09528563171625137 0.07047593593597412 0.08103609085083008 -0.1559274047613144 -0.13432620465755463 0.12678399682044983 -0.011079192161560059 -0.07172873616218567 -0.07460319995880127 0.014678522944450378 0.12144577503204346 0.14566752314567566 -0.08213819563388824 0.051196008920669556 -0.15916374325752258 0.0040894001722335815 -0.17408309876918793 -0.05194886028766632 -0.15902003645896912 -0.04525022208690643 -0.034178227186203 0.03766779601573944 -0.022464394569396973 0.022366821765899658 -0.027507856488227844 0.02896435558795929 -0.03194354474544525 0.05452316999435425 -0.07354485988616943 0.043647199869155884 -0.06954701244831085 -0.17802850902080536 0.1740979254245758 -0.11284536868333817 -0.12680089473724365 -0.15658017992973328 0.14671474695205688 -0.02492864429950714 -0.0035957396030426025 -0.10122936964035034 0.15960761904716492 -0.034492745995521545 -0.028918519616127014 0.10682511329650879 -3.992021083831787e-05 0.10834169387817383 -0.052290767431259155 0.16165953874588013 0.05971851944923401 0.18089398741722107 0.1811113953590393 0.012331336736679077 -0.10494396835565567 0.12380024790763855 -0.055260732769966125 0.042839765548706055 0.08014968037605286 0.0159580260515213 -0.06743305176496506 -0.07926943153142929 0.0831337571144104 0.1449345350265503 -0.0482044517993927 0.11176064610481262 -0.06900566816329956 -0.11422719806432724 0.045446112751960754 -0.12353640794754028 0.12494876980781555 0.057550668716430664 -0.0994396060705185 -0.11599607020616531 -0.12027209997177124 0.04478657245635986 0.03526553511619568 0.12318140268325806 0.006575867533683777 -0.050450921058654785 0.12161317467689514 0.016547933220863342 -0.17984862625598907 -0.10720554739236832 -0.14773160219192505 0.12257450819015503 0.11173021793365479 0.0035602152347564697 -0.1802571564912796 -0.046126365661621094 0.08308637142181396 -0.03012937307357788 0.1678943634033203 -0.018614232540130615 -0.033957794308662415 0.16925698518753052 -0.018834665417671204 0.02274005115032196 0.03677928447723389 0.0016939342021942139 -0.06056812405586243 -0.160040482878685 -0.04111076891422272 -0.16779035329818726 -0.03563298285007477 -0.17041313648223877 0.06134587526321411 0.12352725863456726 -0.1618775874376297 0.16037705540657043 -0.17253191769123077 0.17028141021728516 0.051207154989242554 0.11060571670532227 0.062053218483924866 -0.0955297201871872 -0.04536685347557068 -0.007440686225891113 0.04835519194602966 -0.04682496190071106 0.04950916767120361 0.1301654577255249 0.023757219314575195 0.1756191849708557 -0.02792908251285553 -0.17143572866916656 -0.0165739506483078 -0.14329864084720612 0.10514745116233826 -0.0551135390996933 -0.14136946201324463 -0.14104487001895905 -0.08974058926105499 -0.011951237916946411 -0.04334785044193268 0.13371741771697998 -0.03881761431694031 0.07424312829971313 -0.058777399361133575 0.12141823768615723 -0.10234741866588593 0.1019991934299469 0.15288114547729492 0.006041139364242554 0.0063790977001190186 0.026555418968200684 -0.07905802875757217 -0.11613625288009644 0.16003870964050293 0.17513403296470642 0.06039762496948242 0.1368507742881775 0.13453400135040283 -0.17390500009059906 -0.021456092596054077 0.09798935055732727 0.03793461620807648 -0.16100727021694183 -0.17726071178913116 -0.11667018383741379 0.11480516195297241 -0.13962386548519135 -0.12337298691272736 -0.026114806532859802 -0.15406380593776703 -0.03819504380226135 0.04590335488319397 -0.08709334582090378 -0.0735759362578392 -0.008334815502166748 0.001969382166862488 0.037965238094329834 -0.06823232769966125 0.1618879735469818 -0.13967028260231018 0.14082783460617065 -0.011041387915611267 0.00556047260761261 -0.13191533088684082 0.11597254872322083 -0.17605596780776978 0.01849481463432312 -0.15251539647579193 -0.15628257393836975 0.08307978510856628 0.06781846284866333 -0.1247476115822792 0.04452240467071533 -0.05921053886413574 0.16350066661834717 -0.045268476009368896 -0.17783015966415405 -0.1588256061077118 0.16403335332870483 -0.09304337948560715 -0.004930019378662109 -0.01975630223751068 -0.11647447198629379 -0.0036524832248687744 -0.03171387314796448 0.1800336241722107 0.0505317747592926 -0.004750832915306091 -0.049087390303611755 0.13155779242515564 0.021214157342910767 -0.06567040085792542 0.02023075520992279 0.1435462236404419 0.10824930667877197 -0.09749007225036621 -0.038345903158187866 0.09139806032180786 -0.02957417070865631 0.16511252522468567 -0.005291000008583069 -0.0947059765458107 0.12478548288345337 0.14023950695991516 0.049007758498191833 0.08738461136817932 -0.02249780297279358 -0.04330180585384369 -0.1427755504846573 -0.03814154863357544 -0.1578703671693802 0.028227686882019043 0.037679120898246765 -0.07331143319606781 -0.06143907457590103 0.03881263732910156 0.08686867356300354 -0.10735034197568893 0.1620897352695465 -0.12507037818431854 0.04153290390968323 -0.15137575566768646 -0.026652202010154724 0.009289294481277466 -0.015128463506698608 -0.04465852677822113 0.09331423044204712 0.06815409660339355 -0.10237506031990051 -0.03718765079975128 0.0008767992258071899 0.10548114776611328 -0.03510081768035889 -0.0822770968079567 0.08295664191246033 -0.07502488791942596 -0.03713482618331909 -0.11553115397691727 -0.009345337748527527 0.16575810313224792 0.03762035071849823 -0.09680725634098053 0.0971953272819519 -0.019909963011741638 0.07637885212898254 0.07906657457351685 -0.038798704743385315 0.11224019527435303 0.022595137357711792 0.13672980666160583 -0.04429575800895691 -0.08662212640047073 0.047639161348342896 -0.09999125450849533 -0.0571376234292984 -0.1138417050242424 0.16756102442741394 0.16568928956985474 0.024229392409324646 -0.07810811698436737 -0.04308976233005524 -0.1498875916004181 0.0913236141204834 0.03566280007362366 0.09507188200950623 0.14898857474327087 -0.05276581645011902 -0.0010157227516174316 -0.16241633892059326 -0.17441748082637787 0.09972205758094788 0.09123489260673523 -0.02141536772251129 -0.16431811451911926 -0.1521102488040924 -0.02088603377342224 0.04059503972530365 -0.15392985939979553 -0.14814835786819458 -0.045742809772491455 -0.07590130716562271 -0.15327806770801544 0.08300736546516418 0.15357667207717896 -0.04583694040775299 -0.04549610614776611 -0.17363236844539642 -0.13415402173995972 -0.17048557102680206 -0.11874664574861526 0.1761476695537567 0.1159350574016571 0.036689311265945435 0.057958200573921204 -0.10004516690969467 0.16499316692352295 0.058318302035331726 0.12191826105117798 0.0669984370470047 0.1416475474834442 0.1129734218120575 0.0205247700214386 0.08047199249267578 -0.0328802764415741 -0.11858668178319931 -0.16158948838710785 -0.07113887369632721 0.012033745646476746 0.06590655446052551 -0.1414726823568344 -0.0903414636850357 -0.015416175127029419 0.06616280972957611 0.10892340540885925 0.11991539597511292 0.06952416896820068 -0.08595208078622818 -0.037738919258117676 -0.029746592044830322 0.0734463632106781 -0.1484438180923462 0.15074899792671204 -0.025939971208572388 0.10632365942001343 0.10899630188941956 0.04187066853046417 0.09593310952186584 0.11489203572273254 -0.14648433029651642 0.12308809161186218 0.14651435613632202 0.15052199363708496 0.02627432346343994 0.05429843068122864 -0.1563325673341751 -0.1105688214302063 0.01175755262374878 0.17755582928657532 0.10388383269309998 0.16735318303108215 0.04530997574329376 0.034516483545303345 -0.06319475173950195 -0.007729396224021912 -0.1748933643102646 -0.1283073127269745 -0.07976485788822174 0.16132843494415283 -0.08663877099752426 0.11130309104919434 0.00811074674129486 -0.15495285391807556 -0.05937966704368591 0.02088768780231476 0.029871657490730286 -0.0860283225774765 -0.06441076099872589 -0.02306605875492096 0.010961085557937622 -0.08084028959274292 0.05316294729709625 0.010349676012992859 0.15561726689338684 -0.01693977415561676 0.13088810443878174 -0.07382335513830185 0.07886692881584167 0.04745122790336609 0.1216147243976593 0.05864138901233673 0.09245482087135315 0.002591654658317566 -0.16664794087409973 0.021253004670143127 0.05192790925502777 -0.08041951060295105 -0.01478123664855957 0.14767614006996155 0.17872899770736694 0.09298354387283325 0.08830633759498596 0.1320752501487732 -0.013539180159568787 -0.02773311734199524 -0.12428516149520874 -0.13293416798114777 -0.07845398038625717 -0.09269201755523682 -0.0036241263151168823 0.10324293375015259 -0.11101534217596054 0.03252381086349487 -0.08242744207382202 -0.023465856909751892 0.10632318258285522 0.16189119219779968 -0.08054900914430618 -0.10806740075349808 0.07944974303245544 0.1586732268333435 0.15324819087982178 0.11848205327987671 0.005981132388114929 0.05143548548221588 0.04573069512844086 -0.04173359274864197 0.06165255606174469 -0.105210080742836 0.026720672845840454 0.15932828187942505 0.09716087579727173 -0.14401856064796448 0.07077288627624512 -0.049249887466430664 0.035194024443626404 0.027621522545814514 0.040375202894210815 -0.001641497015953064 0.15132007002830505 0.0787750780582428 0.04457138478755951 -0.12834465503692627 0.14670303463935852 0.002814263105392456 -0.1802741438150406 -0.08490535616874695 -0.03508824110031128 -0.1296738088130951 -0.027215376496315002 -0.16585814952850342 -0.10406524688005447 -0.18254941701889038 -0.03309030830860138 0.1626908779144287 -0.05264778435230255 0.08677047491073608 0.1684865653514862 0.07678380608558655 0.11208677291870117 -0.12856097519397736 -0.02643527090549469 -0.0602169930934906 -0.12039357423782349 0.1677646040916443 0.1732332706451416 -0.1115635484457016 0.011924326419830322 0.12353816628456116 -0.10134974867105484 0.10455816984176636 0.08762508630752563 0.11623427271842957 -0.02139158546924591 0.0404379665851593 0.04298935830593109 0.16633471846580505 -0.15924958884716034 -0.05979565531015396 0.14479145407676697 -0.05796676129102707 0.14180582761764526 0.136122465133667 -0.01995810866355896 -0.18118436634540558 0.04162056744098663 0.1771431267261505 0.11116108298301697 -0.09018569439649582 -0.002144351601600647 -0.06455632299184799 -0.03148582577705383 0.021579191088676453 0.146505206823349 0.024217620491981506 -0.16174449026584625 0.17230117321014404 0.14263296127319336 0.14053282141685486 0.09419113397598267 -0.18199822306632996 0.14001786708831787 -0.15945576131343842 0.039229124784469604 0.022959738969802856 0.14091384410858154 0.04611770808696747 -0.0012626945972442627 -0.0661671981215477 0.0896698534488678 0.07983532547950745 -0.11820928007364273 -0.010449156165122986 -0.027438819408416748 0.058379679918289185 0.0056494176387786865 -0.03676973283290863 0.08237728476524353 0.003558725118637085 0.175294429063797 -0.0632774606347084 0.15859061479568481 0.17302781343460083 -0.11029151827096939 0.10431370139122009 -0.11487367004156113 0.1263819932937622 0.0863511860370636 0.055431365966796875 -0.07269516587257385 -0.09604586660861969 0.120697021484375 0.16048163175582886 0.16230472922325134 0.13105928897857666 -0.018224209547042847 0.17577522993087769 -0.12046976387500763 0.02958938479423523 -0.05777431279420853 -0.07313542068004608 -0.16931752860546112 0.13988500833511353 0.1721341609954834 0.08324164152145386 -0.1053902730345726 0.11469948291778564 -0.08158385008573532 0.009035244584083557 0.02784217894077301 -0.07769761979579926 0.050567373633384705 -0.03452746570110321 -0.11622877418994904 0.17987650632858276 -0.17613348364830017 0.12371450662612915 0.1614903211593628 0.13980436325073242 -0.03711681067943573 0.04435497522354126 -0.1630004197359085 0.12507039308547974 -0.02029643952846527 -0.02271382510662079 -0.006318643689155579 -0.1325044333934784 0.17904970049858093 0.03852081298828125 0.07734283804893494 -0.13753341138362885 0.17184433341026306 0.1377730369567871 -0.10872020572423935 0.045813724398612976 0.14659562706947327 -0.06376618146896362 -0.15933218598365784 0.181633859872818 -0.018660932779312134 0.11461830139160156 0.03334701061248779 0.0024689286947250366 -0.11008812487125397 0.028626784682273865 0.09063273668289185 -0.04274594783782959 0.012743055820465088 -0.18054331839084625 -0.07177527248859406 0.0009417682886123657 0.028064027428627014 -0.011169254779815674 0.05477720499038696 0.1757465898990631 0.04843275249004364 -0.1059018075466156 -0.09673775732517242 0.11521133780479431 0.16011658310890198 0.057193413376808167 0.18212005496025085 0.04839937388896942 0.11467435956001282 -0.15833519399166107 -0.097806416451931 0.09747597575187683 0.02828800678253174 0.053572431206703186 0.14823269844055176 0.11702218651771545 0.09449627995491028 -0.038359105587005615 -0.15146227180957794 -0.13542422652244568 -0.12312754988670349 0.027810528874397278 0.18157896399497986 0.1533782184123993 0.13282665610313416 0.09971463680267334 -0.0649915263056755 -0.010777652263641357 0.12724563479423523 -0.03440132737159729 -0.04573465883731842 0.12124490737915039 -0.10592012852430344 -0.07204649597406387 0.041705235838890076 -0.0743609368801117 0.16742441058158875 0.06487096846103668 0.11807474493980408 -0.10224379599094391 0.03856319189071655 0.08541148900985718 0.1310860812664032 -0.11382497102022171 0.10695624351501465 0.005306065082550049 -0.14828220009803772 -0.08600035309791565 -0.0013178586959838867 0.08769246935844421 0.15666916966438293 0.01743052899837494 0.15184953808784485 0.0031012892723083496 0.04210132360458374 -0.05629067122936249 -0.1361446976661682 -0.06514378637075424 0.15219047665596008 -0.022885024547576904 -0.13766518235206604 0.018122553825378418 -0.03897082805633545 -0.04038318991661072 0.027034610509872437 -0.14143800735473633 -0.017758622765541077 0.13071110844612122 -0.12783487141132355 0.14909443259239197 -0.0729442611336708 0.1161012053489685 -0.06853766739368439 0.13865867257118225 -0.15858247876167297 0.1325455904006958 -0.12533190846443176 0.027554139494895935 0.13958460092544556 0.04275083541870117 0.16710689663887024 0.07935398817062378 -0.09877431392669678 -0.11555176973342896 0.06670764088630676 0.17618700861930847 -0.11746099591255188 -0.018887042999267578 0.1184728741645813 -0.12724816799163818 0.08610337972640991 0.025773346424102783 0.12101241946220398 0.16865316033363342 -0.09700646251440048 -0.1385074108839035 -0.020907387137413025 0.08322039246559143 -0.015151381492614746 -0.07374424487352371 0.08691442012786865 -0.0376366525888443 0.13526538014411926 -0.13690999150276184 -0.07766405493021011 -0.07173000276088715 -0.1441914141178131 0.07238107919692993 -0.031051620841026306 0.1397392749786377 -0.011566072702407837 -0.18133722245693207 0.04054398834705353 -0.0964258536696434 -0.016559749841690063 0.11841511726379395 0.15644213557243347 -0.07342680543661118 -0.1664382368326187 0.05034787952899933 0.02683955430984497 0.0264701247215271 0.14576905965805054 0.15767201781272888 -0.12504296004772186 0.013985246419906616 0.06830865144729614 0.1491490602493286 -0.14656810462474823 0.10821658372879028 -0.16119076311588287 -0.05809912830591202 -0.15733826160430908 0.1333831548690796 0.08041799068450928 -0.09688998013734818 -0.14446905255317688 -0.16683591902256012 -0.13556420803070068 -0.0025684088468551636 -0.029118865728378296 -0.0818619355559349 0.002529233694076538 0.0897972583770752 0.06208747625350952 -0.01774585247039795 0.014438405632972717 -0.13858330249786377 0.08535182476043701 0.1443261206150055 -0.08157926052808762 0.08939206600189209 0.1506464183330536 0.03135223686695099 0.017493337392807007 -0.009192585945129395 -0.08334225416183472 0.12467914819717407 0.112550288438797 -0.1599431335926056 -0.155411958694458 -0.13694167137145996 -0.08847998827695847 -0.006813302636146545 0.14051979780197144 0.0984572172164917 -0.0898643434047699 -0.15333062410354614 -0.11731889098882675 -0.1729200929403305 0.043595090508461 -0.12206314504146576 -0.06861812621355057 -0.06666804850101471 0.0623910129070282 0.14095789194107056 -0.0873161107301712 0.0423121303319931 0.17236948013305664 -0.12839064002037048 0.1345592439174652 -0.1694842278957367 -0.17332926392555237 -0.17615552246570587 -0.07536987960338593 0.07872983813285828 0.07004642486572266
0.043872296810150146 -0.15467901527881622 0.16537901759147644 0.10097876191139221 0.05006769299507141 0.16128379106521606 -0.12096671760082245 -0.17704111337661743 0.045103415846824646 0.16625165939331055 -0.009580209851264954 0.15305420756340027 -0.05703747272491455 0.16448253393173218 0.06691321730613708 0.009313717484474182 0.01612849533557892 0.0017169862985610962 -0.09696698188781738 -0.014549225568771362 0.07673218846321106 -0.046310871839523315 0.013006091117858887 -0.1555192768573761 -0.15494748950004578 -0.14314186573028564 -0.005606219172477722 0.17772403359413147 0.010829448699951172 0.1707880198955536 -0.07997875660657883 -0.13276244699954987 -0.08596739917993546 0.014789804816246033 0.018858060240745544 0.16933101415634155 -0.12942864000797272 -0.15492390096187592 0.03691764175891876 0.084879070520401
-0.06979160755872726 0.11272601783275604 0.011037647724151611 -0.0820963978767395 -0.07574229687452316 -0.034942179918289185 0.09710298478603363 0.1201343983411789 0.09671761095523834 0.11065532267093658 0.05465187132358551 0.03542228043079376 -0.1072273850440979 -0.13443323969841003 0.025947660207748413 -0.032267987728118896 -0.09381797164678574 -0.0962979644536972 0.08051042258739471 -0.0036110728979110718 -0.08745502680540085 -0.055861763656139374 0.01485876739025116 0.129635289311409 -0.03852212429046631 0.1149190217256546 -0.08902382105588913 0.045553043484687805 0.09004795551300049 0.09277383983135223 -0.005297914147377014 -0.129270538687706 0.12366987764835358 -0.10418570786714554 -0.10651101171970367 0.058787643909454346 0.04354381561279297 0.037243619561195374 0.011219516396522522 -0.07968923449516296
-0.02165655791759491
