0.4164196848869324 0.38358980417251587 -0.36642950773239136 0.5771796107292175 0.5688912272453308 -0.26130345463752747 -0.5634950995445251 -0.29480352997779846 0.32548314332962036 -0.08458662033081055 0.654313862323761 0.23666155338287354 0.4941851496696472 -0.3372216522693634 -0.5242642164230347 0.32992929220199585 0.08543646335601807 -0.659841001033783 0.48319631814956665 0.37157052755355835 0.3313766121864319 -0.4455081820487976 0.38368481397628784 0.16422444581985474 0.25560206174850464 0.05576729774475098 -0.058026015758514404 0.24658668041229248 0.4678487181663513 0.5492445826530457 0.5021756291389465 0.16007542610168457 -0.5632703304290771 0.02238696813583374 -0.6439196467399597 0.4378979802131653 0.5592839121818542 0.5054789185523987 -0.2619701325893402 -0.06430405378341675
-0.24965044856071472 0.3220650553703308 0.44768041372299194 0.00024968385696411133 -0.3547658622264862 0.4851115345954895 -0.4552374482154846 0.36951202154159546 -0.5752081871032715 -0.5541561245918274 0.6957955956459045 0.45549994707107544 0.6599879860877991 0.5451380610466003 0.45476847887039185 0.024174392223358154
0.6028301119804382 0.19485944509506226 -0.17193257808685303 -0.49631696939468384 -0.1185767650604248 0.3633492588996887 -0.37633225321769714 0.3145079016685486
0.34002548456192017 -0.16750317811965942 -0.4921512007713318 -0.4150148630142212 0.1565415859222412 -0.4968525767326355 0.2409035563468933 0.5640897154808044
