0.3047747015953064 -0.07313674688339233 -0.5716395378112793 -0.6922620534896851 -0.32987916469573975 -0.37689802050590515 0.34174245595932007 0.27373600006103516 0.16553539037704468 -0.05116754770278931 -0.2325972318649292 0.04446309804916382 0.6689653992652893 0.3411368727684021 -0.647212564945221 0.6824302077293396 0.3029002547264099 0.257723867893219 0.19645655155181885 -0.41970640420913696 0.6119561791419983 0.7005624175071716 -0.16091454029083252 0.5331316590309143 -0.03631037473678589 -0.6545849442481995 -0.4480708837509155 -0.47109800577163696 0.0380287766456604 0.6710436940193176 -0.310336172580719 -0.25951945781707764 -0.3464832603931427 -0.47540920972824097 0.4651147723197937 0.24951183795928955 0.5474676489830017 -0.056462109088897705 0.6431168913841248 -0.4420274496078491
-0.17790287733078003 0.30360788106918335 -0.49849385023117065 -0.6258290410041809 0.18244200944900513 -0.6578640937805176 -0.28590667247772217 0.6387733817100525 0.6676726937294006 -0.5014055967330933 0.11723345518112183 -0.20422017574310303 -0.087246835231781 0.15367329120635986 0.2540898323059082 0.6922861933708191
-0.5783617496490479 -0.3372543454170227 -0.5436986684799194 0.08839261531829834 -0.031658709049224854 0.24669569730758667 -0.30659395456314087 0.6552460789680481
-0.12905079126358032 -0.3655954897403717 0.5833598971366882 0.4612446427345276 -0.17541718482971191 0.12968671321868896 -0.5516891479492188 0.1471605896949768
