0.1678089052438736 -0.18057286739349365 -0.14442896842956543 0.18601228296756744 -0.04580174386501312 0.07415445148944855 -0.1356363445520401 0.03475077450275421 0.010916337370872498 -0.10906028747558594 -0.11524926871061325 -0.033994659781455994 0.1973758190870285 0.14444409310817719 -0.17815059423446655 0.129359170794487 -0.12467891722917557 -0.09282983839511871 0.21399201452732086 0.1614256352186203 0.18398575484752655 0.12225641310214996 -0.19276642799377441 0.058253392577171326 0.03524930775165558 0.13543953001499176 0.11472608149051666 0.1795855313539505 -0.07004199922084808 0.049156829714775085 0.18804152309894562 -0.23554527759552002 0.17797492444515228 -0.08074945211410522 0.029416754841804504 -0.018771842122077942 -0.13577857613563538 0.0649578720331192 0.21931947767734528 0.16407395899295807 0.17742107808589935 -0.09932543337345123 0.06842897832393646 0.0566011518239975 -0.16024863719940186 -0.15966513752937317 0.08351461589336395 0.016290202736854553 0.22782213985919952 -0.12474258989095688 -0.15509279072284698 -0.11698942631483078 -0.21529248356819153 0.02852509915828705
-0.027822285890579224 -0.0476156622171402 -0.15733733773231506
