0.16171705722808838 0.24922078847885132 -0.5291376709938049 -0.44617393612861633 -0.10540884733200073 0.1489892601966858 0.24170172214508057 0.6536112427711487 0.5204624533653259 -0.5798707604408264 -0.03619420528411865 0.5919892191886902 0.031046688556671143 -0.25008052587509155 0.1408674120903015 -0.20098692178726196 0.4993557333946228 0.18682730197906494 -0.20289283990859985 0.1512778401374817 0.29122215509414673 -0.09995454549789429 0.11154711246490479 -0.4121234118938446 0.7008408904075623 0.040302395820617676 -0.4409208595752716 0.14491838216781616 -0.08950412273406982 -0.1281120777130127 0.1271781325340271 -0.4160344898700714 -0.20144623517990112 -0.28398722410202026 -0.5608141422271729 0.5424254536628723 -0.6565406918525696 0.030598700046539307 0.5308771729469299 -0.4709538519382477
0.6322467923164368 0.42789071798324585 0.6731595396995544 -0.5593631863594055 0.08267742395401001 -0.5879632234573364 0.051472246646881104 0.575880229473114 -0.24920353293418884 0.43972617387771606 0.4537491202354431 -0.40158703923225403 0.37183839082717896 -0.6972411870956421 0.4095286726951599 -0.3670289218425751
-0.16851109266281128 -0.2360425889492035 -0.29918092489242554 -0.20270133018493652 -0.08337521553039551 -0.3127821981906891 0.14284968376159668 -0.5286387205123901
-0.417814165353775 -0.1729634404182434 0.020133912563323975 -0.1476813554763794 -0.3721701502799988 0.4884456992149353 -0.6649110913276672 -0.2531873285770416
-0.22467446327209473 -0.3868708908557892 -0.3818880319595337 0.5406151413917542
-0.6311857104301453 0.5426635146141052
0.6392067074775696 0.47841185331344604 -0.12192881107330322 -0.5235018730163574 -0.3116858899593353 0.307939350605011
-0.33346325159072876 -0.47031480073928833 -0.0878264307975769
0.09277850389480591 -0.3962496817111969 0.026362359523773193 -0.37165772914886475 -0.10619130730628967 0.18199694156646729 -0.4314776062965393 -0.49812349677085876 -0.4084753692150116
0.09284597635269165 -0.2345850169658661 -0.5192294716835022
-0.4296141564846039 0.48440682888031006 -0.011388063430786133
0.14400988817214966
