0.6337847113609314 -0.02960425615310669 0.3570588231086731 0.47134894132614136 -0.5813628435134888 0.3882213234901428 -0.47828763723373413 -0.20179444551467896 0.17868804931640625 -0.5212467908859253 0.2978280186653137 -0.6156759858131409 0.18301039934158325 -0.2867278754711151 -0.5179520845413208 -0.004860818386077881 -0.406800776720047 0.46491092443466187 -0.5484108924865723 0.683016836643219 -0.16647446155548096 -0.4812765419483185 0.19085818529129028 0.32687944173812866 0.514301598072052 -0.4434719979763031 -0.2596530616283417 -0.269407719373703 -0.21937814354896545 -0.4402695894241333 0.31731826066970825 0.6761048436164856 0.12995177507400513 -0.022786617279052734 0.5931071639060974 -0.46908944845199585 0.09702187776565552 0.3459044098854065 -0.5410829186439514 0.01135343313217163
0.25708305835723877 0.32401686906814575 0.22183674573898315 0.6322535872459412 0.48827654123306274 -0.5630500912666321 -0.40152087807655334 0.09021484851837158 0.65980464220047 0.5059208273887634 0.49246519804000854 0.05881989002227783 0.664043128490448 -0.07206106185913086 0.23012244701385498 -0.5495272278785706
-0.46377134323120117 0.41880184412002563 -0.6057860851287842 0.0908392071723938 0.012051582336425781 0.3830205798149109 0.4978652596473694 -0.5783284902572632
-0.6820634603500366 -0.28479331731796265 -0.43703964352607727 0.520452082157135 0.10622698068618774 0.04152333736419678 0.2936193346977234 -0.2824718952178955
