-0.4068739414215088 -0.6150938868522644 -0.09293127059936523 -0.5211641788482666 -0.5729109048843384 0.1494312286376953 -0.6611894369125366 0.052846670150756836 0.30099087953567505 0.5266103148460388 -0.01973700523376465 -0.5109328031539917 -0.5993458032608032 -0.3859409689903259 0.20170056819915771 0.03730285167694092 0.47769349813461304 0.5564505457878113 -0.17505735158920288 0.20119357109069824 0.38853925466537476 -0.476204514503479 0.50844806432724 -0.11323022842407227 0.15336966514587402 0.20128017663955688 -0.15053069591522217 -0.25922468304634094 0.5223889946937561 0.5740997195243835 0.38342124223709106 0.615822970867157 0.32165175676345825 0.6341268420219421 0.42626625299453735 -0.22112765908241272 0.6211170554161072 0.43496567010879517 -0.0611271858215332 0.3559877276420593
-0.16983991861343384 -0.03909093141555786 0.4136156439781189 -0.46837151050567627 0.41573578119277954 0.5477593541145325 0.47033172845840454 -0.2512017786502838 -0.2897557020187378 -0.15272486209869385 -0.2259189784526825 -0.16689693927764893 0.54891437292099 -0.6698339581489563 0.5101425051689148 0.5657152533531189 -0.6104223132133484 -0.7061260342597961 -0.681119441986084 0.2828056216239929
-0.010661333799362183 0.20988601446151733 0.16275057196617126 0.1341511607170105 -0.005841076374053955 -0.21006977558135986 -0.16919644176959991 -0.00500255823135376 0.0715596079826355 -0.12772998213768005 0.17860189080238342 0.14483904838562012 -0.02399459481239319 -0.08292359113693237 -0.13832685351371765 -0.11421208828687668 0.1463407278060913 0.11317360401153564 -0.01998305320739746 0.12707296013832092 0.04325222969055176 0.043984055519104004 -0.10047715157270432 -0.11888328939676285 -0.07354885339736938 -0.018803685903549194 0.004548579454421997 -0.18852686882019043 0.19917160272598267 0.03227701783180237 -0.007550284266471863 -0.2003621906042099 -0.19246631860733032 0.08571076393127441 -0.11223863810300827 -0.035138994455337524 -0.0007128864526748657 -0.09861549735069275 -0.15987059473991394 0.06046643853187561 0.16719460487365723 -0.13762575387954712 0.06954637169837952 0.13279938697814941 -0.21384379267692566 0.06797453761100769 0.16507726907730103 -0.13144689798355103 -0.010315924882888794 -0.0779634416103363 0.03714531660079956 -0.12964963912963867 -0.21470603346824646 0.2215065062046051 0.15552574396133423 0.16389793157577515 0.09435412287712097 -0.21357813477516174 0.16211366653442383 0.09988051652908325 0.16574349999427795 -0.14257831871509552 0.08030909299850464 -0.13983075320720673 -0.08109231293201447 -0.15582531690597534 0.19075754284858704 -0.1876813769340515 0.16521668434143066 -0.16480273008346558 0.209705650806427 0.17887675762176514 -0.0805913507938385 0.1640903651714325 0.05035784840583801 -0.027208104729652405 -0.16036608815193176 0.0690726637840271 0.03598207235336304 0.18108922243118286 0.16665402054786682 -0.061181485652923584 0.19738638401031494 -0.20767463743686676 0.11870861053466797 -0.2102459818124771 -0.0713428258895874 -0.1004321351647377 -0.08448240160942078 0.05879148840904236 -0.026872530579566956 -0.09051884710788727 -0.004147574305534363 -0.14563152194023132 0.01223115622997284 -0.2013157308101654 -0.03985664248466492 0.21281686425209045 -0.07507883012294769 0.1589471995830536 0.1961069405078888 -0.15446220338344574 -0.08747251331806183 -0.0011409074068069458 0.0503106415271759 0.10694184899330139 -0.16786468029022217 0.20425155758857727 -0.1464143991470337 0.13685020804405212 -0.13298287987709045 0.040552884340286255 0.18858802318572998 -0.20522724092006683 0.07578182220458984 -0.04462319612503052 0.08973857760429382 0.0034215599298477173 0.1552676558494568 0.02005232870578766 0.08700400590896606 -0.18066050112247467 0.12588396668434143 -0.03416167199611664 0.03560999035835266 -0.012869566679000854 0.20445144176483154 -0.16289347410202026 0.21537566184997559 -0.1684480756521225 -0.12081822007894516 -0.1484888792037964 -0.1863977313041687 -0.12924832105636597 -0.10897580534219742 0.12728509306907654 -0.200348362326622 -0.21455056965351105 0.06305831670761108 -0.19959756731987 -0.16307054460048676 0.09818905591964722 0.019878670573234558 -0.09087733924388885 0.188884437084198 0.14111855626106262 0.2136353850364685 -0.06760995090007782 -0.1535102128982544 0.10303500294685364 0.06579947471618652 0.008796244859695435 -0.08893726766109467 -0.20609816908836365 0.20746088027954102 -0.2230215072631836 0.17403367161750793 -0.11383439600467682 0.18050673604011536 0.17889463901519775 0.06906214356422424 0.017552867531776428 -0.19421172142028809 -0.11556882411241531 -0.1424720585346222 -0.017084315419197083 -0.12819921970367432 -0.1982308328151703 -0.002477005124092102 0.12232384085655212 -0.10785665363073349 0.10126617550849915 -0.0003496408462524414 -0.13660505414009094 -0.14365223050117493 -0.03103300929069519 -0.013236567378044128 0.01783449947834015 0.21007147431373596 -0.05563470721244812 0.09608373045921326 -0.024629324674606323 -0.13225945830345154 -0.023260638117790222 0.06904137134552002 0.03981521725654602 0.09706628322601318 0.07187891006469727 0.1352311372756958 -0.04802265763282776 0.005459129810333252 -0.06920576095581055 -0.09885409474372864 0.10504987835884094 0.13995012640953064 0.062086522579193115 -0.07470156252384186 0.03312191367149353 0.08050036430358887 0.04120722413063049 0.05329051613807678 0.05998528003692627 0.1975722312927246 0.10134062170982361 0.02526107430458069 0.041216492652893066 -0.18360482156276703 -0.21595057845115662 0.14056023955345154 0.10254603624343872 0.0833333432674408 -0.0672629177570343 0.11778214573860168 -0.18638277053833008 0.08044928312301636 -0.17436856031417847 0.0765647292137146 -0.11677449941635132 -0.1478567123413086 -0.01459522545337677 -0.20711179077625275 0.1392117738723755 0.17460837960243225 -0.10029437392950058 0.11199989914894104 0.13074612617492676 -0.10259944945573807 0.07655176520347595 0.13554450869560242 -0.0490117073059082 -0.053193554282188416 0.05719804763793945 0.19834056496620178 0.07675096392631531 -0.09568928182125092 0.1357685923576355 0.02353130280971527 -0.07849295437335968 0.16278237104415894 0.00569799542427063 0.006342872977256775 0.019494742155075073 0.08893224596977234 -0.0751008540391922 0.13825681805610657 -0.21167077124118805 0.09058123826980591 0.10624435544013977 -0.09787318110466003 0.07024094462394714 -0.004649266600608826 0.05214396119117737 -0.14889584481716156 -0.08222047984600067 -0.18364131450653076 -0.10269762575626373 -0.08323636651039124 -0.0222194641828537 0.17620724439620972 0.14179691672325134 -0.09275560081005096 -0.04432475566864014 0.1499355137348175 0.1483481228351593 -0.041097596287727356 0.11325404047966003 0.1347103714942932 -0.03870745003223419 -0.06843319535255432 -0.14144682884216309 -0.1430078148841858 0.1417013704776764 0.13279131054878235 0.06307908892631531 0.033037781715393066 0.18371140956878662 -0.04580061137676239 -0.0481967031955719 -0.034306421875953674 -0.10525721311569214 -0.02171427011489868 0.0006920099258422852 0.2005223035812378 0.0034726858139038086 -0.034408584237098694 -0.09734053909778595 0.11014226078987122 -0.017041563987731934 -0.1543482542037964 0.13721239566802979 0.1527717113494873 -0.20848828554153442 0.15819090604782104 0.019295483827590942 0.15493622422218323 0.2161971926689148 0.1654118001461029 -0.15020331740379333 -0.026468247175216675 0.1825830638408661 -0.09329359233379364 0.12117016315460205 0.00996159017086029 -0.07624538242816925 -0.07431255280971527 0.12701910734176636 -0.20766879618167877 -0.120754674077034 -0.18350419402122498 0.13102087378501892 0.02856123447418213 -0.1938042938709259 -0.12187448889017105 -0.10294968634843826 0.11365759372711182 -0.02656465768814087 -0.10546145588159561 -0.16317123174667358 -0.04003879427909851 -0.08189950883388519 0.18138939142227173 0.004245176911354065 0.21116045117378235 0.13111785054206848 0.04166680574417114 0.07720106840133667 -0.005415201187133789 -0.007873192429542542 0.21592986583709717 0.01761050522327423 0.06820288300514221 0.14980676770210266 -0.12195893377065659 -0.13527251780033112 -0.0769602358341217 0.11211472749710083 -0.20242027938365936 -0.1433970034122467 0.06807458400726318 -0.08188259601593018 0.1410525143146515 -0.1410965621471405 -0.10321374237537384 -0.19698375463485718 -0.05208379030227661 -0.15024027228355408 -0.18403978645801544 0.05118414759635925 -0.18288156390190125 -0.14373713731765747 -0.06410598754882812 0.08902573585510254 -0.14614969491958618 -0.005135864019393921 0.10812985897064209 0.0826486349105835 -0.1498182713985443 -0.10580504685640335 -0.049889177083969116 -0.11740915477275848 -0.07799209654331207 0.19997236132621765 0.05773282051086426 -0.02686530351638794 -0.127144917845726 -0.14700210094451904 -0.19729411602020264 -0.17051570117473602 -0.041458696126937866 0.0858614444732666 0.1542491912841797 -0.054347336292266846 0.011737436056137085 -0.06101587414741516 -0.11523077636957169 -0.14627297222614288 0.19421523809432983 -0.02145099639892578 0.17559951543807983 0.20570328831672668 -0.01418544352054596 -0.1681784838438034 0.21885406970977783 -0.20230373740196228 0.09786826372146606 -0.0555683970451355 0.12278813123703003 0.12034070491790771 -0.155849426984787 -0.07841826975345612 0.10229501128196716 0.03151258826255798 -0.20296137034893036 -0.004383638501167297 -0.06181344389915466 -0.12917885184288025 0.1831859052181244 -0.10885772109031677 0.13933688402175903 -0.04167644679546356 0.19318878650665283 0.17735061049461365 0.07479983568191528 -0.0034446269273757935 0.05879649519920349 -0.16455212235450745 0.0056013017892837524 -0.15330281853675842 -0.18713542819023132 0.01513834297657013 0.15399324893951416 0.0006994009017944336 -0.0988941341638565 -0.14888986945152283 0.15039068460464478 0.1858382523059845 -0.11533267796039581 -0.13541775941848755 -0.1146620661020279 0.09125754237174988 -0.09281328320503235 0.2162725329399109 0.11710900068283081 0.16608759760856628 -0.040461719036102295 0.04118376970291138 -0.07473243772983551 0.06714743375778198 0.16068002581596375 0.14502939581871033 -0.06849232316017151 0.024957269430160522 -0.053848996758461 0.08599039912223816 -0.09758281707763672 0.21441292762756348 -0.10848850756883621 -0.015915602445602417 0.04320976138114929 0.14309340715408325 -0.1076325848698616 -0.10587573796510696 0.0338607132434845 0.2147076427936554 -0.11372284591197968 -0.024278447031974792 0.20145419239997864 0.07851025462150574 -0.008875459432601929 0.18477720022201538 0.1013273298740387 -0.10261975973844528 0.09777835011482239 -0.1880934238433838 -0.10940038412809372 -0.06189964711666107 -0.05804608762264252 0.16225478053092957 0.1268613636493683 0.01146484911441803 0.2131544053554535 -0.15972359478473663 0.02671101689338684 -0.17582646012306213 0.13249534368515015 -0.05990007519721985 -0.2051801085472107 -0.02236054837703705 0.16732200980186462 -0.12325786054134369 -0.11485066264867783 0.0994671881198883 0.18049845099449158 -0.029684901237487793 0.025950953364372253 0.08094647526741028 0.15597641468048096 -0.029850274324417114 0.1415865123271942 -0.21635276079177856 0.13836035132408142 -0.11622808128595352 -0.17708194255828857 0.057471007108688354 -0.03879702091217041 -0.12883538007736206 -0.20038296282291412 0.15749388933181763 -0.02348242700099945 -0.1061447262763977 0.06303250789642334 -0.1041787639260292 0.06432345509529114 -0.16554859280586243 0.03226345777511597 0.013082265853881836 0.0057760924100875854 0.05731093883514404 0.08602401614189148 0.14191347360610962 -0.014807835221290588 -0.006115630269050598 0.043402791023254395 0.054217010736465454 0.13624969124794006 0.04615718126296997 0.09101453423500061 -0.19370944797992706 -0.07835903763771057 -0.17519885301589966 -0.13916555047035217 0.11102920770645142 -0.1374891698360443 -0.20035462081432343 -0.09927619248628616 0.14753741025924683 -0.08816768229007721 0.0012367814779281616 -0.13606303930282593 -0.14205428957939148 -0.07865048944950104 -0.21057406067848206 -0.05005966126918793 0.015558972954750061 0.2143685519695282 0.17081832885742188 -0.1194334402680397 0.09811189770698547 0.08510267734527588 0.20109596848487854 -0.18680337071418762 -0.18660378456115723 0.16389453411102295 0.059497326612472534 0.09620967507362366 -0.17523035407066345 0.20832082629203796 -0.01593458652496338 -0.0362875759601593 0.11704903841018677 0.10460922122001648 0.09018200635910034 0.1263052225112915 -0.08125366270542145 0.1322798728942871 -0.14215968549251556 -0.0977572351694107 0.1582086682319641 -0.012724429368972778 0.045540452003479004 0.10036611557006836 -0.14297303557395935 -0.0505833774805069 -0.14926724135875702 -0.11703738570213318 0.0003869682550430298 0.01069718599319458 0.05316537618637085 -0.22214987874031067 -0.12211377918720245 0.12684139609336853 0.19081741571426392 -0.19898159801959991 -0.10968952625989914 0.17661866545677185 0.11003696918487549 0.18729326128959656 0.1914595365524292 0.015038415789604187 0.04629254341125488 -0.006147757172584534 -0.02139328420162201 -0.17605383694171906 0.07349923253059387 0.1251450777053833 0.04698440432548523 0.04602539539337158 -0.09178310632705688 0.17211079597473145 -0.12599509954452515 0.1523655354976654 0.09945398569107056 0.051886171102523804 0.2008005678653717 -0.042781978845596313 0.01222255825996399 0.15507248044013977 -0.07125617563724518 -0.17405450344085693 0.07562229037284851 0.12440761923789978 -0.1947477012872696 0.016708388924598694 0.0741630494594574 0.036230385303497314 -0.0976344496011734 0.21039611101150513 -0.22071748971939087 0.0019881874322891235 0.1334584653377533
-0.015072181820869446 0.16311925649642944 -0.2055809050798416 -0.18639156222343445 -0.10619606822729111 0.017494812607765198 0.1405870020389557 -0.13661089539527893 -0.14116808772087097 -0.009474128484725952 -0.19290456175804138 -0.18187081813812256 -0.1302337646484375 0.12136048078536987 0.045656174421310425 -0.03915239870548248 -0.19508452713489532 0.21123462915420532 0.16251707077026367 -0.1819683015346527 0.15123394131660461 0.050922244787216187 -0.19979017972946167 0.03310549259185791 -0.029205068945884705 0.15417280793190002 0.03719496726989746 0.06882962584495544 -0.11527390033006668 0.09565216302871704
0.09652435779571533 0.033898577094078064 0.1529788076877594 0.046364471316337585 0.09436991810798645 -0.1380603313446045 -0.12081238627433777 -0.0921194776892662 0.03818260133266449 -0.0035439133644104004 0.10043752193450928 0.06303849816322327 -0.04399186372756958 0.1700313687324524 -0.1580318957567215 -0.07474654167890549 -0.12338773906230927 -0.08491497486829758 -0.04275974631309509 -0.13414159417152405 0.17755872011184692 0.019788429141044617 -0.061550289392471313 -0.10395226627588272 0.001916930079460144 -0.1714843064546585 0.09131470322608948 0.11718127131462097 0.034507542848587036 0.03792347013950348 -0.001731961965560913 -0.025390490889549255 -0.06286182254552841 -0.07739326357841492 -0.07892909646034241 0.051865026354789734 -0.16757652163505554 -0.01646001636981964 0.05904383957386017 0.08817598223686218 0.06238384544849396 0.12391430139541626 -0.036377400159835815 -0.021234482526779175 -0.016654595732688904 -0.17760740220546722 0.010797888040542603 -0.05815010517835617 0.059481024742126465 0.14125284552574158 -0.10340604186058044 0.16893437504768372 -0.04056544601917267 0.13195794820785522 0.036852821707725525 0.08099913597106934 -0.1207672506570816 0.043738871812820435 -0.11484503000974655 -0.00046581029891967773 0.09436199069023132 -0.08144142478704453 0.1725527048110962 -0.027433961629867554 0.0777139961719513 -0.10230271518230438 -0.07782970368862152 0.05876965820789337 0.021967008709907532 -0.109013631939888 -0.11826539039611816 0.09903720021247864 -0.07902482151985168 -0.03928288817405701 0.16990503668785095 0.12289321422576904 0.07070085406303406 -0.0779247060418129 -0.07774186879396439 -0.15420305728912354 0.142579585313797 0.0447441041469574 -0.16992230713367462 -0.15555107593536377 0.08510094881057739 -0.05969368666410446 -0.1427602469921112 -0.1626501977443695 -0.10169809311628342 0.17693546414375305 -0.11179368197917938 0.036663129925727844 0.1311560869216919 0.17683693766593933 -0.17736946046352386 -0.05135408043861389 0.0011540502309799194 0.13793981075286865 0.12778642773628235 0.08137261867523193 0.07189401984214783 -0.012056753039360046 0.07524952292442322 0.1451910138130188 -0.04406663775444031 -0.09453897178173065 0.10737109184265137 -0.05479174852371216 0.06968939304351807 0.08921107649803162 -0.16576817631721497 0.07596158981323242 -0.02982233464717865 0.17447835206985474 -0.0913921520113945 -0.16982793807983398 -0.052700385451316833 0.00556519627571106 0.10795116424560547 0.1553388237953186 0.16407743096351624 0.1532183587551117 0.010296329855918884 0.12094813585281372 0.12028825283050537 0.051381468772888184 -0.031196460127830505 -0.15543513000011444 -0.1509276032447815 0.16233888268470764 -0.01503707468509674 0.028571709990501404 -0.03443402051925659 0.08620503544807434 0.11848080158233643 -0.061910055577754974 0.009152308106422424 -0.12745700776576996 0.17134085297584534 -0.1357877552509308 0.05491308867931366 -0.02517375349998474 -0.1703493893146515 -0.05612589418888092 0.06307445466518402 -0.15984953939914703 -0.04449479281902313 0.13494732975959778 0.120781809091568 -0.07515008002519608 0.0301501601934433 -0.0945371687412262 0.16687625646591187 0.000851750373840332 0.05509370565414429 -0.1605885773897171 0.18216201663017273 -0.16827431321144104 -0.09486191719770432 0.14100033044815063 0.143079936504364 0.09863105416297913 -0.1744820773601532 -0.14491978287696838 0.005128994584083557 -0.12137682735919952 0.0630774199962616 0.10543149709701538 0.12823155522346497 0.1668725609779358 0.029441699385643005 0.11198952794075012 -0.03907451033592224 -0.02070409059524536 0.1390836238861084 0.0313313752412796 0.1510918140411377 0.13698157668113708 -0.039716869592666626 0.1705399751663208 -0.016977399587631226 0.17391431331634521 0.13714191317558289 -0.06163817644119263 0.01565048098564148 -0.022898107767105103 -0.1676311492919922 -0.0469755083322525 0.1326095163822174 0.047820255160331726 -0.06724180281162262 0.053732335567474365 0.08303001523017883 -0.13610631227493286 -0.15363538265228271 0.17213118076324463 0.07687488198280334 -0.15080440044403076 0.16056746244430542 0.0888710618019104 0.14944589138031006 -0.07733815163373947 0.05682633817195892 -0.11425141990184784 -0.023635506629943848 0.1186356246471405 -0.10662480443716049 0.18022245168685913 0.16535699367523193 -0.0979558527469635 -0.07454486936330795 -0.039907872676849365 -0.06499382853507996 -0.07875432819128036 -0.08875955641269684 0.14445117115974426 0.16940581798553467 0.015699520707130432 0.09022486209869385 -0.1511942446231842 -0.04248625040054321 -0.11170125007629395 -0.0925896093249321 -0.1651710569858551 0.07185310125350952 0.07711407542228699 0.14915743470191956 0.09148520231246948 -0.09466570615768433 0.08049985766410828 -0.04281480610370636 -0.13461017608642578 -0.16185928881168365 0.14271214604377747 0.14384594559669495 -0.036590829491615295 0.05168259143829346 0.03288848698139191 -0.09073980152606964 0.11742997169494629 0.08604517579078674 -0.12418834865093231 0.16183343529701233 0.1549563705921173 -0.008463814854621887 0.02001379430294037 0.1650729477405548 -0.13382400572299957 0.060500144958496094 -0.0129079669713974 0.0632588267326355 -0.17927348613739014 0.1320752203464508 -0.16328833997249603 0.062160760164260864 -0.14248864352703094 0.1562197506427765 -0.1742492914199829 0.0987531840801239 0.05976107716560364 -0.10075588524341583 0.1116868257522583 0.0968521237373352 -0.14390987157821655 0.046957358717918396 -0.004423186182975769 -0.05920855700969696 -0.1284327358007431 -0.005487233400344849 -0.17889824509620667 -0.0506010502576828 -0.1268191784620285 -0.008014112710952759 0.13216179609298706 -0.08721083402633667 0.15471810102462769 -0.002505555748939514 0.035986319184303284 0.03488120436668396 -0.03306187689304352 -0.1345927119255066 0.1673455834388733 0.08033549785614014 0.03207716345787048 -0.05350136756896973 -0.14595390856266022 -0.03468143939971924 -0.026917874813079834 0.08985069394111633 0.17022910714149475 -0.0538974404335022 0.06160835921764374 -0.08687278628349304 0.10941576957702637 0.1663820743560791 -0.16880832612514496 0.054489463567733765 0.055671513080596924 -0.05513747036457062 0.011858969926834106 -0.037538737058639526 -0.13585428893566132 0.09484249353408813 0.08336615562438965 -0.09711378812789917 -0.10904055833816528 -0.0985773429274559 0.058513328433036804 -0.14207857847213745 0.17956635355949402 -5.485117435455322e-05 0.004321694374084473 -0.08997897803783417 -0.12396970391273499 0.11211076378822327 0.08591189980506897 -0.15187926590442657 0.13691380620002747 -0.07781852036714554 -0.005852028727531433 0.05359160900115967 -0.016822591423988342 -0.04704126715660095 0.09047091007232666 -0.030489370226860046 0.08847340941429138 0.14196377992630005 -0.02639080584049225 0.13357213139533997 -0.14118756353855133 0.06287091970443726 0.09434878826141357 0.11849120259284973 0.16048553586006165 0.10520631074905396 0.042328283190727234 -0.1792987734079361 -0.02290506660938263 0.11381727457046509 0.12423306703567505 -0.12270283699035645 0.14373132586479187 0.10709589719772339 -0.04064728319644928 0.07928606867790222 0.0794062614440918 -0.18069720268249512 -0.07362630218267441 0.17422246932983398 -0.03375081717967987 -0.17265591025352478 0.002957060933113098 0.010486245155334473 -0.03576573729515076 -0.11427175253629684 0.02355101704597473 0.04825034737586975 0.07761308550834656 0.12383142113685608 -0.055177897214889526 0.022638320922851562 -0.07680796831846237 0.011130914092063904 -0.04818767309188843 -0.13496637344360352 0.1255861520767212 -0.034185558557510376 0.04570087790489197 0.020137250423431396 0.05439178645610809 -0.007369533181190491 0.09185561537742615 0.038054049015045166 0.14528971910476685 0.15287283062934875 0.09819057583808899 -0.11392617225646973 -0.14363457262516022 0.14793625473976135 0.07822868227958679 -0.17822018265724182 0.1022721529006958 -0.16811616718769073 -0.17342917621135712 -0.12853223085403442 -0.11358673125505447 0.1331595778465271 0.09916192293167114 0.06516061723232269 0.11594319343566895 0.14972025156021118 -0.15550817549228668 -0.025402694940567017 -0.156721830368042 0.18206793069839478 0.18240556120872498 -0.030638456344604492 -0.1497599184513092 0.10907295346260071 -0.0477461963891983 0.15526875853538513 0.17349174618721008 0.08814778923988342 -0.10322611778974533 -0.051973700523376465 0.14785507321357727 -0.12942340970039368 -0.027418240904808044 -0.17932754755020142 0.11401951313018799 0.14464351534843445 0.17068558931350708 -0.16157804429531097 0.059561535716056824 -0.050864771008491516 -0.05340126156806946 0.11570784449577332 -0.08812126517295837 -0.1498105376958847 0.1824820339679718 0.11843031644821167 -0.029484137892723083 -0.015331000089645386 -0.10487475991249084 -0.009672567248344421 -0.003267034888267517 -0.045362427830696106 0.03340999782085419 0.1509982943534851 -0.05656559765338898 -0.18178747594356537 -0.10832763463258743 0.12821272015571594 -0.03286297619342804 0.07862627506256104 0.1543724238872528 0.06518946588039398 -0.13190309703350067 -0.12001550197601318 -0.15654486417770386 0.1632952094078064 -0.12798325717449188 -0.08365871012210846 0.08943384885787964 0.12892305850982666 0.15613830089569092 0.0018612146377563477 0.07510486245155334 0.06282320618629456 -0.09086916595697403 -0.0699056088924408 0.12235867977142334 -0.11162285506725311 -0.14703775942325592 0.053475216031074524 -0.13413205742835999 0.13222983479499817 0.05404803156852722 -0.09326204657554626 0.013921603560447693 -0.0825975090265274 -0.09230789542198181 0.16211286187171936 0.1185680627822876 -0.1096043661236763 -0.0659211128950119 0.006984874606132507 -0.04706872999668121 -0.17792043089866638 0.009882211685180664 -0.025940433144569397 -0.10604725778102875 -0.14761637151241302 -0.04351881146430969 0.03254915773868561 -0.1280340850353241 0.08928358554840088 -0.11265884339809418 0.12030869722366333 0.038747191429138184 -0.027608409523963928 -0.1667891889810562 0.16340619325637817 -0.025190994143486023 0.11124873161315918 -0.13916601240634918 0.1196032166481018 -0.09749303013086319 0.15927040576934814 -0.15492674708366394 0.15241575241088867 0.09901013970375061 -0.06212186813354492 0.15728849172592163 -0.17904435098171234 -0.060222327709198 0.12396189570426941 0.1045575737953186 0.01889781653881073 0.14262151718139648 0.07134425640106201 0.13331592082977295 0.10776340961456299 -0.04390239715576172 -0.1185060441493988 0.08318126201629639 0.08914339542388916 0.10914409160614014 0.06258183717727661 0.0514514297246933 0.06874099373817444 0.04464179277420044 0.0882997214794159 0.14466330409049988 -0.1175927147269249 -0.13642260432243347 -0.10398487001657486 -0.07618698477745056 -0.06310279667377472 0.05734914541244507 0.11846089363098145 -0.16988426446914673 -0.15705543756484985 0.007068037986755371 0.03133489191532135 -0.10493358969688416 0.1090412437915802 0.06179094314575195 0.15133079886436462 0.1265895962715149 0.0022827088832855225 -0.14080481231212616 -0.15069369971752167 0.12634631991386414 0.0648520290851593 -0.08489896357059479 -0.17288680374622345 0.16582843661308289 0.1682772934436798 0.1622563898563385 -0.12045368552207947 0.08993622660636902 -0.07125414162874222 -0.17985102534294128 0.02929152548313141 -0.10926137864589691 0.14435842633247375 0.04374031722545624 0.0327560156583786 -0.0992116928100586 -0.1408691704273224 0.17436149716377258 0.05348712205886841 -0.13572759926319122 0.1504611074924469 -0.10372047871351242 -0.05066180229187012 -0.015437498688697815 -0.12192801386117935 0.0693814754486084 0.11927592754364014 -0.006580859422683716 -0.04665932059288025 0.028049826622009277 0.1694319248199463 -0.10107101500034332 0.13813546299934387 0.0006771236658096313 0.107140451669693 -0.10775263607501984 -0.13163092732429504 0.008507326245307922 -0.047206759452819824 0.1585988700389862 -0.01421859860420227 -0.1808052659034729 0.0018286854028701782 -0.12346184998750687 -0.09415678679943085 -0.10223876684904099 0.0412476509809494 0.16115927696228027 0.1379726529121399 0.1006288230419159 0.17533358931541443 0.1273895502090454 -0.03679630160331726 0.07062581181526184 0.0038477331399917603 -0.15656766295433044 -0.16268302500247955 -0.03919339179992676 -0.051330938935279846 0.13421660661697388 -0.1101001650094986 -0.07019433379173279 0.05411158502101898 -0.02688993513584137 -0.15293756127357483 -0.09529374539852142 -0.003649279475212097 -0.13671189546585083 -0.003759339451789856 -0.10720609128475189 -0.07593094557523727 -0.09884554892778397 0.023436516523361206 -0.07713918387889862 0.0185592919588089 0.04518488049507141 -0.1283670961856842 -0.09001447260379791 -0.18152908980846405 0.08968451619148254 0.14081069827079773 -0.03522464632987976 -0.000774383544921875 0.06986746191978455 -0.017945095896720886 0.005466431379318237 -0.013135850429534912 0.1677989959716797 0.019820377230644226 -0.01473720371723175 0.05064660310745239 0.08834895491600037 -0.09976892918348312 -0.12618224322795868 0.029509320855140686 -0.16276434063911438 0.03660888969898224 0.04618839919567108 0.11184951663017273 -0.13827994465827942 -0.006472691893577576 0.17048338055610657 0.14203378558158875 -0.08747829496860504 -0.10910874605178833 0.06823974847793579 -0.030026793479919434 0.08037054538726807 -0.16925761103630066 -0.1587349772453308 0.005824238061904907 0.17392084002494812 -0.11290422081947327 -0.17322592437267303 -0.0664195790886879 0.15630492568016052 0.17293864488601685 0.02951982617378235 -0.10028335452079773 0.06923368573188782 -0.13688306510448456 0.161973774433136 0.06447125971317291 0.12989765405654907 -0.07352416217327118 -0.04550841450691223 0.04721997678279877 -0.13785229623317719 -0.0012135505676269531 -0.11290188878774643 -0.09333115071058273 -0.09679634869098663 -0.0942823514342308 -0.17911279201507568 0.06222289800643921 0.06095072627067566 0.1373623013496399 -0.10200566798448563 0.10536223649978638 -0.06414473056793213 0.1793031394481659 0.13927432894706726 -0.03589490056037903 -0.029945269227027893 0.15516608953475952 -0.0065758973360061646 -0.13050846755504608 0.17787832021713257 -0.06845039129257202 0.06313663721084595 0.05090653896331787 0.06657136976718903 0.0014822781085968018 0.11503410339355469 -0.11072861403226852 0.010764867067337036 0.018039345741271973 -0.09539804607629776 -0.18116945028305054 0.15421512722969055 -0.07969296723604202 -0.14096759259700775 0.17220383882522583 -0.15182626247406006 -0.17596769332885742 0.10985073447227478 0.07124361395835876 0.022951900959014893 -0.04181039333343506 0.10080614686012268 0.1695532202720642 0.0004310905933380127 0.12378570437431335 -0.1665903478860855 0.03554260730743408 0.09421467781066895 0.13517975807189941 -0.1237880289554596 -0.1354612410068512 -0.05550825595855713 -0.00021822750568389893 0.14624014496803284 0.07782948017120361 0.11468729376792908 0.14629408717155457 -0.15623432397842407 0.15852594375610352 0.12472379207611084 -0.08452297747135162 -0.040751248598098755 0.09341457486152649 -0.06994907557964325 -0.020858436822891235 0.011952623724937439 -0.06602656096220016 0.07606363296508789 0.12333258986473083 -0.007568463683128357 0.11569851636886597 -0.14433671534061432 -0.1639530062675476 0.06228834390640259 0.14768755435943604 0.14757996797561646 -0.16031038761138916 -0.056277066469192505 -0.10361010581254959 -0.0696450024843216 0.06502731144428253 0.1105932891368866 -0.1607697308063507 0.047064363956451416 -0.14856189489364624 -0.09279672056436539 -0.02814294397830963 0.040678948163986206 0.147613525390625 0.0022810250520706177 0.0740114152431488 -0.12670981884002686 0.003065541386604309 -0.06335143744945526 -0.05093376338481903 -0.15740662813186646 -0.12519535422325134 -0.06547702848911285 0.10129806399345398 -0.08464738726615906 -0.16940782964229584 -0.17510563135147095 0.1701795756816864 0.15974795818328857 -0.08434814214706421 0.08630719780921936 0.016814187169075012 0.03401491045951843 0.09891796112060547 0.0480385422706604 0.13733375072479248 -0.05307963490486145 0.04775947332382202 -0.1770552396774292 0.10304060578346252 -0.17341116070747375 0.0412105917930603 0.05345959961414337 0.004392668604850769 -0.17392659187316895 -0.14754274487495422 -0.06126190721988678 -0.06692244857549667 -0.1673465073108673 0.11216798424720764 -0.1473759114742279 -0.14534282684326172 -0.10832957178354263 0.06851041316986084 -0.1236090213060379 -0.10621689260005951 -0.11138603091239929 -0.021218419075012207 0.10238808393478394 0.17982217669487 -0.001955658197402954 -0.09369440376758575 -0.12052206695079803 0.10465279221534729 -0.1555825024843216 0.05590800940990448 -0.10383334755897522 0.07818067073822021 0.02089792490005493 0.010122641921043396 -0.09385128319263458 0.02460472285747528 -0.1723897010087967 0.1251668930053711 -0.05767001956701279 -0.10194189846515656 -0.10364260524511337 -0.15240652859210968 -0.13949507474899292 0.050936728715896606 -0.10625691711902618 0.14176714420318604 0.12143489718437195 -0.07675044983625412 0.15760985016822815 -0.07837723940610886 0.09199759364128113 -0.06718110293149948 0.09497407078742981 -0.17725427448749542 -0.1073906272649765 0.09641790390014648 -0.11724700778722763 -0.1524147093296051 -0.07203134894371033 0.026791751384735107 -0.10307330638170242 0.009281054139137268 -0.1764250546693802 -0.07770795375108719 -0.018338754773139954 -0.11054631322622299 -0.014297500252723694 -0.12645886838436127 0.012322694063186646 0.03473950922489166 0.15092507004737854 0.05709412693977356 0.17698583006858826 0.1412498652935028 -0.11658275127410889 -0.006333649158477783 0.07588985562324524 0.058718547224998474 -0.0025171488523483276 -0.09325014054775238 -0.1573488712310791 0.143814355134964 0.11740756034851074 0.05992336571216583 0.019563212990760803 0.024340525269508362 0.08152347803115845 0.012067392468452454 -0.18059605360031128 -0.09290435165166855 -0.11992582678794861 0.009634792804718018 -0.11861466616392136 0.08222511410713196 -0.11967712640762329 0.0637698620557785 0.08802002668380737 0.17738661170005798 -0.12725335359573364 0.007075458765029907 0.0035174041986465454 0.0320575088262558 0.1699766218662262 0.16188395023345947 0.042141854763031006 -0.02542079985141754 -0.04893280565738678 -0.08601108193397522 0.11682042479515076 0.09455028176307678 -0.03567087650299072 0.07238233089447021 -0.1087861955165863 -0.034170061349868774 -0.16773052513599396 0.13017648458480835 0.17083382606506348 -0.12009047716856003 -0.13348457217216492 0.08551868796348572 0.16420963406562805 0.15750879049301147 0.012158766388893127 -0.0032649189233779907 0.1632351577281952 -0.017100512981414795 0.1313023567199707
0.07028630375862122 0.0002909451723098755 -0.07890291512012482 0.09086844325065613 0.03240036964416504 -0.1418396234512329 0.10928210616111755 0.09389376640319824 0.1632964313030243 0.09585550427436829 0.014185532927513123 -0.14981232583522797 0.1818605661392212 0.1496928632259369 -0.10878055542707443 0.015125200152397156 0.16645905375480652 0.08063068985939026 0.09478706121444702 -0.11631640046834946 0.08371856808662415 0.18103542923927307 0.17348003387451172 0.13949307799339294 -0.11193715780973434 0.0674024224281311 0.0784284770488739 0.09383341670036316 0.11552470922470093 -0.126835435628891
-0.038656219840049744 -0.019197821617126465 0.12874194979667664 -0.17315532267093658 0.04514901340007782 -0.1124669685959816 0.15076708793640137 0.10248547792434692 -0.09657450020313263 -0.002125650644302368 0.02593594789505005 0.056871891021728516 -0.08655626326799393 -0.08640824258327484 0.0432543009519577 0.1309659481048584 0.0775449275970459 -0.11769015341997147 0.16276979446411133 -0.040069013833999634 -0.12941525876522064 -0.04591105878353119 0.1689886450767517 0.08328849077224731 0.062290921807289124 0.15876111388206482 -0.06839726120233536 0.13055267930030823 -0.03854939341545105 0.12400513887405396 0.023962631821632385 -0.08732207119464874 -0.10847071558237076 -0.16772565245628357 0.0960637629032135 -0.14772363007068634 0.020248204469680786 0.0797547698020935 0.12319245934486389 -0.04019877314567566 0.0050270408391952515 0.034886330366134644 0.174448162317276 0.10319676995277405 0.0642303079366684 0.020456179976463318 0.11886879801750183 0.11879244446754456 0.046834930777549744 0.03226812183856964 -0.07690238207578659 0.002068758010864258 0.08913376927375793 0.09226587414741516 -0.1377290040254593 -0.10175903141498566 0.030081048607826233 0.15667808055877686 -0.025092795491218567 0.17866811156272888 0.018421903252601624 0.0601026713848114 -0.14267797768115997 0.06430356204509735 0.04386967420578003 0.14585113525390625 0.08546346426010132 -0.13086816668510437 -0.15364329516887665 0.033273324370384216 0.13757744431495667 -0.1213277280330658 0.07755672931671143 0.014742359519004822 0.08373424410820007 -0.0032951682806015015 0.13325482606887817 0.10079118609428406 -0.121344655752182 -0.07784448564052582 -0.14503666758537292 0.08820879459381104 0.16024571657180786 -0.11199644207954407 -0.10667731612920761 0.12440866231918335 -0.10515811294317245 0.03518490493297577 0.005518615245819092 0.11470147967338562 -0.05767807364463806 -0.07351793348789215 0.022404521703720093 -0.12975266575813293 0.0028837770223617554 0.15563622117042542 0.1254359781742096 -0.1357051134109497 0.16398435831069946 -0.05714988708496094 0.033113136887550354 -0.03207956254482269 0.05482576787471771 0.12802425026893616 0.09341767430305481 -0.14102351665496826 0.13239121437072754 -0.07996746152639389 0.1554485261440277 0.02806428074836731 -0.12681925296783447 -0.13737502694129944 0.030650287866592407 -0.03231598436832428 -0.11150939762592316 -0.015103965997695923 -0.15526729822158813 0.18223252892494202 -0.13130521774291992 0.16374444961547852 0.013729378581047058 0.017023280262947083 0.1698405146598816 -0.15516969561576843 0.019275173544883728 0.10316479206085205 -0.035883501172065735 -0.15141279995441437 0.037589818239212036 -0.13742917776107788 -0.1600152999162674 0.11590832471847534 -0.17582793533802032 -0.07817833125591278 -0.03826913237571716 0.1800747811794281 0.17784374952316284 0.10813280940055847 -0.16914382576942444 0.053596943616867065 0.10916557908058167 0.09550896286964417 0.024744674563407898 0.07707428932189941 -0.07262419909238815 -0.003015458583831787 -0.06402326375246048 0.06514361500740051 0.08729901909828186 0.07525286078453064 0.02296854555606842 0.057052597403526306 0.07119980454444885 -0.15057820081710815 -0.09922008961439133 0.028853535652160645 -0.022632181644439697 -0.16557009518146515 -0.04382048547267914 -0.1322946846485138 -0.012029603123664856 -0.10354810208082199 -0.0013876408338546753 0.06744745373725891 0.017019525170326233 -0.11516498774290085 0.16625288128852844 -0.020935654640197754 -0.059103235602378845 0.13163790106773376 -0.04178410768508911 0.17055395245552063 -0.03592725098133087 0.16180652379989624 0.01492781937122345 -0.07366691529750824 0.06652519106864929 -0.11933315545320511 0.02665548026561737 0.16011828184127808 -0.059785597026348114 0.10181447863578796 0.09439250826835632 0.029994338750839233 0.05486588180065155 0.03949826955795288 0.014214575290679932 -0.001507103443145752 0.11592826247215271 -0.016907155513763428 0.1001599133014679 0.02707366645336151 -0.06006027013063431 0.16694769263267517 -0.16029933094978333 -0.012813612818717957 0.16540518403053284 0.017408251762390137 -0.11687439680099487 -0.0797552615404129 0.10101953148841858 0.0579962432384491 -0.027524933218955994 0.004126951098442078 -0.13556243479251862 -0.054241299629211426 -0.022027328610420227 -0.01348702609539032 0.004882693290710449 0.12375834584236145 0.08624982833862305 0.0314190536737442 0.16876769065856934 -0.04661017656326294 0.10044333338737488 0.16410872340202332 0.0482046902179718 0.02086910605430603 -0.05103299021720886 -0.14835301041603088 0.0997743308544159 0.13397926092147827 -0.0970960482954979 -0.1682702600955963 0.17775389552116394 -0.0920664370059967 -0.044849053025245667 0.07616403698921204 0.019428804516792297 -0.035450324416160583 0.14032891392707825 -0.05020645260810852 -0.1519913226366043 0.12805995345115662 0.17989414930343628 0.08401668071746826 -0.09616981446743011 0.04875260591506958 0.13283571600914001 -0.07437136769294739 -0.03963962197303772 0.04764844477176666 -0.02139909565448761 0.16281256079673767 -0.13643209636211395 0.032829806208610535 -0.15930277109146118 -0.07762686163187027 -0.1342347115278244 0.056256189942359924 -0.02276858687400818 -0.1729690134525299 -0.10016854852437973 0.041103512048721313 0.03572779893875122 -0.03484134376049042 0.1655409336090088 0.10653373599052429 0.050740912556648254 -0.04457631707191467 -0.08575780689716339 0.03239792585372925 0.10301569104194641 -0.09392654150724411 -0.00043360888957977295 -0.029190614819526672 0.013883158564567566 -0.07309474796056747 -0.13909612596035004 0.18128690123558044 0.0041534751653671265 -0.045308828353881836 -0.051216185092926025 0.1428590714931488 0.08943918347358704 -0.0671091303229332 -0.07467443495988846 -0.11964260786771774 -0.047917306423187256 0.15374743938446045 0.07727909088134766 -0.036094099283218384 0.06178116798400879 -0.015303969383239746 0.05779024958610535 -0.1777462661266327 -0.019876420497894287 0.08531823754310608 -0.1482464075088501 -0.0719836875796318 -0.10776772350072861 -0.09672576934099197 -0.010609343647956848 0.006243377923965454 -0.0069014281034469604 -0.08356274664402008 0.09903433918952942 -0.04189549386501312 -0.04378102719783783 0.13277480006217957 0.11434480547904968 0.1162087619304657 -0.1780383288860321 -0.011587485671043396 0.1281629204750061 -0.013820856809616089 0.01880525052547455 0.09553277492523193 0.09739765524864197 -0.13782668113708496 0.15585318207740784 -0.16680079698562622 0.06562685966491699 0.0119219571352005 0.0933758020401001 -0.0977812185883522 0.0044173747301101685 0.0497465580701828 -0.12027350068092346 -0.1236085593700409 -0.01028066873550415 -0.1072247177362442 0.09242147207260132 0.17820969223976135 -0.02440039813518524 0.17630794644355774 -0.09416630119085312 0.16425520181655884 -0.0838707834482193 0.03836703300476074 -0.07422752678394318 0.035798102617263794 -0.16715021431446075 -0.011825025081634521 0.10333183407783508 0.1040821373462677 -0.10215134173631668 -0.026463374495506287 -0.025354161858558655 0.1367795765399933 0.04136061668395996 0.148509681224823 0.17934823036193848 0.040533602237701416 -0.045119285583496094 0.00325891375541687 0.002802923321723938 0.06278075277805328 -0.014368906617164612 0.01988491415977478 -0.09573114663362503 -0.12128114700317383 0.12200760841369629 -0.09530576318502426 0.025097191333770752 0.14124146103858948 -0.08492906391620636 -0.04635860025882721 0.11177650094032288 0.10315805673599243 0.0907372534275055 0.031329184770584106 -0.024963274598121643 -0.11430139094591141 0.08747389912605286 -0.050198256969451904 -0.15598587691783905 0.04394291341304779 -0.002042129635810852 -0.10217752307653427 0.0053977370262146 -0.11555784195661545 -0.059076160192489624 0.03728108108043671 -0.047217145562171936 -0.1445772796869278 -0.17972490191459656 -0.14604371786117554 0.007771044969558716 0.18066152930259705 0.17431002855300903 0.1536552608013153 0.023989349603652954 -0.12628507614135742 0.08036339282989502 -0.0931944027543068 0.10200738906860352 0.057469263672828674 -0.026645436882972717 0.16153910756111145 -0.1517593413591385 0.038899242877960205 -0.08722110837697983 0.09500709176063538 0.11315825581550598 -0.05691102147102356 0.1449231207370758 0.0635654479265213 0.06856322288513184 -0.14517700672149658 0.11299511790275574 -0.07234624028205872 0.12298497557640076 -0.11703834682703018 -0.02061958611011505 -0.1757204681634903 -0.0517866313457489 -0.03485134243965149 -0.030678659677505493 0.130547434091568 -0.05038052797317505 0.13032153248786926 -0.049413666129112244 0.14285069704055786 0.15931859612464905 -0.15783917903900146 -0.14660155773162842 0.03652346134185791 -0.05574025213718414 -0.02125658094882965 -0.15855979919433594 0.12086635828018188 -0.11273221671581268 0.13927212357521057 -0.051137134432792664 -0.06945773959159851 -0.09630832076072693 0.12872913479804993 -0.004080832004547119 0.0178089439868927 0.07072603702545166 -0.17894916236400604 0.015257611870765686 -0.060465067625045776 0.1481240689754486 -0.17084380984306335 -0.10773137211799622 -0.08297800272703171 -0.059710316359996796 0.13599827885627747 0.11767569184303284 0.16700562834739685 -0.14086556434631348 0.10579296946525574 -0.03148522973060608 -0.08568239957094193 0.012600839138031006 0.0574689656496048 -0.11517589539289474 -0.06717054545879364 0.03041517734527588 0.09151419997215271 0.050759389996528625 0.16959848999977112 0.00426076352596283 -0.04788525402545929 0.12468412518501282 0.1178114116191864 -0.08234469592571259 0.037935346364974976 0.07375463843345642 0.07825088500976562 -0.16591130197048187 0.048756569623947144 -0.156602144241333 0.16449514031410217 -0.1626921445131302 -0.03299704194068909 0.1647866666316986 -0.057178422808647156 -0.08368286490440369 0.06875675916671753 -0.13537488877773285 -0.07880682498216629 0.16608649492263794 0.11469188332557678 0.007340192794799805 0.08370596170425415 0.05219748616218567 -0.0659172385931015 0.09475329518318176 0.11160591244697571 0.11853358149528503 -0.05798175185918808 -0.07973764836788177 -0.05756404995918274 0.15661084651947021 0.05213896930217743 0.07378488779067993 0.04686765372753143 0.013909593224525452 -0.02823720872402191 -0.03752611577510834 -0.11925554275512695 0.006489604711532593 0.031626418232917786 0.0006409287452697754 0.0615973174571991 0.0337209552526474 -0.1564018428325653 0.08160769939422607 -0.01781262457370758 -0.06759251654148102 -0.031215503811836243 -0.12413106858730316 0.057590171694755554 -0.15346559882164001 -0.1349230408668518 0.009834244847297668 0.02077805995941162 -0.15003702044487 -0.02042558789253235 -0.13307905197143555 0.04424275457859039 -0.009647026658058167 -0.15793605148792267 0.17310187220573425 -0.008015915751457214 -0.06611139327287674 0.021228060126304626 0.1782275140285492 -0.09555139392614365 0.09842732548713684 -0.18056252598762512 -0.10708050429821014 0.15362650156021118 0.1187637448310852 0.0356871634721756 0.10856041312217712 0.11396381258964539 -0.11480589210987091 -0.17730379104614258 -0.11888433247804642 0.0450371652841568 0.06362254917621613 -0.16857673227787018 0.10152032971382141 -0.02640700340270996 -0.05160343647003174 0.10624083876609802 0.16259801387786865 -0.05764705687761307 -0.03731811046600342 -0.07690780609846115 -0.02729281783103943 0.12026172876358032 0.014662206172943115 -0.06390003114938736 -0.17574751377105713 -0.09711519628763199 -0.04679282009601593 0.10987618565559387 -0.04055316746234894 0.16056618094444275 0.13155850768089294 0.16462695598602295 -0.03207932412624359 0.10658347606658936 -0.16355200111865997 0.15250426530838013 0.09660524129867554 -0.1142774298787117 -0.13083933293819427 -0.13205479085445404 0.10353103280067444 -0.002499133348464966 0.09645333886146545 -0.15103977918624878 0.15832215547561646 0.07441172003746033 -0.06739078462123871 -0.062117889523506165 0.00986279547214508 0.11527758836746216 -0.11950300633907318 0.15232187509536743 0.018316596746444702 0.04785715043544769 -0.02173730731010437 -0.09568296372890472 -0.11911242455244064 0.014373555779457092 0.02154994010925293 -0.06941686570644379 0.0979313850402832 0.09009405970573425 0.0872703492641449 0.13894903659820557 0.16515442728996277 -0.1554262489080429 0.019756242632865906 -0.049248769879341125 0.08275312185287476 -0.01171182096004486 -0.0066907405853271484 -0.13212662935256958 0.17964309453964233 0.17692908644676208 -0.005762025713920593 -0.08332277089357376 -0.03199952840805054 -0.05450373888015747 -0.113306924700737 -0.03612568974494934 0.01309959590435028 0.10444927215576172 -0.0009701251983642578 -0.02544465661048889 0.04861825704574585 0.11735564470291138 0.022223860025405884 -0.046515122056007385 0.12798276543617249 -0.0435502827167511 0.11876729130744934 0.12781807780265808 0.12425541877746582 -0.056473344564437866 0.04494620859622955 0.07166364789009094 0.08556094765663147 0.16445794701576233 0.1566283404827118 -0.11003978550434113 -0.08531694859266281 -0.07481236010789871 -0.14484083652496338 -0.015771329402923584 0.16671648621559143 0.03829824924468994 0.13926059007644653 -0.08605343848466873 -0.04283908009529114 -0.14972661435604095 -0.009267672896385193 -0.032644107937812805 -0.1360902488231659 -0.14817768335342407 0.06864261627197266 -0.024100616574287415 0.07403245568275452 0.09608098864555359 -0.007665619254112244 -0.09083926677703857 0.14109420776367188 -0.07799907773733139 -0.050565242767333984 0.07153427600860596 0.14580601453781128 0.02642609179019928 -0.1759900003671646 0.008882775902748108 0.17537134885787964 0.17704015970230103 0.017998993396759033 -0.02003130316734314 -0.18219704926013947 -0.11008259654045105 -0.11129945516586304 -0.06826835125684738 0.13993141055107117 -0.09014680236577988 0.09837350249290466 0.1522548794746399 -0.09547095745801926 -0.040596023201942444 0.11794555187225342 -0.1190137192606926 -0.09628462046384811 -0.07739389687776566 0.06037674844264984 0.010653823614120483 0.0822438895702362 0.056465983390808105 -0.1168917864561081 0.15379738807678223 -0.11919403821229935 0.13100838661193848 0.045890793204307556 -0.07067897170782089 -0.05697168409824371 -0.06873802840709686 -0.04420934617519379 -0.0903300791978836 -0.12816645205020905 -0.057572364807128906 -0.08435513079166412 0.0951978862285614 -0.001884356141090393 -0.17941609025001526 -0.08539967238903046 0.06968322396278381 -0.15875907242298126 0.14673200249671936 -0.03763611614704132 -0.005624592304229736 0.04215887188911438 -0.14095450937747955 0.17978665232658386 0.03893470764160156 0.002715170383453369 -0.058964990079402924 0.02448815107345581 0.10993820428848267 -0.08201955258846283 -0.07156720012426376 -0.11277467757463455 -0.07541687041521072 0.11628866195678711 -0.0940619632601738 -0.1725897490978241 0.008160397410392761 -0.04785619676113129 -0.018137484788894653 -0.12036865204572678 -0.17811644077301025 -0.08199271559715271 -0.17028973996639252 0.12577474117279053 0.016937315464019775 0.08176738023757935 -0.01929105818271637 -0.07438716292381287 -0.11728069931268692 -0.1707369089126587 -0.15183810889720917 0.13171041011810303 0.07909515500068665 -0.009601801633834839 -0.07905010879039764 -0.08404809981584549 -0.05937980115413666 0.11677423119544983 -0.08153536170721054 0.10552653670310974 0.17161116003990173 -0.04035697877407074 -0.1226641833782196 -0.02015790343284607 0.022526293992996216 -0.01206757128238678 0.10148465633392334 -0.017598062753677368 -0.11804404854774475 -0.0592849925160408 -0.1394892930984497 0.05413275957107544 0.09198576211929321 -0.03648516535758972 -0.008105456829071045 -0.009728416800498962 -0.17264461517333984 0.10230055451393127 -0.04452650249004364 0.10958456993103027 0.10096609592437744 0.0594632625579834 -0.14759747684001923 0.1175987720489502 -0.036546558141708374 0.12096190452575684 0.10493025183677673 -0.03267340362071991 0.05712124705314636 0.008806586265563965 0.05959737300872803 -0.060533344745635986 -0.07633613795042038 0.09975337982177734 -0.1077311560511589 0.057476311922073364 -0.15842507779598236 0.13948360085487366 0.14736750721931458 -0.021282821893692017 -0.08859033137559891 0.15757906436920166 -0.1089506670832634 -0.11095912009477615 0.11642500758171082 0.041498973965644836 -0.008991003036499023 0.10793009400367737 -0.08447679132223129 0.06792694330215454 -0.14542385935783386 0.12614324688911438 0.16881322860717773 -0.08164426684379578 -0.10903026163578033 -0.16668999195098877 0.06570971012115479 -0.015784427523612976 -0.1122063398361206 0.11472973227500916 -0.11958415061235428 -0.0950109139084816 0.019427314400672913 0.06349432468414307 -0.1337287425994873 0.13873139023780823 -0.11846932768821716 -0.13108417391777039 0.10436785221099854 -0.04802098870277405 0.10224637389183044 -0.026802435517311096 0.15097910165786743 0.029804274439811707 0.10640871524810791 0.08838170766830444 -0.1326276957988739 -0.0753326416015625 0.054224371910095215 0.04826025664806366 0.11750227212905884 -0.09672465920448303 0.11322647333145142 -0.12227986007928848 0.14682477712631226 0.14539217948913574 0.015052556991577148 -0.05048812925815582 -0.057736270129680634 -0.11769372224807739 -0.18223093450069427 0.16883480548858643 0.026179149746894836 -0.06532404571771622 -0.17122022807598114 0.001892581582069397 0.1660138964653015 0.11501654982566833 0.08933159708976746 -0.05758720636367798 -0.01592332124710083 0.15675324201583862 0.044943228363990784 0.18074387311935425 -0.16562698781490326 0.051605939865112305 -0.12316200137138367 -0.1793471723794937 -0.14727872610092163 -0.14153237640857697 -0.04947537183761597 0.08852645754814148 -0.06663239747285843 0.10001382231712341 -0.12032198905944824 0.06205788254737854 0.021282851696014404 -0.05439119040966034 -0.10894624888896942 -0.016807615756988525 0.10797673463821411 0.023108527064323425 0.12298044562339783 -0.007673159241676331 -0.16684240102767944 0.06377115845680237 0.13736283779144287 -0.09571793675422668 -0.12342293560504913 -0.049980103969573975 -0.026369810104370117 0.1321851909160614 -0.11284079402685165 -0.16355374455451965 -0.1326199471950531 0.12182873487472534 0.17235425114631653 -0.10156452655792236 0.08184337615966797 0.0826600193977356 0.10424283146858215 0.10345950722694397 -0.11085081845521927 -0.11416099220514297 -0.0814787968993187 0.10183149576187134 0.033715516328811646 0.09792289137840271 -0.09428273886442184 0.012176722288131714 -0.05121712386608124 -0.0027242302894592285 0.11450448632240295 -0.15686991810798645 -0.0012385398149490356 -0.09650677442550659 0.13501301407814026 -0.10482931137084961 -0.1627158224582672 0.01416979730129242 0.16939806938171387 0.028269067406654358 0.09512007236480713 -0.02499060332775116 -0.11620796471834183 0.1204279363155365 -0.041971564292907715 0.14639300107955933 -0.05155552923679352 0.16485533118247986 -0.05277985334396362 0.16078856587409973 0.06239031255245209 -0.019107148051261902 -0.14938808977603912 0.019509434700012207 -0.06829211860895157 -0.12961754202842712 -0.16974718868732452 0.11216428875923157 0.17350512742996216 -0.024664118885993958 -0.08573038876056671 0.05507779121398926 0.06018853187561035 -0.12080083042383194 -0.07746908813714981 -0.02255670726299286 -0.14898179471492767 -0.1339271515607834 0.018312856554985046 0.08206838369369507 0.12268078327178955 -0.04225240647792816 -0.1727011352777481 -0.06231135129928589 0.018023774027824402 -0.08823755383491516 0.10506290197372437 0.06779298186302185 -0.03836396336555481 0.05659946799278259 0.03406141698360443 -0.026732444763183594 -0.11683761328458786 0.1386667788028717 -0.007279753684997559 -0.0736348107457161 -0.15331000089645386 0.041028738021850586 -0.016338035464286804 0.06062324345111847 -0.1614612340927124 -0.12127135694026947 0.10161751508712769 -0.08710993081331253 0.061353400349617004 -0.07303594052791595 -0.113289013504982 -0.1738070845603943 -0.13592180609703064 0.1564520001411438 0.12123548984527588 -0.15857332944869995 0.17669573426246643 0.03130708634853363 -0.06941989064216614 -0.005252048373222351 0.11500227451324463 -0.038113102316856384 0.1175394058227539 0.07315418124198914 0.06273028254508972 0.08558785915374756 -0.013696923851966858 0.013706192374229431 0.018980085849761963 -0.15819032490253448 -0.1110309436917305 0.12709292769432068 -0.05432787537574768 0.03536504507064819 -0.04318450391292572 0.03479185700416565 -0.16186241805553436 -0.12438085675239563 0.09094363451004028 -0.09676411747932434 -0.1457001268863678 -0.00521184504032135 0.03306300938129425 0.110266774892807 0.08110314607620239 0.00895392894744873 -0.015769973397254944 -0.15712463855743408 0.012023910880088806 -0.17827634513378143 -0.17564421892166138 -0.04737870395183563 -0.17408683896064758 0.15825536847114563 -0.10865288972854614 -0.1577416956424713 -0.047896698117256165 0.1825329065322876 -0.030918166041374207 0.11670133471488953 0.10582989454269409 -0.09716586768627167 -0.17526108026504517 -0.11547941714525223 -0.18003802001476288 0.05531597137451172 -0.11395098268985748 -0.10802445560693741 0.10980314016342163 0.09551987051963806 -0.17862971127033234 0.10451528429985046 -0.08935648947954178 0.14332377910614014 -0.1082078218460083 -0.04032178223133087 0.04825019836425781 -0.0674605593085289 -0.11065080761909485 0.022231996059417725 -0.07471629232168198 0.17184248566627502 -0.14544296264648438 -0.11810633540153503 -0.11172758787870407 0.031001001596450806 -0.10565164685249329 0.11890873312950134 -0.00019688904285430908 0.04671226441860199 -0.09593064337968826 -0.09784076362848282 -0.03488759696483612 0.07361778616905212 -0.1315198689699173 -0.10436392575502396 0.06343956291675568 0.13564527034759521 -0.06021418422460556 0.06286758184432983 0.05295179784297943 -0.100137859582901 0.09111723303794861 -0.0017375946044921875 -0.15582528710365295 -0.04205821454524994 -0.003827497363090515 -0.14616043865680695 -0.16005484759807587 0.030507639050483704 0.14949765801429749 0.06948131322860718 0.02480091154575348 -0.02944764494895935 -0.1495739221572876 -0.11196643114089966 0.1408592164516449 -0.07763545960187912 0.14534610509872437 -0.1761457622051239 0.09637978672981262 -0.02302953600883484 -0.13811741769313812 0.052151843905448914 0.05836760997772217 0.17152076959609985 -0.1296922117471695 0.1576741337776184 -0.16733071208000183 -0.15125131607055664 -0.061755768954753876 -0.08942025899887085 -0.10646792501211166 -0.17523027956485748 0.17524683475494385 0.005979016423225403 0.03828921914100647 0.007086560130119324 0.004892796277999878 -0.1502084583044052 0.09707185626029968 0.016984805464744568 0.008668839931488037 0.11972463130950928 0.05237764120101929 0.06803515553474426 0.0736735463142395 -0.1803124099969864 -0.17526963353157043 -0.1696971356868744 0.08767196536064148 -0.18026506900787354 0.17025509476661682 0.08584538102149963 -0.09258582442998886 -0.10216958075761795 0.017149344086647034 -0.09090575575828552 0.1535920798778534 0.06886833906173706 -0.1358129382133484 -0.10027205944061279 0.16625529527664185 -0.13979104161262512 0.08884832262992859 0.1408103108406067 0.14008134603500366 0.045561954379081726 -0.061202533543109894 -0.00744512677192688 0.06576675176620483 0.0805724561214447 0.09668499231338501 -0.06378211081027985 -0.16866494715213776 0.10096219182014465 -0.09130726754665375 0.15709760785102844 -0.020055457949638367 0.11747199296951294 -0.16823115944862366 0.07957971096038818 -0.17404474318027496 -0.07989329099655151 -0.020524606108665466 0.03432726860046387 0.15403971076011658 -0.07500884681940079 0.015621393918991089 0.1298777163028717 0.08260422945022583 0.17718729376792908 0.0009424537420272827 0.000579833984375 0.04279389977455139 -0.1413756012916565 0.058190152049064636 0.12319979071617126 -0.13001790642738342 -0.04313939809799194 0.09920454025268555 0.1529976725578308 0.059161871671676636 0.1589374542236328 0.011527389287948608 -0.17415137588977814 0.012511536478996277 -0.1117871105670929 -0.07311681658029556 -0.021462857723236084 0.046469077467918396 0.11488527059555054 0.03734731674194336 0.1607016623020172 0.045397013425827026 0.08528611063957214 -0.09165264666080475 -0.16336752474308014 -0.07477279007434845 0.013468369841575623 0.04848460853099823 0.13052019476890564 0.01977306604385376 0.15768039226531982 -0.09551746398210526 0.1681526005268097 0.13976261019706726 0.15284618735313416 -0.12484654784202576 0.1109815239906311 0.021002933382987976 0.10135278105735779 -0.17723366618156433 -0.023671388626098633 0.0857151448726654 -0.08454572409391403 0.09220877289772034 -0.05137702822685242 0.02954508364200592 0.13954055309295654 -0.1716451793909073 0.12140917778015137 0.1614009141921997 0.10350444912910461 0.1070641577243805 0.10832414031028748 -0.1573944240808487 0.13177412748336792 -0.05474799871444702 -0.12829327583312988 -0.08689912408590317 0.057824358344078064 0.009606391191482544 -0.08905539661645889 0.13864272832870483 0.033086687326431274 0.14690884947776794
-0.11004592478275299 -0.030042588710784912 -0.06866592168807983 -0.006097182631492615 0.100827157497406 -0.1546349972486496 0.04440334439277649 0.12487852573394775 -0.06448698043823242 0.13053768873214722 0.060352593660354614 0.0901125967502594 -0.10449487715959549 -0.16512106359004974 0.04459597170352936 -0.03434053063392639 0.1092182993888855 -0.020220935344696045 -0.14000572264194489 -0.17443107068538666 -0.16431371867656708 0.013811886310577393 0.015898779034614563 0.10665053129196167 0.1794426441192627 -0.09675610810518265 0.035606130957603455 0.1286536157131195 0.0012226253747940063 -0.049499377608299255 -0.15350355207920074 0.06587843596935272 0.05105963349342346 0.003449052572250366 0.08803439140319824 -0.07069674879312515 -0.06940411031246185 0.1663835346698761 0.010982125997543335 -0.09750060737133026
0.08458909392356873 0.027897626161575317 0.009866133332252502 0.019913479685783386 -0.14108377695083618 -0.1082000732421875 0.022134929895401 -0.10950718820095062 0.0779864639043808 -0.10017107427120209 0.07600580155849457 -0.10445341467857361 0.040304094552993774 0.11018998920917511 0.05522222816944122 -0.12835121154785156 0.026355892419815063 -0.028054222464561462 -0.09827075898647308 -0.13088679313659668 0.15025325119495392 0.01001720130443573 -0.11081023514270782 -0.14937177300453186 0.06370824575424194 -0.05666740983724594 -0.0849490612745285 -0.009842678904533386 0.05561760067939758 -0.0011977404356002808 -0.15036983788013458 -0.1265372335910797 0.12277303636074066 0.13783366978168488 -0.0818445235490799 0.0497472882270813 -0.10019290447235107 0.11524279415607452 0.10468582808971405 -0.04145308583974838
0.013357594609260559
