-0.10154592990875244 -0.02823197841644287 -0.18713277578353882 0.32962316274642944 -0.35223451256752014 0.6677630543708801 0.07527333498001099 0.5412997603416443 0.3185928463935852 -0.3123551905155182 0.38531070947647095 -0.22967392206192017 0.4733179211616516 -0.6292880773544312 0.5421862006187439 -0.4878033995628357 -0.14789330959320068 -0.5943930149078369 -0.2027382254600525 0.28606194257736206 -0.48440417647361755 0.12313312292098999 -0.5628575086593628 0.43587177991867065 -0.3514552414417267 0.3309653401374817 0.43261831998825073 -0.010899245738983154 -0.03890746831893921 0.3967286944389343 0.24102896451950073 0.10371977090835571 0.5137986540794373 0.042517244815826416 0.040026187896728516 0.5195024609565735 0.2739405035972595 -0.12798798084259033 0.1490744948387146 0.015854299068450928
-0.30643153190612793 0.6909368634223938 0.673307478427887 -0.3106144368648529 -0.3541877865791321 0.5102822184562683 0.030422747135162354 -0.07670462131500244 -0.49354228377342224 -0.1313961148262024 -0.6607614159584045 -0.5964851379394531 -0.6115587949752808 -0.31450533866882324 -0.12311631441116333 0.492320716381073
0.6215494275093079 0.3990798592567444 0.054157793521881104 -0.6875044107437134 -0.12059199810028076 -0.16021060943603516 -0.5657902956008911 0.5354180932044983
-0.5872489213943481 0.326244056224823 -0.6992031335830688 -0.06559795141220093 -0.3427320122718811 -0.3179166316986084 -0.0676506757736206 0.44787949323654175
