-0.2880280911922455 -0.048652052879333496 0.1765877604484558 0.12432384490966797 0.35041743516921997 -0.0256350040435791 0.6730844378471375 0.08445209264755249 -0.6098752021789551 -0.47620999813079834 -0.4103616774082184 -0.3423668444156647 -0.12759876251220703 -0.2547140419483185 -0.534880518913269 0.5927407145500183 0.3257107138633728 0.1982833743095398 -0.06283032894134521 0.6118125319480896 0.33365529775619507 0.1445642113685608 -0.019587218761444092 -0.41465941071510315 0.6193690896034241 0.6167739033699036 -0.02187734842300415 0.4773251414299011 0.3954978585243225 0.1661394238471985 0.038645386695861816 0.4032585024833679 -0.1376478672027588 0.16338658332824707 0.6287661194801331 -0.46966391801834106 0.4241732954978943 0.48314136266708374 -0.3275136351585388 -0.18366408348083496
0.5614860653877258 0.14827793836593628 0.06392151117324829 0.4248966574668884 -0.23533391952514648 -0.13159912824630737 0.640159547328949 0.5429272055625916 -0.4054352343082428 -0.5014755129814148 -0.18612587451934814 -0.12413668632507324 0.42561596632003784 0.4090142846107483 0.012735843658447266 -0.26683488488197327
0.21348488330841064 -0.5923355221748352 -0.022955477237701416 -0.38540923595428467 -0.6989312767982483 -0.458049476146698 0.37337905168533325 0.38608938455581665
-0.5842934846878052 -0.48786425590515137 -0.3533273935317993 -0.49891626834869385 -0.6963844299316406 0.6998705267906189 -0.022593259811401367 0.06594234704971313
-0.37736180424690247 0.2827243208885193 0.2346540093421936 -0.45414474606513977
0.28582847118377686 -0.703645646572113
0.024378418922424316 0.5843127369880676 -0.4227488040924072 0.37143474817276 0.1258859634399414 -0.31176915764808655
0.7003878951072693 -0.4168619215488434 -0.12548929452896118
0.05845433473587036 0.20511853694915771 -0.1506369709968567 -0.24024063348770142 -0.0946262776851654 0.4832099676132202 0.40428996086120605 -0.4268891513347626 -0.523046612739563
-0.1314295530319214 -0.2793178856372833 0.5691564083099365
-0.41297903656959534 0.564693808555603 -0.19848576188087463
-0.484478622674942
