-0.08979648351669312 0.18354684114456177 -0.417731910943985 0.3516383767127991 -0.6797921657562256 0.08411628007888794 -0.3413630723953247 -0.39312395453453064 -0.45121657848358154 -0.6351006627082825 -0.4338730573654175 0.07457125186920166 -0.5716063976287842 -0.5633126497268677 0.10035723447799683 0.5375089049339294 0.04658305644989014 0.6423481106758118 -0.56878662109375 0.6566469073295593 -0.3143938183784485 -0.06733322143554688 -0.38977673649787903 -0.16450047492980957 -0.22606432437896729 -0.698996901512146 -0.10078489780426025 0.42926114797592163 -0.054962873458862305 -0.2858980894088745 -0.645214855670929 -0.3277089297771454 -0.547724723815918 -0.3618246912956238 -0.5208478569984436 0.15915536880493164 -0.5680116415023804 -0.5182743072509766 0.5902988314628601 -0.3537730574607849
-0.6387841701507568 -0.006117045879364014 -0.3809807002544403 -0.6486759185791016 -0.3275209665298462 0.690851628780365 -0.35723447799682617 -0.5647619962692261 0.2530198097229004 0.6114246249198914 0.43341392278671265 0.3049408793449402 -0.38747552037239075 0.14961868524551392 0.5663507580757141 0.6855567097663879
0.10618746280670166 0.5900880694389343 0.38764530420303345 -0.29834437370300293 -0.2071869969367981 0.09490448236465454 0.5310412049293518 0.10458999872207642
0.3460918068885803 0.16551554203033447 -0.14458155632019043 -0.4035409688949585 0.6669648289680481 -0.30614224076271057 0.3302331566810608 -0.16643792390823364
-0.6986677050590515 -0.4084194004535675 0.5429460406303406 -0.4956827759742737
-0.1609865427017212 0.6515759825706482
0.5294129252433777 -0.27922388911247253 -0.061563313007354736 -0.6410866975784302 0.5911311507225037 0.31342262029647827
-0.6210256218910217 -0.6625115275382996 -0.598709225654602
0.1936095952987671 0.030802607536315918 -0.23206132650375366 -0.42066383361816406 0.3103625774383545 0.17399007081985474 -0.4883999526500702 0.08984601497650146 0.32641738653182983
-0.4413629472255707 0.2639710307121277 -0.4788115322589874
-0.4202724099159241 0.5307432413101196 0.47382962703704834
-0.2667537331581116
