-0.11375903338193893 -0.21377289295196533 -0.18231835961341858 0.09870050847530365 0.06132324039936066 0.020221814513206482 -0.12683403491973877 -0.016275793313980103 -0.09976117312908173 0.002004086971282959 -0.22790099680423737 -0.04955311119556427 0.2199341505765915 0.20825310051441193 0.18650735914707184 0.03289268910884857 -0.05858802795410156 -0.05621108412742615 -0.20006050169467926 -0.16236263513565063 0.10482783615589142 0.039923593401908875 -0.19233907759189606 0.12255828082561493 0.14937983453273773 -0.1977950781583786 -0.029915109276771545 -0.12658797204494476 -0.19553035497665405 -0.23352088034152985 -0.0175631046295166 -0.005798280239105225 0.17792199552059174 -0.02702750265598297 -0.006518185138702393 -0.11226408928632736 -0.14108425378799438 -0.07530394196510315 0.15882329642772675 -0.1243717223405838 -0.20004189014434814 -0.17548610270023346 0.13831494748592377 0.1562623828649521 0.16255663335323334 -0.0015604794025421143 -0.075773686170578 0.2049696296453476 0.15563912689685822 -0.04316045343875885 0.21114982664585114 0.09100760519504547 -0.069735586643219 0.16293035447597504
0.21316199004650116 0.08581776916980743 0.16346405446529388
