0.006120502948760986 0.58868807554245 0.47786587476730347 -0.3750469982624054 -0.3609848916530609 0.18797200918197632 -0.24161168932914734 0.35061925649642944 -0.5671382546424866 0.22216522693634033 -0.596804141998291 -0.43183863162994385 -0.11092418432235718 -0.23589161038398743 0.20908808708190918 0.5793015360832214 -0.5192920565605164 -0.03571361303329468 0.30832093954086304 0.593176543712616 0.08980214595794678 -0.5247843265533447 0.4097602963447571 0.3529878258705139 0.17900222539901733 -0.018431425094604492 0.25088930130004883 -0.7022832036018372 -0.31567448377609253 -0.32554545998573303 0.19437694549560547 -0.6590446829795837 -0.008566617965698242 -0.07825273275375366 0.34637540578842163 0.0220910906791687 0.17717933654785156 0.39904993772506714 -0.5870659947395325 -0.41377997398376465
-0.17464417219161987 0.6422426104545593 0.13034892082214355 -0.5099552869796753 -0.18850117921829224 -0.4228493869304657 -0.3094363510608673 -0.3060592710971832 0.6203935742378235 -0.4770715534687042 -0.22506138682365417 -0.2938790023326874 0.5540475249290466 0.4202994704246521 0.3139541745185852 -0.48293399810791016
-0.6976993680000305 -0.5980833172798157 -0.5149607062339783 -0.5514518022537231 -0.11836445331573486 0.6712960600852966 0.47551971673965454 0.608673632144928
-0.34166309237480164 -0.5954591035842896 0.3686365485191345 -0.30699586868286133 0.6930660605430603 -0.6017776727676392 -0.22262883186340332 0.6168732047080994
