-0.6476849317550659 -0.6868085861206055 0.6698222756385803 0.13740402460098267 0.5530920624732971 0.47017723321914673 -0.3630758821964264 0.5295951962471008 0.06862318515777588 0.5018548369407654 0.42856723070144653 0.10502481460571289 -0.2692575752735138 -0.002037227153778076 0.2959858775138855 -0.018081307411193848 -0.2720085084438324 0.22834497690200806 0.5930847525596619 -0.26214489340782166 0.5676631331443787 0.17423862218856812 -0.4480966031551361 0.6387887597084045 -0.004933953285217285 0.12681680917739868 -0.513608992099762 0.3009248375892639 -0.6335504651069641 0.3075452446937561 -0.0803559422492981 0.09444934129714966 -0.5787960290908813 0.2589356303215027 -0.23875346779823303 0.4524713158607483 0.520538866519928 -0.33304068446159363 0.4256041646003723 -0.5279690027236938
0.051358819007873535 0.4178928732872009 0.6051065325737 0.10862433910369873 0.5352609753608704 -0.32359766960144043 -0.6138555407524109 0.01880788803100586 0.6815145611763 0.4900277256965637 0.5828837752342224 0.039848387241363525 0.2686921954154968 0.5343692898750305 0.5262327790260315 -0.21509727835655212
0.07504111528396606 -0.3145624101161957 -0.09712505340576172 -0.12853962182998657 -0.021729886531829834 0.04755580425262451 -0.6331597566604614 0.27186185121536255
0.3452518582344055 0.1961638331413269 0.08283406496047974 0.3456878066062927 -0.17526233196258545 -0.11754906177520752 0.13158762454986572 -0.05921739339828491
-0.10790932178497314 0.5866218209266663 0.36539381742477417 0.02812105417251587
-0.3487297594547272 -0.06777477264404297
-0.5390780568122864 0.5069877505302429 0.03812074661254883 -0.2013031244277954 0.07027167081832886 -0.08725452423095703
-0.5142040252685547 0.25564610958099365 0.664622962474823
-0.4753535985946655 -0.16826042532920837 0.5572924613952637 0.2591506242752075 0.4072340726852417 -0.5486255884170532 0.5625424385070801 0.2009737491607666 0.23660540580749512
0.08626502752304077 0.4839240312576294 0.4833865165710449
0.0711330771446228 0.10467541217803955 -0.1849903166294098
-0.28338155150413513
