-0.25173401832580566 -0.16396135091781616 0.2251502275466919 -0.12661343812942505 -0.6654602885246277 -0.23377424478530884 0.468483030796051 -0.37414902448654175 0.5912072062492371 -0.5553172826766968 0.2305234670639038 0.6401311755180359 -0.1448155641555786 0.6895620226860046 -0.46963489055633545 -0.19402462244033813 0.3287035822868347 0.48364633321762085 -0.2712312340736389 -0.317839652299881 -0.16977155208587646 0.18037694692611694 0.6946122050285339 -0.6078459024429321 -0.4751659035682678 0.4959610104560852 -0.5795366168022156 -0.3343345820903778 -0.6038504242897034 -0.015675663948059082 -0.4037802815437317 0.10304945707321167 0.22007280588150024 -0.04588031768798828 -0.6784270405769348 -0.3199768364429474 -0.6260272860527039 -0.09618115425109863 0.3831408619880676 0.20570403337478638 -0.01140373945236206 -0.22731801867485046 -0.6710242629051208 -0.6908727288246155 -0.0402446985244751 -0.6527218222618103 -0.5796571969985962 0.19867485761642456 -0.507238507270813 -0.036528587341308594 -0.22194522619247437 0.3512802720069885 -0.13768601417541504 0.6057953238487244 0.5859091877937317 0.6683737635612488 -0.42981818318367004 0.4795086979866028 -0.6381587982177734 -0.5105081796646118 0.1562103033065796 0.506034791469574 -0.4201818108558655 0.3237859606742859 -0.4234124720096588 0.09056568145751953 0.017853379249572754 0.23532354831695557 0.23396843671798706 -0.6656582951545715 -0.16516143083572388 -0.482287734746933 -0.2890273332595825 -0.3772958815097809 -0.1560356616973877 0.3098199963569641 -0.16280466318130493 -0.120974600315094 0.3179669976234436 0.03658735752105713 0.04641294479370117 -0.06260031461715698 0.39100462198257446 -0.5751230716705322 -0.16796624660491943 -0.6438590288162231 0.4917377829551697 0.4299796223640442 0.6822754740715027 0.13428670167922974 -0.17190712690353394 0.7001960873603821 -0.08783024549484253 0.50797039270401 -0.4475618302822113 0.6299483180046082 -0.30476030707359314 0.043806493282318115 0.3144370913505554 -0.26066654920578003 0.6368414759635925 -0.2023090124130249 -0.08941781520843506 -0.17254489660263062 0.15112024545669556 -0.430908203125 0.5175794959068298 0.2328174114227295 -0.5257596969604492 -0.6752176284790039 0.06863564252853394 -0.43142011761665344 -0.010100901126861572 0.5836083292961121 0.2846437692642212 -0.47565507888793945 0.23074966669082642 -0.699680507183075 0.5916605591773987 0.6127275824546814 -0.6000200510025024 -0.4676976799964905 0.13181465864181519 0.6774733662605286 0.5106874108314514 0.05963820219039917 0.6122410893440247 0.4227883219718933 0.6935353875160217 -0.6253501176834106 0.694149911403656 -0.6801181435585022 -0.6631826758384705 -0.03899586200714111 -0.5693989992141724 0.031809091567993164 -0.4103633761405945 -0.6688337326049805 0.5912778973579407 -0.4948848485946655 -0.10339677333831787 0.3646083474159241 0.6194184422492981 -0.17017340660095215 0.4271915555000305 -0.15238529443740845 0.33092910051345825 0.4173709750175476 -0.21429598331451416 0.2010686993598938 -0.2883553206920624 -0.5172970294952393 -0.6235096454620361 -0.46614664793014526 0.5394179224967957 0.6053977608680725 -0.09838473796844482 -0.3940332531929016 -0.4907856285572052 0.23823165893554688 0.36479276418685913 -0.4118095934391022 0.45728904008865356 0.07499098777770996 0.24654394388198853 0.25471031665802 0.3126559853553772 -0.16871947050094604 0.34343332052230835 -0.7062737941741943 0.5823175311088562 -0.46245190501213074 -0.3370211124420166 0.2623598575592041 -0.3747730553150177 0.39739352464675903 0.3068910241127014 0.6513546109199524 -0.6307418942451477 -0.197492778301239 0.16187506914138794 0.3650203347206116 0.5513034462928772 0.6440379023551941 -0.1653079390525818 0.0042705535888671875 -0.24917232990264893 -0.5462837219238281 0.32680386304855347 -0.3525288701057434 -0.4015102684497833 -0.6673475503921509 0.13668137788772583 -0.46073147654533386 0.31431156396865845 0.301482617855072 0.5279638171195984 -0.5940797924995422 -0.23180556297302246 0.6758368611335754
0.6749969124794006 -0.0800790786743164 0.6951170563697815 -0.5671906471252441 0.3460685610771179 -0.10235017538070679 0.40772897005081177 0.33883005380630493 0.36408668756484985 -0.02706587314605713 -0.7027504444122314 0.0657464861869812 0.38753455877304077 -0.001335740089416504 0.19108855724334717 -0.6842360496520996 0.2429836392402649 0.14460957050323486 0.04419428110122681 0.15951597690582275 0.42871803045272827 0.5954665541648865 -0.16525769233703613 0.6742148995399475 -0.38381844758987427 0.3066527247428894 0.5245173573493958 -0.2735360860824585 -0.2986527383327484 0.5581373572349548 0.599986732006073 0.3329545855522156 0.25481748580932617 -0.13542288541793823 -0.2291874885559082 -0.12104201316833496 -0.15599417686462402 0.09717792272567749 -0.42322051525115967 0.4396147131919861 -0.602756679058075 0.024359166622161865 -0.5009275078773499 0.5781472325325012 0.3693295121192932 0.04203563928604126 -0.5295097231864929 -0.4833921492099762 -0.4987003207206726 -0.16862702369689941 -0.5594156384468079 0.09641236066818237 0.015996217727661133 -0.41901788115501404 -0.27734294533729553 -0.11426544189453125 0.28006410598754883 -0.6081882119178772 0.13775646686553955 -0.45357823371887207 0.0709415078163147 0.5960717797279358 -0.3778173327445984 0.651872456073761 0.5725210309028625 -0.6761617660522461 0.08620566129684448 -0.040437281131744385 -0.16299182176589966 -0.12858480215072632 -0.60286545753479 -0.017645180225372314 0.31049293279647827 0.10046088695526123 0.17458540201187134 0.3403472304344177 0.034771084785461426 0.3075985312461853 -0.16208457946777344 0.6480544209480286 0.5786975026130676 0.629978358745575 -0.6627923846244812 -0.6009948253631592 -0.6179419755935669 -0.12854570150375366 0.313937246799469 -0.6146891713142395 0.031867921352386475 0.3897861838340759 -0.10058259963989258 0.3389508128166199 -0.426445335149765 0.19315248727798462 0.07091504335403442 0.260212779045105 -0.4839373528957367 0.1650078296661377 -0.6698909997940063 0.46539801359176636
-0.09108870476484299 -0.027611151337623596 0.006071567535400391 -0.07329557090997696 -0.008931651711463928 -0.06367379426956177 0.05401571840047836 -0.06278476864099503 -0.07571505010128021 0.0821041539311409 -0.07661928236484528 0.04167080670595169 0.020756147801876068 0.07415569573640823 -0.0863974466919899 0.07495983690023422 0.009909771382808685 -0.02700062096118927 -0.012077316641807556 0.061288170516490936 -0.01358022540807724 -0.009983323514461517 -0.09078489989042282 -0.04158029705286026 -0.07316620647907257 0.02173539251089096 0.07249554246664047 0.09324950724840164 0.035647936165332794 -0.021826885640621185 -0.0161195769906044 -0.06674060225486755 -0.05526302009820938 -0.015460669994354248 -0.07888711988925934 -0.05387013033032417 -0.09620367735624313 0.03128010779619217 0.09188195317983627 -0.09080903977155685 -0.03318487107753754 -0.004390284419059753 -0.06711683422327042 0.050682343542575836 0.01764601469039917 0.09201698750257492 0.027165167033672333 -0.020803555846214294 -0.00872262567281723 0.04228036850690842 0.001734018325805664 -0.06889654695987701 -0.01550920307636261 0.07083136588335037 0.07455363124608994 0.029051877558231354 0.00896475464105606 0.08876634389162064 -0.04357702657580376 -0.01634405553340912 0.08083916455507278 0.047282494604587555 0.09602450579404831 -0.03857903555035591 0.0552963986992836 0.030404411256313324 0.05368942767381668 0.011250928044319153 -0.019640587270259857 -0.09673895686864853 0.05633605271577835 -0.0538356676697731 -0.04362110048532486 0.047749556601047516 0.019211336970329285 0.06082499772310257 0.0978938564658165 0.026275865733623505 -0.08252056688070297 0.02302100509405136 -0.0845637321472168 0.09656143933534622 0.06918350607156754 -0.056883275508880615 0.08522362262010574 0.029115669429302216 -0.04149976000189781 -0.08018963038921356 0.08570360392332077 0.01952977478504181 0.05156182497739792 0.03970355540513992 -0.0690077692270279 -0.03738708794116974 0.052042342722415924 0.09250036627054214 0.08958727866411209 0.08970309048891068 -0.02812119573354721 0.09682560712099075 -0.07287205755710602 -0.08534922450780869 0.03715405613183975 -0.009866580367088318 -0.07743825018405914 -0.006146274507045746 -0.018540263175964355 -0.006693385541439056 0.026454277336597443 -0.031886592507362366 0.06049054116010666 0.09374731034040451 0.012303948402404785 0.0745173916220665 -0.01613651216030121 -0.020872846245765686 0.01551034301519394 0.012311674654483795 -0.029833950102329254 0.04733056575059891 -0.06717920303344727 -0.08966734260320663 -0.01103578507900238 0.016010761260986328 0.08811338990926743 -0.03141796588897705 -0.045183420181274414 -0.07216030359268188 0.015144303441047668 -0.029780611395835876 -0.052461326122283936 0.07054372876882553 -0.03248120844364166 0.005229935050010681 0.045656196773052216 0.0721793845295906 -0.04145533964037895 -0.07413049042224884 -0.06483642011880875 -0.08375044167041779 0.08571722358465195 -0.058612026274204254 0.05698413401842117 -0.010168097913265228 0.05241278558969498 0.03015761822462082 0.02110344171524048 0.02697516232728958 -0.009612880647182465 0.022524096071720123 0.07145201414823532 -0.057393040508031845 0.007897928357124329 -0.07747749239206314 -0.08637931197881699 0.05192006379365921 0.033463649451732635 0.010771974921226501 -0.02765814960002899 0.0661921426653862 -0.07269693911075592 0.06025346368551254 0.09080096334218979 0.0152808278799057 -0.049802254885435104 0.09497370570898056 0.03412122279405594 -0.0791984423995018 0.030934520065784454 -0.04571300745010376 -0.02856522798538208 -0.01721881330013275 -0.046646036207675934 -0.0960647389292717 0.0915866568684578 -0.06098831817507744 0.08029089123010635 0.026766814291477203 -0.08952631056308746 0.06289020925760269 -0.019156016409397125 0.03305093199014664 0.028672613203525543 0.026271425187587738 -0.01785127818584442 0.03436950594186783 -0.035954199731349945 -0.06604961305856705 -0.07336542755365372 -0.0315348356962204 -0.05276554822921753 -0.07260747998952866 0.08160874992609024 0.07467503100633621 0.04849671572446823 0.07716051489114761 0.08456391841173172 0.09428543597459793 -0.08977460861206055 -0.06018568202853203 0.008938968181610107 -0.045218683779239655 0.04708271473646164 -0.07670191675424576 -0.030335724353790283 0.03689504414796829 0.06963784247636795 0.050572462379932404 0.05795545130968094 -0.08265701681375504 -0.038115810602903366 0.06348041445016861 0.030797235667705536 0.05208975821733475 0.09042688459157944 -0.015041783452033997 0.002383008599281311 0.09817153960466385 -0.01590520143508911 0.06620288640260696 -0.022973522543907166 0.0024405717849731445 -0.07093242555856705 -0.01920647919178009 -0.009277261793613434 -0.0005019679665565491 0.018369518220424652 0.03907022625207901 -0.004488646984100342 0.039635635912418365 0.06491035968065262 0.03360820561647415 0.05236054211854935 -0.023253537714481354 -0.0005140453577041626 -0.055044569075107574 -0.016544021666049957 -0.03721415996551514 -0.031206808984279633 -0.02846761792898178 -0.09133002907037735 -0.010686829686164856 0.042044468224048615 0.07337845116853714 -0.0369807630777359 -0.0377894751727581 0.0234702005982399 0.017619192600250244 -0.08715106546878815 0.015523172914981842 -0.02857891470193863 0.06452476233243942 -0.03425668179988861 0.07076073437929153 0.0984969213604927 -0.057953596115112305 0.0429723784327507 0.05712787061929703 -0.007200554013252258 -0.09385466575622559 -0.07203216850757599 -0.002904631197452545 0.054302506148815155 -0.02339005470275879 -0.08400577306747437 0.002454712986946106 0.024805262684822083 -0.07634882628917694 -0.07517419010400772 0.08951633423566818 0.046127088367938995 0.05539650470018387 0.07504463940858841 0.03533481806516647 -0.07229506969451904 0.09393150359392166 -0.027728810906410217 -0.05531350523233414 -0.0441707968711853 0.009656861424446106 -0.023536644876003265 -0.059459783136844635 -0.012866809964179993 -0.01521068811416626 0.02595742791891098 -0.07350216060876846 -0.09614085406064987 0.09999997168779373 -0.09779714792966843 0.05201428383588791 -0.019916638731956482 0.0018290653824806213 0.09411496669054031 -0.013298369944095612 -0.04157381132245064 0.03224513679742813 -0.06001173332333565 -0.07175332307815552 -0.040913451462984085 0.09036502987146378 0.042348526418209076 -0.06351616978645325 -0.055346738547086716 -0.06905601173639297 0.04749850183725357 -0.06332595646381378 -0.01412886381149292 -0.06606675684452057 -0.0702100396156311 -0.05947064235806465 -0.08839937299489975 0.02870943397283554 -0.026691779494285583 -0.030906155705451965 -0.09163341671228409 -0.03950871154665947 0.01484699547290802 -0.01907338947057724 0.05216924101114273 -0.053765930235385895 -0.08485033363103867 -0.07320884615182877 -0.07436324656009674 -0.06872820854187012 0.0035271868109703064 -0.0757124274969101 0.08514232188463211 -0.03398120403289795 0.09404850751161575 0.06190819293260574 0.02115388959646225 0.02774161845445633 0.06571943312883377 -0.015046432614326477 0.0008001327514648438 -0.09349986165761948 0.05341636389493942 0.06230758875608444 -0.0599370114505291 0.044284380972385406 -0.04571455717086792 0.004035785794258118 -0.012707427144050598 -0.09913201630115509 -0.08841778337955475 -0.07100014388561249 0.07695474475622177 -0.06583867967128754 -0.06461648643016815 -0.09460677951574326 -0.051927436143159866 0.027423597872257233 0.07197033613920212 0.07362734526395798 -0.04408144950866699 -0.06405818462371826 0.04548826068639755 -0.05510050058364868 -0.06837395578622818 -0.03556685149669647 0.06058993190526962 0.08170155435800552 0.006144821643829346 -0.07194346189498901 -0.002604648470878601 -0.0682874321937561 0.029359079897403717 -0.005580142140388489 0.06887266784906387 0.09555839747190475 0.08319767564535141 0.02631136029958725 -0.04022606834769249 0.06590057164430618 -0.03215745836496353 0.05270484834909439 0.04417265206575394 0.03840186446905136 -0.062190067023038864 -0.03417406231164932 0.04439861327409744 0.010750725865364075 -0.09911737591028214 0.06106417626142502 -0.011624790728092194 0.07102217525243759 0.051336951553821564 -0.002237774431705475 -0.012940928339958191 0.014553442597389221 0.007299862802028656 0.09220948070287704 -0.008632227778434753 -0.065911665558815 0.017547383904457092 0.049570031464099884 0.01952984184026718 0.06807886809110641 -0.0030455440282821655 0.044774480164051056 -0.08044544607400894 -0.0005956888198852539 -0.03897900506854057 -0.018668845295906067 0.059246666729450226 0.07442071288824081 0.04720402508974075 0.07547662407159805 0.0007493048906326294 0.05232194811105728 0.00364675372838974 -0.06927603483200073 0.0013923197984695435 -0.09629521518945694 -0.03706369549036026 -0.038717497140169144 -0.07475610077381134 -0.08526890724897385 0.03329414874315262 0.07945749908685684 0.07203534990549088 0.08325494080781937 0.03474501520395279 0.03181641548871994 0.09989989548921585 -0.07815475761890411 0.06862980872392654 0.010377705097198486 0.02265600860118866 -0.030010268092155457 -0.022203505039215088 0.012475669384002686 0.0888328030705452 -0.09716659039258957 0.003238596022129059 -0.07717867940664291 0.0028233975172042847 -0.06001070886850357 -0.03846057876944542 0.04095038026571274 0.0022961944341659546 -0.06486717611551285 -0.09013694524765015 -0.07563048601150513 -0.013911187648773193 -0.07924047857522964 -0.09746690839529037 -0.04486750438809395 -0.026667878031730652 0.09592924267053604 -0.04585409164428711 0.07619500905275345 0.08559034019708633 0.061942316591739655 -0.07155106961727142 -0.009874239563941956 0.010700486600399017 0.012749157845973969 0.04780960828065872 0.09790388494729996 -0.05801248550415039 0.026280008256435394 -0.060873843729496 0.06767911463975906 -0.06693617254495621 0.04233124107122421 0.08741725236177444 0.019733212888240814 0.053970880806446075 0.02777322381734848 -0.0791129469871521 0.004742838442325592 -0.06617478281259537 -0.04879472404718399 0.09717712551355362 0.0938810482621193 -0.03892319276928902 -0.0979219451546669 0.09239832311868668 -0.02191232144832611 -0.09527607262134552 -0.08191047608852386 0.06465501338243484 0.07318597286939621 0.019005104899406433 0.011768780648708344 -0.08461017906665802 0.0543041005730629 -0.018655896186828613 -0.05184166505932808 -0.010825775563716888 0.05807078629732132 0.06796807795763016 -0.057276953011751175 -0.006221547722816467 -0.03777526691555977 0.0869850143790245 0.05424652248620987 -0.02275186777114868 0.07796724885702133 -0.08636778593063354 0.07360220700502396 -0.09851493686437607 -0.0645533949136734 -0.01280900090932846 0.0965285375714302 -0.026795074343681335 0.049699075520038605 -0.05913511663675308 0.07667046040296555 0.08053792268037796 -0.08720041811466217 0.06590823084115982 0.08895308524370193 -0.04880039766430855 0.03056279569864273 0.09350890666246414 -0.051677774637937546 -0.024935349822044373 0.04682708531618118 -0.042441226541996 -0.041402485221624374 0.019066013395786285 0.039987511932849884 0.08652428537607193 0.053434647619724274 0.04801055043935776 -0.05172572284936905 0.06965542584657669 0.0974736139178276 -0.005908392369747162 -0.006104670464992523 0.051963649690151215 -0.0090341717004776 0.02441725879907608 0.03542476147413254 -0.019067302346229553 -0.07429343461990356 -0.03519382327795029 -0.051606979221105576 -0.024143539369106293 0.08016123622655869 0.04090454429388046 0.010536633431911469 -0.06150416284799576 -0.030339382588863373 -0.047256600111722946 0.09277195483446121 0.09076245874166489 -0.048573460429906845 0.07626057416200638 0.005304411053657532 0.020481526851654053 -0.07950733602046967 0.06365857273340225 0.026949666440486908 -0.05599934980273247 0.002947889268398285 0.07525398582220078 0.0027684420347213745 0.013389095664024353 -0.022092178463935852 0.032964371144771576 -0.05611509084701538 0.04396689683198929 0.05452436953783035 0.062072671949863434 0.04297857731580734 0.013603843748569489 0.0012583285570144653 -0.06665638089179993 -0.0901363268494606 0.0547998771071434 0.04738933593034744 0.04688446968793869 0.06035717576742172 0.0904523953795433 0.06916151195764542 0.014553889632225037 0.046564050018787384 -0.039884354919195175 -0.01597563922405243 -0.023156605660915375 0.002121642231941223 -0.09643472731113434 -0.006036281585693359 0.0011305436491966248 0.08319871872663498 -0.07980024814605713 0.0373028889298439 0.08149763196706772 0.04064185172319412 -0.07240109145641327 -0.04016080126166344 -0.06339952349662781 -0.009661160409450531 -0.09210218489170074 -0.03845638036727905 -0.03911738470196724 0.017685092985630035 -0.023561298847198486 0.06433113664388657 -0.09488063305616379 -0.04160642623901367 -0.0031609386205673218 -0.028800085186958313 0.03844372183084488 0.020557329058647156 -0.020692072808742523 0.08647065609693527 0.05233243852853775 -0.09582269191741943 -0.01413106918334961 -0.08690114319324493 -0.07892017066478729 -0.04882834106683731 0.06315787881612778 0.0710424855351448 0.03727681189775467 0.060055799782276154 -0.0892992615699768 -0.05474146828055382 -0.08236771821975708 -0.036668561398983 0.04108256846666336 0.011256061494350433 -0.08896195143461227 -0.07220099866390228 0.056337498128414154 0.03867616504430771 -0.03139550983905792 -0.016928568482398987 -0.08679398149251938 0.008679509162902832 -0.03654094040393829 0.026070721447467804 -0.05699549987912178 -0.04404666647315025 -0.014861062169075012 0.004483714699745178 0.0004461556673049927 -0.05091197416186333 0.07867277413606644 0.09637758880853653 -0.07454167306423187 -0.0022821277379989624 -0.007882393896579742 -0.04527021571993828 -0.09611763060092926 0.0882757231593132 0.007164455950260162 -0.05041388422250748 -0.06673564016819 0.016045473515987396 -0.09215085953474045 0.08185029774904251 -0.08316264301538467 -0.07181000709533691 0.07500991970300674 0.06941736489534378 -0.009617842733860016 -0.07103244960308075 0.035595692694187164 -0.07070497423410416 0.04240501672029495 -0.016751185059547424 -0.03327932208776474 0.060954682528972626 -0.03413679450750351 -0.09356027096509933 0.0027418509125709534 -0.016563013195991516 0.060271792113780975 0.05447464436292648 0.07425949722528458 0.03052038699388504 0.03475043922662735 -0.0017970800399780273 -0.09129910916090012 0.034767769277095795 0.0638524517416954 -0.09750726073980331 0.04633302241563797 -0.043427955359220505 0.02158389240503311 0.07879246026277542 0.08574991673231125 -0.0847628265619278 -0.012320436537265778 0.02049577236175537 0.0430527999997139 0.05827189236879349 -0.0325961709022522 -0.03174982964992523 0.003663778305053711 -0.018470272421836853 -0.03303305059671402 0.02634025365114212 -0.0047957077622413635 0.002018973231315613 0.006888747215270996 0.0714946761727333 -0.09280343353748322 -0.0068174973130226135 0.052651576697826385 -0.06554457545280457 0.057330451905727386 0.09914515167474747 -0.03147338330745697 -0.08999542146921158 0.05540549010038376 0.09871970862150192 0.05368051677942276 0.006950400769710541 0.028778083622455597 -0.07635879516601562 -0.07769505679607391 0.03432842344045639 -0.03554952144622803 -0.05393942818045616 -0.07505661249160767 -0.09029827266931534 -0.05547884851694107 -0.0845186710357666 0.09840115159749985 0.07745224982500076 0.03688120096921921 -0.01745983213186264 0.02318672090768814 -0.002012990415096283 -0.08303070068359375 -0.032780662178993225 0.05127408355474472 -0.08368389308452606 -0.07045114040374756 0.019923605024814606 -0.03437717258930206 -0.03424437344074249 0.06222326308488846 -0.08414020389318466 0.05052550882101059 0.059293217957019806 -0.0867670550942421 -0.08412303030490875 -0.08022799342870712 -0.010149382054805756 0.08390075713396072 0.087098129093647 0.05318533629179001 -0.08643361181020737 -0.04028778150677681 0.08580005913972855 -0.00045256316661834717 -0.09815986454486847 0.02481706440448761 -0.06360520422458649 0.029011614620685577 0.02136911451816559 -0.04961095005273819 -0.09346472471952438 -0.08765297383069992 0.03006897121667862 0.06855196505784988 -0.06091848760843277 -0.012873068451881409 0.007014557719230652 0.03625597804784775 -0.05333895608782768 0.04133298248052597 0.062416382133960724 -0.046105194836854935 0.018570855259895325 -0.021756961941719055 -0.028214074671268463 -0.05078545957803726 -0.07576832920312881 0.06128006428480148 0.04098052531480789 -0.07568094879388809 -0.014451801776885986 -0.06794805824756622 -0.04069390520453453 0.07102609425783157 0.04805988818407059 -0.031384408473968506 0.09752684086561203 -0.08487126976251602 -0.08889777958393097 0.07908418029546738 -0.04546886682510376 0.0022288933396339417 0.04890557378530502 0.036241136491298676 -0.01853654533624649 -0.07833163440227509 0.019638992846012115 0.023922540247440338 0.06627858430147171 -0.012132778763771057 -0.09195768088102341 -0.026136204600334167 0.005847647786140442 -0.036755263805389404 -0.016171470284461975 -0.02684052288532257 0.08540508896112442 -0.04431424289941788 -0.006861329078674316 0.061143435537815094 0.05572163313627243 -0.06633485853672028 0.08811811357736588 0.018035508692264557 0.08126962929964066 -0.02185027301311493 0.0619891956448555 -0.07637973129749298 0.09633123129606247 -0.08585160225629807 0.055194027721881866 0.015138186514377594 -0.007352374494075775 0.030632384121418 0.08941597491502762 -0.02436862885951996 0.09228093177080154 -0.06088634952902794 0.012157298624515533 0.07235779613256454 -0.08435910940170288 -0.04839609935879707 0.07403778284788132 -0.019210532307624817 0.01865042746067047 0.008169293403625488 0.08247048407793045 -0.009570837020874023 -0.052236128598451614 -0.008196212351322174 -0.0797685757279396 -0.007458433508872986 0.07763370126485825 0.010461047291755676 -0.010040953755378723 0.017215251922607422 -0.06367737054824829 -0.05235767364501953 -0.010086461901664734 0.022662267088890076 -0.035276830196380615 0.08296874910593033 0.041591279208660126 -0.0502156987786293 -0.04233523830771446 0.03813207894563675 -0.030200324952602386 0.05894417315721512 0.014370858669281006 0.04443637281656265 0.0873296931385994 -0.038349878042936325 0.03984559327363968 -0.0588032491505146 -0.07336656749248505 0.08604805916547775 0.08321414142847061 0.09043937176465988 -0.01965250074863434 0.09842821210622787 0.042476244270801544 0.08498526364564896 0.02427852153778076 -0.00367823988199234 0.00732499361038208 -0.02762414515018463 -0.002174079418182373 -0.01733221858739853 0.018489502370357513 -0.07613115012645721 0.09717167168855667 -0.038521088659763336 -0.0395023338496685 0.03578082472085953 0.09872401505708694 -0.046447038650512695 -0.09603583067655563 0.0705205574631691 0.011231400072574615 0.03538534790277481 -0.04078371450304985 0.09172912687063217 0.07804536074399948 -0.006656572222709656 -0.055267371237277985 0.031119175255298615 0.05845453590154648 -0.0336611270904541 0.05829901248216629 0.00947127491235733 0.0036234483122825623 0.08297083526849747 -0.022527337074279785 -0.0159233957529068 -2.0131468772888184e-05 0.038858331739902496 0.057932399213314056 0.02009650319814682 0.016459979116916656 0.08395809680223465 0.06422626227140427 -0.007704593241214752 0.0988689437508583 0.03601928800344467 -0.07556493580341339 -0.01011493057012558 -0.0794665664434433 -0.06630472838878632 -0.08020582050085068 -0.0671921819448471 0.033725641667842865 0.03388542681932449 0.05081028491258621 0.032189883291721344 0.01433350145816803 -0.08977320045232773 0.07739818841218948 -0.08563665300607681 0.04253541678190231 -0.09264000505208969 -0.06936696916818619 0.08476979285478592 -0.017807483673095703 -0.029022887349128723 -0.06785206496715546 -0.08572603762149811 -0.04260621219873428 -0.08755125850439072 -0.033914804458618164 -0.04570014402270317 -0.026479147374629974 -0.04144712910056114 -0.09016051143407822 -0.07774786651134491 0.02166914939880371 0.01639913022518158 -0.025285884737968445 -0.04620541259646416 -0.029592275619506836 0.0017650499939918518 -0.01493988186120987 -0.035323962569236755 -0.04901622608304024 -0.05705186352133751 -0.005052231252193451 -0.09402085840702057 0.08399910479784012 0.035864077508449554 -0.032193198800086975 0.08351882547140121 -0.028221532702445984 -0.02596794068813324 0.06145935505628586 0.06485331803560257 0.007581435143947601 -0.018249236047267914 -0.005304299294948578 0.06838218122720718 0.021638572216033936 0.006803333759307861 0.08491525799036026 0.09923108667135239 0.09534762054681778 0.02318483591079712 -0.05370057746767998 -0.0677824318408966 0.023878395557403564 -0.0773569792509079 -0.0852053090929985 0.043548665940761566 0.04854654520750046 -0.046038031578063965 0.06219538301229477 0.057204850018024445 -0.0739060789346695 -0.04817885160446167 0.008730769157409668 -0.0472179651260376 0.08225927501916885 0.062128908932209015 0.07163108140230179 0.014320924878120422 -0.004992127418518066 -0.016767635941505432 -0.04874701425433159 0.0042448490858078 0.08107214421033859 0.048346079885959625 -0.08729741722345352 -0.00363902747631073 0.05382784456014633 -0.07220934331417084 0.01675494760274887 -0.08827091753482819 -0.07266714423894882 0.04208826273679733 -0.07779695838689804 0.05011538416147232 0.09390269964933395 -0.05780826881527901 0.09575457125902176 0.08446403592824936 -0.07999610900878906 -0.0717010647058487 -0.01676630973815918 -0.005111537873744965 -0.028025150299072266 -0.0012723803520202637 -0.0473206527531147 0.09653372317552567 0.06863320618867874 -0.06490130722522736 -0.05704090744256973 -0.03938407823443413 -0.030550457537174225 -0.07324109971523285 0.001318134367465973 0.031237073242664337 -0.026455357670783997 -0.04399590566754341 0.048417337238788605 -0.05939239263534546 -0.02898341417312622 -0.0955706387758255 0.06403490155935287 -0.056319691240787506 0.09938297420740128 0.07132253795862198 0.025745056569576263 -0.022589370608329773 0.09974367171525955 0.09109313040971756 -0.00893855094909668 -0.08375100791454315 -0.007731892168521881 0.013890042901039124 -0.020681917667388916 0.02824404090642929 -0.01750655472278595 -0.07593762874603271 -0.06608239561319351 0.0010408535599708557 0.07530806213617325 0.06508520990610123 -0.09358943998813629 -0.011851862072944641 0.027695052325725555 0.05558013170957565 0.08242139965295792 0.00887395441532135 0.08294869214296341 0.06647949665784836 -0.0277756005525589 0.06611653417348862 -0.025272950530052185 -0.01880110800266266 0.07668381184339523 0.09399456530809402 -0.07034404575824738 -0.0497838519513607 0.027470432221889496 0.05101444572210312 0.0474168136715889 -0.05734354257583618 -0.05661339685320854 -0.05636122450232506 0.055315978825092316 0.09235545247793198 0.08977323025465012 0.047794587910175323 -0.01977616548538208 -0.03464297205209732 0.06797689944505692 0.06548265367746353 0.052780039608478546 0.01570812612771988 -0.08405251801013947 -0.009413264691829681 -0.07139161974191666 0.07662709802389145 -0.011405706405639648 -0.048909734934568405 -0.02820143848657608 0.09898970276117325 -0.0790117010474205 0.06638798862695694 -0.021860063076019287 0.07235456258058548 -0.02987947314977646 0.090305857360363 0.04615003615617752 0.02828257530927658 -0.09240169823169708 0.0869467481970787 0.02078843116760254 0.04558228701353073 0.07260175794363022 0.029932506382465363 0.06437546759843826 0.034804679453372955 0.017200246453285217 0.007035456597805023 0.007658578455448151 -0.040459681302309036 -0.08171328157186508 0.036288388073444366 0.01783611625432968 -0.015563666820526123 -0.05304680019617081 -0.007086798548698425 -0.050197016447782516 -0.032087698578834534 0.07705449312925339 -0.06185793876647949 0.05075810104608536 0.07048708945512772 0.028909914195537567 0.04398975521326065 0.044763319194316864 -0.03600076586008072 -0.03205089271068573 0.07462216168642044 -0.09114672243595123 -0.0754377469420433 -0.005976296961307526 -0.03862002119421959 -0.052833449095487595 0.0010934621095657349 -0.08598528057336807 0.0608692541718483 0.042555324733257294 -0.08831622451543808 -0.0770108699798584 -0.019301846623420715 0.08631623536348343 0.018121793866157532 0.0790766105055809 0.0066775307059288025 -0.05805274471640587 0.08699680119752884 -0.016058847308158875 0.09369637817144394 0.06630886346101761 -0.03860512003302574 -0.05804396793246269 -0.008848153054714203 0.06801057606935501 -0.05284736305475235 -0.06363832950592041 -0.030447281897068024 0.09229543060064316 -0.03900473192334175 0.09106384962797165 0.013206824660301208 0.06993294507265091 -0.06109119579195976 -0.06573253870010376 0.03539254516363144 0.08684349805116653 0.023739472031593323 0.00812598317861557 -0.026396535336971283 -0.060325540602207184 -0.0429946668446064 0.08838922530412674 -0.044483672827482224 -0.061133574694395065 0.003024265170097351 -0.03357330709695816 0.037201590836048126 -0.09699302911758423 0.09874547272920609 0.03075546771287918 0.08597881346940994 -0.0009187310934066772 -0.05735262855887413 -0.07135544717311859 -0.05948219448328018 -0.004599437117576599 0.05297546833753586 -0.07692927122116089 0.0798455998301506 0.013799406588077545 -0.06446459889411926 0.05529326945543289 -0.06659592688083649 -0.015358366072177887 0.027806825935840607 0.09288585931062698 0.07520603388547897 -0.07044394314289093 -0.027715086936950684 -0.002393364906311035 -0.0866939052939415 0.039449773728847504 -0.09417014569044113 0.017151810228824615 -0.02823629230260849 -0.06472210586071014 -0.040637265890836716 -0.0998040959239006 -0.03903088718652725 0.04143840819597244 0.07796251028776169 0.0866256132721901 -0.059097349643707275 -0.04191961511969566 -0.06534735858440399 0.0877874568104744 0.008210420608520508 -0.01770848035812378 -0.016224458813667297 -0.057395245879888535 0.02406419813632965 0.05160178989171982 0.04126264899969101 0.03227848559617996 -0.035503849387168884 -0.03611518442630768 -0.04084570333361626 0.02727273851633072 -0.01799013465642929 -0.0701308399438858 0.0026663392782211304 0.026610203087329865 0.056897349655628204 0.06758958846330643 -0.0030435100197792053 0.088795967400074 -0.0836605429649353 0.03390807658433914 -0.07927240431308746 0.035502441227436066 -0.055242229253053665 -0.033419594168663025 0.02998741716146469 -0.009843751788139343 -0.05903080850839615 0.07528681308031082 -0.022406265139579773 0.058848537504673004 -0.005820155143737793 0.00012733787298202515 -0.08691229671239853 0.019212208688259125 -0.09924934059381485 0.05338788777589798 -0.09444922208786011 -0.0800262838602066 -0.054012835025787354 -0.020128943026065826 -0.06341258436441422 -0.0886392742395401 0.03569585829973221 0.04033953696489334 -0.06441850960254669 0.01966283470392227 0.0882192924618721 0.03128502517938614 -0.014673687517642975 -0.04117676243185997 0.03313543647527695 -0.007517218589782715 0.06967519968748093 0.021922245621681213 0.08424220234155655 -0.09783557802438736 -0.04836567863821983 -0.04492279514670372 -0.04605679586529732 0.07301019877195358 0.01270003616809845 0.07679685205221176 -0.031228937208652496 0.012313738465309143 -0.055327024310827255 0.049687691032886505 0.06874880939722061 0.04675448685884476 0.06270737200975418 -0.03940257057547569 -0.08099792152643204 0.08288740366697311 -0.05214128643274307 -0.08965437859296799 0.058616869151592255 0.073115773499012 -0.01993662118911743 0.08852637559175491 0.03805568069219589 0.024432480335235596 -0.012746118009090424 -0.028839588165283203 0.0769144669175148 -0.07161718606948853 -0.07203845679759979 0.07364504784345627 -0.019658461213111877 0.025144405663013458 -0.018892012536525726 -0.05802595615386963 -0.06242997571825981 -0.0911482572555542 -0.09388380497694016 -0.07285605370998383 0.06133391708135605 0.03419775515794754 0.009247459471225739 0.09716314822435379 0.06902780383825302 0.09588546305894852 0.09347379952669144 -0.09955545514822006 -0.0053290873765945435 -0.07535523176193237 -0.0016137510538101196 -0.07925237715244293 -0.005002275109291077 -0.055758822709321976 0.09301235526800156 0.05731876939535141 -0.004111647605895996 -0.060221076011657715 -0.024944700300693512 -0.022146642208099365 -0.003922268748283386 0.013416528701782227 0.018530942499637604 0.08051008731126785 -0.0930989533662796 0.09306355565786362 -0.04752776771783829 -0.09722274541854858 -0.007593728601932526 -0.09178221225738525 0.092575304210186 -0.003707386553287506 0.09331835061311722 0.06721705943346024 -0.02696944773197174 -0.0949598103761673 0.07883105427026749 -0.05835855007171631 0.01050269603729248 -0.09432953596115112 0.018923357129096985 0.020878292620182037 -0.04352613911032677 0.03378201276063919 -0.030584141612052917 -0.07452455908060074 -0.06226319074630737 -0.009791634976863861 0.09346414357423782 -0.013350270688533783 -0.06862113624811172 0.09018848091363907 0.013407304883003235 -0.059764422476291656 -0.0900125652551651 -0.005149364471435547 -0.010642267763614655 -0.04599657282233238 0.0700986310839653 0.05794379860162735 -0.07578937709331512 0.08733230084180832 0.01959247887134552 0.00796886533498764 -0.07290258258581161 -0.015340402722358704 -0.01586107909679413 0.09828168898820877 -0.004052862524986267 0.06412246078252792 0.04589562863111496 0.06427445262670517 0.07450627535581589 -0.09978820383548737 -0.07839526236057281 -0.00787787139415741 0.07808651775121689 0.09671611338853836 -0.016854308545589447 0.023079946637153625 0.06273307651281357 -0.06448929011821747 0.09105280786752701 0.07505985349416733 -0.09306684881448746 -0.014675736427307129 -0.07154008001089096 0.01519002765417099 -0.09526728838682175 -0.045045819133520126 0.061411865055561066 -0.045883238315582275 -0.027654781937599182 -0.09476583451032639 -0.028968825936317444 -0.05752898380160332 -0.0817936509847641 0.07125086337327957 0.05111327022314072 -0.009018048644065857 0.0728485956788063 -0.004719652235507965 0.01366715133190155 0.022328928112983704 -0.0038705021142959595 -0.07351447641849518 0.009739018976688385 0.08098620921373367 -0.09781236946582794 -0.04693746566772461 -0.04786794260144234 -0.01789809763431549 -0.0850655809044838 0.08992325514554977 0.08832141011953354 -0.03386000543832779 -0.07233162224292755 -0.010652944445610046 -0.03960465267300606 -0.02957141399383545 0.08137109130620956 0.04585330933332443 -0.030817553400993347 -0.00719849020242691 0.01988539844751358 0.02685350924730301 -0.054060470312833786 -0.02373240888118744 0.06332231312990189 -0.005145728588104248 -0.09952949732542038 -0.003000415861606598 0.06538691371679306 -0.03604762256145477 0.02500510960817337 0.021925613284111023 -0.08405828475952148 0.03349893540143967 0.0020991116762161255 0.0330868735909462 0.09037316590547562 0.089083231985569 -0.06794552505016327 -0.05405282974243164 0.020943045616149902 0.08185520023107529 -0.02158677577972412 -0.03504232317209244 0.09561953693628311 -0.06537488102912903 0.08413157612085342 0.012502923607826233 -0.0009892210364341736 0.016464389860630035 0.028695128858089447 -0.09588533639907837 0.056799180805683136 -0.02919437736272812 -0.06436033546924591 -0.05219266563653946 -0.028245709836483 -0.08480149507522583 -0.07765364646911621 -0.04342850670218468 0.03092110902070999 -0.00014667212963104248 -0.09716702997684479 0.0340932235121727 -0.09954335540533066 -0.03296774625778198 -0.0027320757508277893 0.03585340827703476 0.09946412593126297 0.008600376546382904 0.0702555850148201 -0.07131777703762054 0.054166682064533234 0.09164317697286606 0.08533710986375809 -0.028825297951698303 0.08612126857042313 0.05251588672399521 -0.02529165893793106 0.014777719974517822 0.005450107157230377 -0.08622671663761139 -0.059165310114622116 0.060783304274082184 -0.09792628139257431 -0.09676539152860641 -0.09809739887714386 -0.03054729849100113 0.031256817281246185 0.019128382205963135 0.020964935421943665 0.04722984880208969 -0.029336020350456238 0.03854434937238693 0.01593448966741562 0.025174491107463837 0.08884061127901077 0.03700243681669235 0.09046634286642075 -0.03191898763179779 -0.07292032241821289 -0.06648391485214233 -0.018019184470176697 0.06627172976732254 0.09347457438707352 -0.06094532087445259 -0.06722341477870941 -0.028273440897464752 -0.031925834715366364 -0.02236597239971161 0.06478864699602127 -0.029090270400047302 -0.047248005867004395 0.06879902631044388 0.09921767562627792 -0.0334094762802124 0.015960536897182465 -0.038994062691926956 0.02615552395582199 0.05693895369768143 0.04355678707361221 0.05590721219778061 -0.03670712560415268 0.0400446280837059 -0.09743036329746246 -0.042927004396915436 -0.01271761953830719 0.06421899050474167 -0.012130104005336761 -0.029902741312980652 0.05674893409013748 0.07811581343412399 -0.039650749415159225 0.014806844294071198 -0.08890385925769806 0.033336348831653595 -0.03181813657283783 -0.09375201910734177 0.06698445230722427 0.038776226341724396 0.06570310145616531 -0.06439880281686783 0.07681868225336075 0.07439921051263809 -0.0063753873109817505 -0.01378089189529419 0.015722766518592834 0.06700549274682999 -0.06760513782501221 -0.040310945361852646 -0.0842970460653305 -0.022580228745937347 -0.06845180690288544 -0.07262949645519257 -0.008710920810699463 -0.011238500475883484 0.07170972973108292 -0.09701808542013168 -0.08861400187015533 -0.02390209585428238 0.027573518455028534 0.09741515666246414 0.012845471501350403 0.05998571962118149 0.052039094269275665 0.01334921270608902 -0.02347078174352646 0.0063455551862716675 0.0919114425778389 -0.051689792424440384 0.09864941984415054 0.08389110118150711 0.09184829145669937 0.04314183443784714 0.053806550800800323 0.0246223583817482 0.035197146236896515 0.07897921651601791 -0.09262429922819138 0.020501911640167236 0.09967079013586044 0.06758976727724075 0.09993291646242142 0.048330776393413544 0.010971762239933014 0.018804028630256653 0.08861493319272995 0.011444449424743652 0.07923757284879684 0.034321971237659454 -0.013473883271217346 -0.08089672029018402 0.0006781220436096191 0.02846594899892807 -0.04538985714316368 0.003465592861175537 0.036072663962841034 -0.03342801332473755 -0.01230388879776001 0.004005454480648041 0.050073765218257904 0.09966906160116196 -0.05630390718579292 0.05103021115064621 -0.06498768925666809 0.04126628488302231 -0.09320030361413956 0.09831399470567703 -0.029280997812747955 -0.008753016591072083 0.0427853986620903 0.0010593682527542114 -0.019405946135520935 0.06579611450433731 -0.09239134937524796 -0.0776926726102829 0.032668061554431915 -0.08813122659921646 -0.052220072597265244 0.06183158606290817 -0.016360417008399963 0.04389580339193344 0.02827548235654831 -0.052754081785678864 0.04891101270914078 0.03899138420820236 0.05992639809846878 0.058484770357608795 -0.07151629030704498 0.06445439904928207 -0.08825866132974625 -0.029341675341129303 0.01620161533355713 -0.045962896198034286 -0.009783066809177399 0.0709298625588417 0.03907815366983414 -0.014647804200649261 -0.09148748964071274 -0.049223341047763824 -0.0874878540635109 0.02266348898410797 0.09748510271310806 0.06062985211610794 -0.08747150748968124 0.004238888621330261 -0.06027863174676895 0.09011996537446976 0.08651984483003616 -0.0932767316699028 -0.038789715617895126 -0.05161092430353165 0.06368780881166458 -0.08909674733877182 -0.08630424737930298 -0.007227860391139984 -0.000176355242729187 -0.06633374840021133 -0.0815681591629982 0.07861777395009995 -0.027941450476646423 -0.08502113819122314 0.08216402679681778 0.06952730566263199 -0.007785879075527191 -0.07938136160373688 0.05213773995637894 -0.060261525213718414 0.08436786383390427 0.045175306499004364 0.012878574430942535 -0.09166016429662704 -0.016567014157772064 -0.0909256860613823 -0.049695324152708054 0.019483782351017 0.07772860676050186 0.012859642505645752 0.06443581730127335 0.05950886756181717 -0.016704939305782318 -0.024358585476875305 -0.06316796690225601 0.004675135016441345 0.044058673083782196 -0.03447200357913971 -0.09418424218893051 0.09488309174776077 0.06953943520784378 -0.00443413108587265 -0.03241969645023346 0.07830613106489182 0.06352811306715012 -0.007976457476615906 0.008091963827610016 0.065019391477108 -0.04020965099334717 0.053661949932575226 -0.09418448060750961 0.02572888880968094 0.09801120311021805 -0.0721469298005104 -0.08042950928211212 0.026721127331256866 0.06922348588705063 0.09476835280656815 0.010068513453006744 0.02872728556394577 -0.01871885359287262 0.009546473622322083 -0.05720142275094986 -0.07964546978473663 -0.07171837240457535 0.02774188667535782 -0.006721004843711853 0.08750579506158829 0.004221096634864807 -0.08892367035150528 -0.09589894860982895 -0.002666458487510681 0.03579356521368027 0.09004604071378708 -0.04728275537490845 -0.03548379987478256 0.03694760054349899 0.0766584500670433 -0.062136806547641754 -0.031566321849823 -0.038263048976659775 -0.07500965893268585 0.03570983558893204 -0.08169642835855484 -0.08602537959814072 -0.08848531544208527 0.015518784523010254 -0.04244302585721016 0.09065992385149002 0.012527287006378174 -0.03947793319821358 -0.015289939939975739 0.034597404301166534 -0.09250634163618088 -0.05767333507537842 0.09554075449705124 -0.08566377311944962 -0.008507870137691498 0.09516353160142899 -0.05505704879760742 0.02663024514913559 -0.07585026323795319 0.03668055683374405 -0.08865108340978622 0.07636170834302902 -0.010087847709655762 0.09984738379716873 -0.08422838151454926 -0.09539978951215744 0.08179012686014175 -0.0031565800309181213 -0.0720755010843277 0.07624030858278275 0.08798693865537643 0.09116742759943008 0.013096436858177185 0.01591501384973526 0.06414031237363815 -0.019624032080173492 0.03711508959531784 -0.07391524314880371 -0.05270665884017944 -0.09667237102985382 -0.006858423352241516 -0.06728982925415039 -0.013460539281368256 -0.07296742498874664 -0.028190121054649353 0.06053865700960159 0.0614887997508049 0.09878293424844742 0.0656675323843956 0.0049582719802856445 0.042356811463832855 -0.09171169996261597 0.03675920516252518 -0.08937529474496841 0.08261401206254959 0.09493578225374222 -0.056675564497709274 0.07432117313146591 0.03349263221025467 0.0054026395082473755 -0.0014585703611373901 0.05868298560380936 -0.03610081970691681 -0.026502981781959534 0.022546961903572083 -0.09357889741659164 -0.04515200853347778 -0.08484381437301636 -0.00523783266544342 -0.06926333904266357 -0.07668624818325043 0.08931640535593033 0.06988362222909927 0.014342926442623138 -0.046528495848178864 -0.09033793210983276 -0.005885325372219086 0.06906730681657791 -0.09724686294794083 -0.007781326770782471 -0.0819762572646141 0.007595166563987732 0.08891225606203079 0.023242875933647156 -0.0802755355834961 0.07025567442178726 -0.025547027587890625 0.018175818026065826 -0.06918786466121674 0.009550273418426514 -0.07310584932565689 -0.02219744771718979 0.07403100281953812 0.0858999565243721 0.09541250020265579 0.07204321771860123 -0.05574680492281914 0.03674481064081192 0.004087507724761963 0.0022689327597618103 -0.0177600160241127 0.06672918051481247 -0.04795100912451744 0.027220673859119415 -0.012969985604286194 0.004767581820487976 0.040968157351017 0.01126011461019516 0.06879527121782303 -0.03901086002588272 -0.05884263664484024 -0.09659122675657272 -0.04229474067687988 0.0017860978841781616 0.09264401346445084 0.05470443516969681 -0.09493505954742432 -0.08954484760761261 0.05791185051202774 0.09309401363134384 0.048744745552539825 -0.04406110197305679 -0.0385725162923336 0.0833335742354393 -0.05935732275247574 -0.02300696074962616 0.06347360461950302 -0.015730619430541992 0.057877250015735626 -0.003170117735862732 0.03816474229097366 0.08211737126111984 -0.06733310222625732 0.007343515753746033 -0.047161687165498734 -0.06545869261026382 0.010709501802921295 -0.039624202996492386 -0.07130845636129379 0.005620144307613373 0.018679216504096985 -0.08790711313486099 -0.09877877682447433 -0.030103027820587158 -0.017020925879478455 0.04489064961671829 0.06150854378938675 0.01531372219324112 -0.04349128156900406 0.08802492171525955 -0.02207990735769272 -0.006744585931301117 0.05289863795042038 0.034551359713077545 -0.05265083536505699 -0.07914195954799652 0.06395164877176285 -0.011973880231380463 -0.08100476115942001 0.0912204459309578 -0.033966466784477234 0.052286989986896515 0.010623753070831299 0.0281226709485054 -0.07752776145935059 -0.08731471747159958 0.010544873774051666 0.029659785330295563 0.051782332360744476 -0.08889001607894897 -0.012736842036247253 0.035362161695957184 0.08590763062238693 -0.05535038933157921 -0.08091574907302856 -0.09015660732984543 0.08160389214754105 -0.06951799243688583 -0.06447397172451019 -0.006430134177207947 -0.09903210401535034 -0.026002265512943268 0.023037970066070557 -0.09730301052331924 0.07149306684732437 -0.014766454696655273 -0.07173354923725128 0.07756078988313675 -0.0971624031662941 -0.03552938997745514 -0.03093346208333969 -0.096809022128582 0.013886965811252594 0.0675029382109642 0.09966155141592026 0.08570470660924911 -0.09159661829471588 -0.02874790132045746 -0.005014851689338684 0.004396893084049225 0.08159222453832626 0.09490478783845901 -0.06234398111701012 0.0006490349769592285 0.01157303899526596 -0.0190495103597641 0.027364857494831085 0.09361947327852249 -0.027290642261505127 -0.06884701550006866 -0.017406977713108063 0.015032745897769928 0.053720228374004364 0.03185174614191055 -0.07464084774255753 0.058175988495349884 -0.07118462026119232 0.038900189101696014 0.09522781521081924 0.08349914103746414 0.019740864634513855 -0.09971065819263458 0.020907044410705566 -0.008682407438755035 -0.08761314302682877 0.09798233956098557 -0.03553769737482071 -0.020375467836856842 0.0032083019614219666 0.049931250512599945 0.06795083731412888 -0.06558775901794434 -0.06696255505084991 -0.0717271938920021 0.016185417771339417 0.08420193940401077 0.06251270323991776 0.06518656760454178 0.029045887291431427 0.04095778614282608 -0.018637262284755707 0.0412471666932106 0.08375085145235062 -0.09462010115385056 -0.07406922429800034 0.0005973801016807556 0.06379856914281845 0.07052446156740189 0.043519847095012665 -0.019784510135650635 0.06871844083070755 0.0487087145447731 -0.025997735559940338 0.02920471876859665 -0.008394934237003326 -0.0478069894015789 -0.08409620821475983 0.07796645909547806 0.07850269228219986 0.055224038660526276 -0.08602779358625412 0.07083537429571152 0.07561410218477249 0.0747135803103447 -0.017017506062984467 0.026792652904987335 0.09300193935632706 -0.03689762204885483 -0.03440364450216293 0.026064880192279816 -0.0006447061896324158 -0.06287959218025208 0.06297413259744644 -0.0022658929228782654 -0.0009353756904602051 -0.03226727247238159 0.05984321981668472 -0.05782515928149223 0.007694564759731293 -0.06881765276193619 -0.02279498428106308 0.08645225316286087 -0.05347733572125435 0.08296816796064377 -0.08783141523599625 0.08085029572248459 0.09714562445878983 0.07645217329263687 0.08154404908418655 -0.015124127268791199 0.05160663276910782 0.07622916251420975 -0.04205773025751114 0.016921326518058777 0.05451766401529312 0.053629837930202484 0.0793728306889534 0.006411328911781311 -0.01790200173854828 -0.0886518731713295 -0.023368321359157562 0.0640750303864479 -0.03591974824666977 0.06544094532728195 0.0536956861615181 -0.012524604797363281 -0.07762908935546875 -0.08600997179746628 0.009326562285423279 -0.007124684751033783 0.013291098177433014 0.07571681588888168 0.04239014536142349 0.06067461520433426 -0.04357424005866051 -0.004725053906440735 -0.039594389498233795 -0.030455604195594788 -0.07416559755802155 0.003675796091556549 0.03503813594579697 -0.027691088616847992 0.042357541620731354 0.026834838092327118 -0.07466033846139908 -0.00873555988073349 0.047446854412555695 0.02077685296535492 -0.070203498005867 0.024445392191410065 -0.009139694273471832 0.030181489884853363 -0.067856565117836 0.07031048089265823 0.01617187261581421 -0.017618991434574127 0.009384848177433014 -0.02183908224105835 -0.02224735915660858 -0.03110811859369278 -0.03136046230792999 -0.08884298801422119 -0.0828760415315628 -0.04771672561764717 0.03004724532365799 -0.09592888504266739 0.07712206989526749 0.04378683120012283 -0.09118517488241196 0.07508132606744766 -0.07051827013492584 -0.021906778216362 0.0895642414689064 0.07157468050718307 0.06824588030576706 0.03542406111955643 -0.015775397419929504 0.05420561879873276 -0.0383417122066021 0.01827119290828705 -0.05308755859732628 -0.07274125516414642 -0.07172789424657822 -0.029031649231910706 0.012567400932312012 0.06099105626344681 0.09247743338346481 0.032556407153606415 0.009077906608581543 0.08752623945474625 0.08446548134088516 0.059285618364810944 0.02962527424097061 0.07133210450410843 0.08014292269945145 0.003679528832435608 -0.0047412291169166565 -0.06534130871295929 -0.0830884575843811 0.06309808045625687 -0.001830458641052246 0.05334427207708359 0.05949004739522934 -0.0386953242123127 0.027819819748401642 0.035451777279376984 -0.03732673078775406 -0.07288913428783417 0.013317286968231201 0.002834104001522064 -0.08195318281650543 0.09672249108552933 0.05492729693651199 0.05812167376279831 0.05691968649625778 0.035412006080150604 0.036954037845134735 0.006864883005619049 -0.08674474060535431 0.07850097864866257 -0.06724510341882706 -0.06032145023345947 -0.07752810418605804 -0.004831813275814056 -0.009680114686489105 -0.012814082205295563 0.005672536790370941 0.011903584003448486 0.07595837861299515 -0.04047006368637085 0.07045876234769821 0.054933495819568634 -0.07538683712482452 0.09693939238786697 0.06833983212709427 0.08001942187547684 0.09818724542856216 0.03552844375371933 -0.017009496688842773 -0.02703402191400528 -0.014816738665103912 -0.06304362416267395 -0.016878701746463776 0.08832361549139023 0.08119601756334305 0.022955045104026794 0.01521388441324234 -0.0793270692229271 -0.037910450249910355 0.008357346057891846 0.05871368199586868 -0.030962370336055756 0.08099181205034256 0.03390682488679886 0.08495303243398666 0.03816109150648117 -0.05303351953625679 -0.05808050557971001 -0.09880246222019196 0.009834565222263336 -0.05364516004920006 -0.054934918880462646 -0.07866756618022919 -0.06901951879262924 0.09016039222478867 0.09102234989404678 -0.03829625993967056 0.09641341120004654 -0.009516939520835876 0.08261433988809586 -0.04763159900903702 -0.057944633066654205 0.09179907292127609 0.08576025813817978 0.08161475509405136 0.08291877061128616 -0.037160053849220276 -0.07576308399438858 -0.01852557808160782 -0.03239060938358307 0.025821931660175323 0.07283400744199753 -0.022383570671081543 -0.01637711375951767 -0.06670889258384705 0.08260054141283035 0.041466839611530304 0.015147224068641663 -0.00151728093624115 -0.04867645725607872 -0.08286794275045395 -0.012881137430667877 -0.060889195650815964 -0.047201015055179596 0.0023089200258255005 -0.05772522836923599 0.02770525962114334 0.0969993993639946 -0.023202791810035706 -0.07777921855449677 0.04524559527635574 -0.0168631449341774 0.06694354861974716 0.0037240609526634216 -0.09553605318069458 -0.01372530311346054 0.03251505643129349 -0.07603424787521362 -0.09852910041809082 0.055813051760196686 -0.03642742335796356 0.05458623915910721 0.09402181953191757 0.09573770314455032 -0.04170140251517296 0.08764602988958359 -0.023015759885311127 -0.09744536131620407 0.07194719463586807 0.018598809838294983 -0.09914606809616089 0.022776484489440918 -0.09519746154546738 0.09994461387395859 -0.01400621235370636 0.03560919314622879 0.058981262147426605 -0.011508002877235413 0.09808868914842606 0.00564102828502655 0.039937444031238556 0.09795046597719193 -0.08566921949386597 0.030213601887226105 -0.0322406068444252 0.04319203644990921 0.027527399361133575 0.05380503088235855 0.07875216752290726 0.05133897811174393 -0.045051898807287216 -0.07604769617319107 -0.028623320162296295 0.0791519358754158 0.08933741599321365 -0.09188773483037949 -0.0007127299904823303 0.0675450935959816 -0.07268062978982925 0.05417688935995102 0.06003492325544357 -0.01701643317937851 0.011713124811649323 0.0506485179066658 0.061970941722393036 0.027665220201015472 -0.039467837661504745 0.022336259484291077 0.0613822415471077 -0.010244548320770264 0.036788977682590485 0.07027754932641983 0.07024777680635452 -0.014358185231685638 0.013511799275875092 -0.053788065910339355 0.016759827733039856 -0.08396323770284653 -0.061121534556150436 0.071259506046772 -0.09709508717060089 0.05280754715204239 -0.06970234215259552 0.06383775919675827 0.01318039745092392 -0.05043724924325943 -0.027588047087192535 -0.0773189440369606 -0.014214769005775452 0.02158235013484955 0.07697892934083939 0.08757223933935165 -0.08407320082187653 -0.05676180124282837 -0.046140968799591064 0.06383984535932541 0.05689509958028793 0.003259912133216858 0.07624316960573196 0.0311209037899971 -0.03824219852685928 -0.038381148129701614 0.0985247865319252 -0.09147153049707413 0.050305940210819244 0.049913741648197174 0.06563631445169449 -0.005226239562034607 0.004382297396659851 0.006311677396297455 0.06211096793413162 0.04194701462984085 -0.021406695246696472 -0.045750975608825684 0.09136206656694412 0.01957792043685913 -0.07751506567001343 0.05971420556306839 0.07922229915857315 -0.015492439270019531 0.05561865121126175 -0.010024741291999817 0.09194577485322952 -0.015893854200839996 -0.0622478723526001 0.0379071906208992 -0.035006918013095856 0.03389044851064682 -0.09659167379140854 -0.034338295459747314 -0.05212278291583061 0.0014043450355529785 0.0065460652112960815 -0.03037550300359726 0.01816866546869278 -0.03713534027338028 0.027450241148471832 0.0023692473769187927 -0.012765802443027496 -0.07662079483270645 0.07464431971311569 -0.019710443913936615 -0.044982220977544785 -0.0176735520362854 0.0534823015332222 -0.09753759205341339 -0.06603701412677765 -0.031271398067474365 0.04540420323610306 -0.0036514252424240112 -0.09460686892271042 0.04733773320913315 -0.00784168392419815 -0.09225411713123322 -0.03718094527721405 0.08129935711622238 -0.026720799505710602 0.05164390057325363 -0.0054946765303611755 -0.047323741018772125 -0.0526074543595314 -0.08671066910028458 -0.07212910801172256 -0.09314041584730148 0.08386301249265671 -0.07963206619024277 0.08714950829744339 0.061913035809993744 0.09699917584657669 -0.025456584990024567 -0.02747027575969696 0.022646091878414154 -0.030331812798976898 0.05127354711294174 -0.0019643306732177734 0.07492492347955704 -0.028691068291664124 0.07809009402990341 0.00921545922756195 -0.04210611805319786 0.0995560809969902 -0.035241223871707916 -0.028154514729976654 0.00208871066570282 -0.01902814954519272 -0.08966183662414551 0.04135110229253769 0.0440867617726326 -0.046748556196689606 0.04919002205133438 -0.08597350120544434 -0.015133857727050781 -0.08762116730213165 -0.07765699923038483 -0.0935533195734024 0.039428748190402985 -0.046723879873752594 -0.07135753333568573 -0.0024222582578659058 -0.017652198672294617 -0.052703000605106354 -0.07661154121160507 -0.010392174124717712 0.08905240148305893 0.07764530926942825 0.04902953654527664 -0.016476191580295563 0.041981108486652374 0.009964033961296082 -0.05652913078665733 -0.08752267807722092 0.09309891611337662 0.004264578223228455 -0.006248869001865387 -0.06856006383895874 0.030625201761722565 0.009595610201358795 0.033448122441768646 -0.09552331268787384 -0.04220464453101158 0.07077040523290634 0.043753065168857574 0.03197234123945236 0.08393532782793045 -0.049443747848272324 0.016985416412353516 0.07490459829568863 -0.00010339915752410889 0.07744400948286057 0.06479721516370773 -0.005045652389526367 0.07330813258886337 0.035613350570201874 -0.07375846058130264 0.0962078794836998 0.05060180276632309 -0.0358278751373291 -0.0670737475156784 -0.08324457705020905 -0.08371903747320175 -0.043121516704559326 0.03053463250398636 -0.03783309459686279 0.0433473214507103 -0.04920316860079765 -0.09010501950979233 0.03537105768918991 -0.004711434245109558 -0.026133857667446136 0.09998632222414017 0.018360935151576996 0.07546593993902206 0.008453868329524994 0.05473480373620987 -0.08228409290313721 -0.06739751994609833 -0.0070543065667152405 0.027708105742931366 -0.0065427422523498535 -0.03573249280452728 0.063919298350811 -0.09534906595945358 -0.09020701795816422 -0.035644374787807465 -0.039784230291843414 0.07348913699388504 0.054218046367168427 0.08380121737718582 -0.06802637875080109 -0.09974264353513718 0.05874636024236679 0.07239682227373123 0.06693733483552933 -0.010552547872066498 0.012475654482841492 0.03450038284063339 0.04700978845357895 -0.005438074469566345 -0.022970184683799744 0.08840145915746689 -0.09664912521839142 0.0008467584848403931 0.05882469564676285 0.08305981010198593 0.09720031172037125 0.00808427482843399 0.006529711186885834 0.007731258869171143 0.041926898062229156 -0.09063585102558136 -0.0878986045718193 -0.051671456545591354 0.08348748832941055 -0.09284968674182892 -0.04616665840148926 0.08005136996507645 -0.06142716482281685 -0.09029749780893326 0.036220140755176544 0.04459995776414871 0.05861348658800125 0.03194577246904373 -0.005732513964176178 0.08908707648515701 -0.0418873094022274 0.003964588046073914 0.017524898052215576 0.021391257643699646 0.057527847588062286 -0.06306679546833038 0.013202950358390808 0.0967014953494072 0.024804696440696716 -0.05767744779586792 0.05577398091554642 0.009548425674438477 0.05171713978052139 -0.08468955755233765 -0.04978964477777481 -0.07111601531505585 0.06792730838060379 0.08769736438989639 0.08222397416830063 -0.003593757748603821 0.039410434663295746 -0.042890097945928574 0.06729929894208908 0.026120074093341827 0.08006442338228226 -0.00542537122964859 -0.06720767170190811 0.07927890866994858 0.05459805577993393 0.06651812046766281 -0.03898780420422554 0.00836963951587677 -0.023112401366233826 0.08225085586309433 -0.07462511211633682 -0.04784325510263443 -0.015722110867500305 0.004561387002468109 0.09245064109563828 -0.06352938711643219 -0.08634065836668015 -0.009710825979709625 -0.09428390115499496 0.023983873426914215 -0.09506547451019287 0.0010839104652404785 -0.09005703777074814 0.03877600282430649 -0.046678315848112106 -0.03797034174203873 0.0242745503783226 0.015787914395332336 0.07110971957445145 -0.0120253786444664 0.06114501506090164 -0.094066321849823 0.08910287171602249 -0.06645601987838745 0.08686640113592148 0.013519629836082458 0.06058438867330551 -0.02716071903705597 0.03990639001131058 -0.0833490714430809 0.05681584030389786 0.04684119671583176 -0.09109150618314743 -0.09954597800970078 0.027485184371471405 0.020555123686790466 -0.07716268301010132 0.07404268532991409 -0.040256429463624954 -0.023365244269371033 0.07197440415620804 0.05125207453966141 -0.011223651468753815 -0.0065046995878219604 -0.0190516859292984 -0.03632332384586334 -0.07876583188772202 -0.037908732891082764 -0.039464425295591354 -0.01592521369457245 -0.07879920303821564 -0.04189816862344742 -0.028768204152584076 0.0956677719950676 0.07942115515470505 -0.09635499864816666 -0.043089475482702255 0.05460507422685623 0.06091559678316116 -0.09076165407896042 -0.051293957978487015 -0.04004637151956558 0.052642352879047394 -0.07258850336074829 -0.048498380929231644 -0.0947420746088028 0.010796859860420227 0.02238382399082184 0.07697571069002151 0.006993427872657776 -0.026869870722293854 -0.03563378006219864 -0.02429889142513275 0.03950544446706772 -0.08336538076400757 -0.02930302917957306 0.08818217366933823 -0.017337903380393982 0.005822122097015381 -0.06597693264484406 0.05126706510782242 0.09317638725042343 0.010860130190849304 -0.04697808250784874 0.053480155766010284 -0.04506136104464531 0.032190777361392975 0.0847134217619896 0.059846825897693634 -0.012917973101139069 0.07851888984441757 -0.039716482162475586 0.033326469361782074 -0.09433036297559738 0.06814711540937424 -0.06035803630948067 0.09527232497930527 0.04247302561998367 0.06146509200334549 -0.04854036495089531 -0.08003976196050644 0.07356139272451401 0.06549163907766342 -0.05595714971423149 -0.06346622854471207 0.0005657076835632324 -0.07975508272647858 -0.08111153542995453 -0.03199054300785065 0.06974964588880539 -0.0811682790517807 -0.027454599738121033 0.002736404538154602 0.015236973762512207 0.050456754863262177 -0.020821712911128998 0.053063519299030304 -0.020521841943264008 0.05501311272382736 0.03408380597829819 0.02080599218606949 0.040859781205654144 -0.07183504104614258 0.09246332198381424 -0.038788583129644394 0.07231474667787552 0.02270631492137909 0.04660286754369736 -0.08481740206480026 0.05352801829576492 -0.0376054048538208 -0.023842796683311462 -0.003082290291786194 0.018187321722507477 0.0872885063290596 -0.05639585480093956 -0.06651225686073303 0.04067236930131912 0.08914858847856522 -0.036309435963630676 -0.05933056026697159 0.007283829152584076 -0.032425858080387115 -0.012048482894897461 0.04841495305299759 -0.07513575255870819 -0.01589909940958023 0.031320758163928986 -0.09324641525745392 -0.03657422214746475 -0.05644892528653145 -0.0633188858628273 -0.036152102053165436 0.08672719448804855 0.038230426609516144 0.003697536885738373 0.04339087754487991 0.07714665681123734 -0.006164908409118652 0.09426600486040115 0.05767840892076492 -0.04749258980154991 0.09819697588682175 0.08628340810537338 0.013828955590724945 0.05010709911584854 0.04087164252996445 -0.09857094287872314 -0.007779762148857117 0.06758666783571243 -0.007246091961860657 -0.06433027982711792 -0.052130259573459625 -0.0088721364736557 -0.06653723865747452 0.0005359426140785217 0.0019153803586959839 0.006940200924873352 -0.08675514906644821 0.05551827698945999 -0.01716659963130951 0.013061001896858215 -0.07252904027700424 0.0075445398688316345 0.0010695457458496094 0.025446049869060516 0.061706818640232086 -0.022200345993041992 -0.008669242262840271 0.005878426134586334 0.06859593838453293 0.06273109465837479 -0.016512252390384674 0.03678623586893082 -0.06572611629962921 0.07774210721254349 -0.06352166086435318 0.04243386536836624 -0.003829680383205414 0.059208549559116364 -0.03233125060796738 0.0698339119553566 0.02033068984746933 -0.014851853251457214 0.07962637394666672 -0.09746348857879639 -0.016374267637729645 -0.005708873271942139 -0.0423453226685524 -0.04017459228634834 0.01308874785900116 -0.036211416125297546 0.08624603599309921 0.056113965809345245 0.023108676075935364 0.03249175101518631 0.08090955764055252 -0.030964292585849762 -0.09414561837911606 0.089165098965168 -0.04909544065594673 -0.06969143450260162 0.09263799339532852 -0.07101905345916748 -0.09215960651636124 0.03249163180589676 0.052425362169742584 -0.09085792303085327 0.04845000058412552 0.0796620324254036 0.07798353582620621 -0.053535379469394684 0.025113679468631744 -0.024167083203792572 0.0029538124799728394 0.09426949173212051 -0.052472472190856934 -0.0570174939930439 -0.0025243908166885376 0.06740551441907883 0.01819521188735962 0.05653620511293411 0.0996580496430397 0.0993519052863121 -0.09298354387283325 0.0771217867732048 -0.052385926246643066 0.05938760191202164 0.09492171555757523 0.008269205689430237 -0.009294971823692322 -0.00684809684753418 0.03532292693853378 -0.05850069597363472 0.09654521197080612 0.08842851966619492 0.05662255734205246 -0.02699599415063858 0.0420956090092659 0.07760889083147049 -0.05342242866754532 0.030912376940250397 0.06167448312044144 -0.08561761677265167 0.06963134557008743 0.0885329321026802 -0.06795287132263184 0.007268227636814117 -0.07620064914226532 0.043095506727695465 0.03503101319074631 0.06686844676733017 0.008561268448829651 -0.034899309277534485 0.055605120956897736 -0.050677087157964706 -0.06957818567752838 -0.04681433364748955 0.09114588052034378 0.08704601973295212 -0.006176099181175232 -0.028484545648097992 -0.023036815226078033 0.041453517973423004 -0.05685793235898018 0.008764311671257019 -0.02479257434606552 -0.018345773220062256 -0.09847915172576904 -0.013448216021060944 -0.0475635789334774 0.01131805032491684 -0.08551523834466934 0.05307167023420334 0.08409269899129868 0.08888622373342514 -0.026287123560905457 -0.08700092136859894 0.08608398586511612 -0.0049516186118125916 -0.03908498212695122 -0.028528869152069092 0.0762481614947319 -0.05658339336514473 0.0993436649441719 0.006596729159355164 0.08404571563005447 0.07376215606927872 0.045537836849689484 0.09476035088300705 -0.09619506448507309 0.010792650282382965 0.06948257237672806 0.0711081400513649 0.03804626315832138 0.0801214799284935 0.008559107780456543 -0.09792979061603546 0.05553971976041794 0.08742774277925491 -0.031527504324913025 0.06238826364278793 -0.09322277456521988 -0.03618963807821274 0.02485652267932892 -0.0811629667878151 0.002074301242828369 0.058140404522418976 0.0044678449630737305 0.05683688074350357 0.004712201654911041 -0.07140670716762543 0.07648403197526932 0.03633906692266464 0.04112846404314041 0.08600575476884842 -0.04885910823941231 0.07245568186044693 0.07064671069383621 -0.07453148066997528 0.03799501806497574 -0.03800846263766289 -0.09340742975473404 -0.07672031968832016 0.07500112801790237 -0.08496484905481339 -0.09653697162866592 0.038554273545742035 0.047060467302799225 0.003903135657310486 -0.07044422626495361 -0.01775737851858139 -0.07154550403356552 0.017645977437496185 -0.06791502237319946 -0.09249822050333023 0.03639788180589676 -0.030173994600772858 -0.04641762003302574 -0.04007789120078087 0.02514999359846115 0.059390805661678314 0.07989627867937088 -0.052759457379579544 -0.09613382071256638 -0.021940305829048157 -0.01819254457950592 -0.056157972663640976 -0.07485677301883698 0.07553698867559433 -0.05722588300704956 0.05229944735765457 0.09246218949556351 -0.026868723332881927 0.08562804013490677 0.08317267149686813 -0.059632014483213425 -0.02482672780752182 0.026489950716495514 0.006057187914848328 -0.03666289895772934 -0.030972100794315338 -0.07194659858942032 -0.02242918312549591 -0.006820574402809143 -0.019588135182857513 -0.056202482432127 -0.03680840879678726 0.04632934182882309 0.06496969610452652 -0.034200385212898254 -0.08796977996826172 -0.03875850513577461 -0.027442194521427155 0.05140847712755203 -0.03550335019826889 0.02210547775030136 -0.013243518769741058 0.03435739129781723 -0.09846071153879166 -0.010129526257514954 -0.0034098774194717407 0.007946953177452087 0.057571135461330414 0.03072226792573929 -0.05884385108947754 0.0647146925330162 -0.09254085272550583 0.004546165466308594 -0.057593490928411484 0.0820743516087532 -0.032788753509521484 0.031114153563976288 0.047557659447193146 -0.08717244118452072 -0.06012335047125816 -0.049980711191892624 0.015590965747833252 0.07526787370443344 0.022495605051517487 -0.03362307697534561 -0.016096770763397217 -0.01909656822681427 0.0029635652899742126 0.007910028100013733 -0.08483009785413742 0.03783843666315079 -0.07710269838571548 -0.01714358478784561 -0.018874667584896088 -0.01553027331829071 -0.05454753711819649 -0.047368407249450684 -0.08654580265283585 -0.04659990221261978 -0.023540422320365906 0.09449558705091476 -0.08101527392864227 0.01997162401676178 -0.023334108293056488 0.04359365254640579 -0.04420894384384155 -0.04994852468371391 0.04128070920705795 0.03978263586759567 0.025433488190174103 0.05980261415243149 -0.054188646376132965 -0.08201681077480316 -0.0032565146684646606 -0.06100694090127945 0.014347180724143982 0.07516459375619888 0.016191959381103516 0.015348926186561584 -0.013968482613563538 -0.007320880889892578 -0.030935123562812805 0.046077661216259 -0.011494480073451996 -0.01766429841518402 -0.006989799439907074 0.026403911411762238 0.025660283863544464 -0.0005251765251159668 0.007633626461029053 -0.08974414318799973 -0.011510834097862244 0.07352235168218613 0.034003280103206635 0.09425569325685501 0.024803005158901215 -0.031830236315727234 0.005413375794887543 -0.06600123643875122 0.06661804765462875 -0.07240891456604004 0.010576225817203522 0.08543138951063156 -0.08195841312408447 -0.025624096393585205 0.06430952996015549 -0.08597301691770554 -0.00795503705739975 -0.05538177490234375 -0.08904127031564713 0.0901588723063469 0.06063681095838547 0.03427187353372574 -0.06507022678852081 0.07541310042142868 -0.03802187368273735 0.032401569187641144 -0.03245089203119278 -0.05588454008102417 0.06220986694097519 0.041361160576343536 0.0446758046746254 -0.06332822144031525 -0.09180499613285065 0.08413959294557571 -0.039220619946718216 0.05278397351503372 0.06088127940893173 -0.0679507851600647 -0.01591135561466217 -0.05659438297152519 -0.08851169794797897 -0.06751272082328796 0.04267091304063797 -0.03270319849252701 0.053425006568431854 -0.057061292231082916 0.0012227147817611694 0.07181290537118912 -0.03301379829645157 -0.03415454924106598 -0.011977776885032654 0.021537527441978455 -0.03957784175872803 0.010370597243309021 0.07483439892530441 -0.018833734095096588 0.02604030817747116 -0.08943954855203629 0.015367433428764343 -0.019890591502189636 0.04312305897474289 -0.01409168541431427 -0.08143327385187149 -0.0997786894440651 0.06768050044775009 -0.015726350247859955 -0.007163025438785553 -0.09540394693613052 -0.03002317249774933 -0.027320459485054016 0.0759570375084877 -0.03965262323617935 -0.031305573880672455 0.016107842326164246 0.08178744465112686 -0.015045858919620514 -0.03636642545461655 0.059164173901081085 -0.09810256212949753 0.07903663069009781 0.018763720989227295 0.05503518134355545 0.006336115300655365 0.01767607033252716 0.028759591281414032 -0.03921329975128174 0.02061907947063446 0.008130848407745361 -0.053437139838933945 -0.033244550228118896 -0.008835159242153168 0.08268842846155167 0.04499926418066025 0.07592121511697769 0.09433279186487198 -0.0281081423163414 -0.02712439000606537 0.03370446711778641 0.0008790642023086548 -0.03259389102458954 0.05847623199224472 0.047116704285144806 -0.015218153595924377 -0.03367350250482559 -0.03482161462306976 0.08609271794557571 0.08686795085668564 0.014821216464042664 -0.07363343238830566 0.04946479946374893 -0.04990121349692345 -0.05004764720797539 -0.08822371065616608 0.05739707499742508 0.001706838607788086 -0.08019696176052094 -0.0673343688249588 -0.018786229193210602 -0.05720430612564087 -0.03554791212081909 -0.08126012980937958 -0.07171569019556046 0.07401538640260696 0.04581116884946823 0.014193810522556305 0.07467103749513626 0.022070303559303284 0.053053028881549835 0.015596903860569 -0.06865761429071426 0.08629094809293747 -0.003001093864440918 0.08987832814455032 0.020890675485134125 0.035479165613651276 -0.08313553035259247 -0.0898529440164566 -0.09684864431619644 0.017891809344291687 0.009558036923408508 0.03324832767248154 0.055224038660526276 0.02228344976902008 0.00424657016992569 -0.06463947892189026 0.06051177531480789 0.018772423267364502 0.02503395825624466 -0.013040348887443542 -0.0640653744339943 -0.06077629327774048 -0.0883137583732605 -0.03747966140508652 0.011063352227210999 0.08621811121702194 0.04875657707452774 0.07305968552827835 0.045289523899555206 0.07983329147100449 0.09612122923135757 0.019479237496852875 0.01739095151424408 -0.0011590346693992615 -0.014274552464485168 0.025567106902599335 0.012814857065677643 0.09640660136938095 -0.02734973281621933 -0.024148687720298767 0.04689759761095047 -0.059164393693208694 0.025133304297924042 -0.053624510765075684 -0.035122618079185486 -0.09585878998041153 -0.05605145916342735 0.09784684330224991 0.09997300058603287 0.08931886404752731 0.028405703604221344 -0.02639397233724594 0.041682370007038116 0.016383133828639984 -0.05375868082046509 0.012631699442863464 0.04872199147939682 0.061125822365283966 0.046277351677417755 0.08022809773683548 0.0019221454858779907 0.06989491730928421 0.01264488697052002 0.09323637932538986 0.03811094909906387 -0.028235338628292084 -0.0649779736995697 -0.061601340770721436 -0.03476812690496445 0.03690112382173538 0.03865695744752884 -0.07189029455184937 0.01939229667186737 -0.0033223628997802734 0.052187152206897736 -0.02311001718044281 -0.03648412227630615 0.07299374788999557 0.06582940369844437 -0.0227639302611351 -0.09968425333499908 -0.060857560485601425 -0.030767321586608887 0.09995364397764206 -0.034398630261421204 0.04209551960229874 -0.02125506103038788 -0.08980473130941391 -0.0173538476228714 0.0013069882988929749 -0.02084130048751831 0.057303912937641144 -0.0036400407552719116 0.026266761124134064 0.020603738725185394 0.03445146232843399 0.05513634532690048 0.08199045807123184 0.06803268939256668 0.06221207231283188 -0.038950588554143906 0.04666096717119217 0.08747997134923935 -0.05420541763305664 -0.07645151764154434 -0.012105941772460938 -0.010466158390045166 -0.05868129804730415 0.0007029026746749878 0.001261875033378601 -0.07262285053730011 0.06310795992612839 -0.08310401439666748 -0.09721004962921143 -0.03240145742893219 0.060975588858127594 -0.08412041515111923 0.04669132083654404 -0.08569204807281494 0.08286242932081223 0.06610161811113358 -0.0346694216132164 0.013661026954650879 0.08385425060987473 -0.0869603306055069 -0.01629640907049179 0.020836494863033295 -0.07893624156713486 -0.057783592492341995 0.06525463610887527 0.05672767013311386 0.08429866284132004 -0.022928498685359955 0.09565567225217819 -0.05573589727282524 0.05969894677400589 0.0751887634396553 0.03212627023458481 -0.016057655215263367 -0.0805279016494751 -0.07892133295536041 -0.036263152956962585 0.02477363497018814 0.04975011199712753 0.0713963583111763 -0.045089710503816605 0.08323820680379868 0.09231743961572647 0.022885635495185852 0.09052128344774246 -0.0866984948515892 -0.0027835220098495483 0.050570227205753326 -0.042307283729314804 0.05062483996152878 -0.07238845527172089 0.08725925534963608 0.07494453340768814 0.07260365039110184 -0.023249566555023193 -0.07649441808462143 0.012768283486366272 -0.07963554561138153 0.01391669362783432 0.0026012882590293884 -0.07954536378383636 0.030555464327335358 0.07922293990850449 -0.06389103084802628 0.09718848019838333 -0.05616067722439766 -0.046946991235017776 0.08257631212472916 0.051194436848163605 0.08635138720273972 0.08012066036462784 -0.09454973042011261 0.0023135915398597717 0.057947732508182526 0.0069304704666137695 0.03954394906759262 -0.07356908172369003 0.03317754715681076 -0.022749997675418854 -0.061160970479249954 0.08144984394311905 -0.08818369358778 0.007741056382656097 -0.08650080114603043 0.03405406326055527 0.051641397178173065 -0.08862203359603882 0.06405400484800339 -0.08369733393192291 0.08015692979097366 -0.036817386746406555 -0.06845594942569733 0.0688372328877449 -0.0855579748749733 0.03639625757932663 0.06202281266450882 -0.06788794696331024 0.03254856914281845 -0.046440016478300095 0.07910532504320145 -0.052754271775484085 -0.0305047407746315 0.016656897962093353 -0.06734351813793182 0.0714237168431282 0.01755831390619278 0.036183618009090424 -0.06533725559711456 0.09662950783967972 0.05981145054101944 0.04028294235467911 0.07502726465463638 0.09236950427293777 0.09331034868955612 0.040835119783878326 -0.0795145183801651 -0.02970101684331894 0.07644373923540115 -0.03446440398693085 0.07965698093175888 0.08440215140581131 0.057705946266651154 0.08681655675172806 -0.037636805325746536 0.037697307765483856 -0.036251410841941833 0.015307985246181488 0.010770559310913086 -0.07147207111120224 0.09555471688508987 0.05224300175905228 0.017749786376953125 -0.09680626541376114 0.00624527782201767 -0.044678475707769394 0.07837558537721634 -0.010090604424476624 0.07534130662679672 -0.01069650799036026 -0.09531589597463608 0.005015566945075989 0.02804095298051834 -0.047592103481292725 0.07395827025175095 -0.07216896861791611 -0.09920626878738403 0.0074035897850990295 0.08329959958791733 0.09475351125001907 0.08385556191205978 0.03294863551855087 0.07949654012918472 -0.06945500522851944 -0.06979658454656601 -0.09216862916946411 0.057283125817775726 -0.0345962792634964 -0.004731819033622742 -0.0687788873910904 -0.07748154550790787 0.06705302745103836 -0.06833823025226593 -0.06637892872095108 0.020809531211853027 -0.029868662357330322 -0.042683910578489304 0.006547883152961731 0.08213479071855545 0.05491211265325546 -0.022565722465515137 0.020951591432094574 -0.039173424243927 0.08695686608552933 0.07773714512586594 -0.06366938352584839 0.022200845181941986 -0.045795928686857224 -0.0821073055267334 -0.06985445320606232 -0.08244641125202179 -0.007774651050567627 -0.07743718475103378 0.08429429680109024 0.061522819101810455 -0.01629164069890976 0.07005519419908524 0.09542310982942581 -0.06179347261786461 -0.07381850481033325 0.021881043910980225 0.05640871077775955 -0.06429414451122284 -0.033005908131599426 -0.06725974380970001 0.0845438614487648 0.002029038965702057 0.08626378327608109 -0.06159485504031181 -0.07667028903961182 0.02758295089006424 -0.007565937936306 -0.0028759241104125977 -0.0602063424885273 0.06595427542924881 -0.09742908924818039 0.03252392262220383 0.007499471306800842 0.042769648134708405 -0.018771015107631683 -0.013668335974216461 0.056472308933734894 0.03570026904344559 0.055517442524433136 0.09393639117479324 -0.08008817583322525 -0.05916813760995865 0.04230556637048721 -0.0166131854057312 -0.05731726810336113 -0.015359438955783844 -0.04243812710046768 -0.05488000065088272 0.09988295286893845 0.08000806719064713 0.017125800251960754 -0.0873202234506607 0.041855715215206146 0.0812624916434288 -0.05637923628091812 -0.04910857602953911 0.07942254096269608 -0.0641050711274147 -0.017593540251255035 -0.060430850833654404 0.010593041777610779 0.005526021122932434 -0.026252910494804382 0.017507731914520264 -0.08585365116596222 -0.0647297278046608 -0.08520355075597763 -0.04610013961791992 -0.07594917714595795 -0.07507829368114471 0.04529445618391037 0.02346893399953842 -0.021314121782779694 -0.08748983591794968 -0.014486297965049744 0.08994098752737045 0.09217911213636398 0.07831019908189774 0.052280254662036896 0.06702018529176712 -0.03275761753320694 0.023888610303401947 -0.07430275529623032 -0.0673864483833313 0.01228158175945282 0.07123909145593643 -0.04696904495358467 0.02799203246831894 0.07300279289484024 0.03154302388429642 -0.09729224443435669 -0.019096314907073975 0.017938897013664246 0.03821999579668045 0.06828472763299942 -0.08769968897104263 -0.04993666335940361 -0.028932467103004456 0.0826060101389885 0.05830218642950058 0.07060452550649643 -0.08561237901449203 -0.006217099726200104 -0.09417463839054108 0.01048232614994049 0.015747055411338806 0.01449526846408844 0.05339735001325607 -0.03314279019832611 -0.04996173456311226 0.012587085366249084 -0.017715036869049072 0.040084488689899445 0.0774751678109169 -0.028753921389579773 -0.0974060520529747 0.025754593312740326 0.08184082061052322 0.029080577194690704 0.02560221403837204 -0.00884324312210083 0.013048171997070312 -0.00031526386737823486 0.09435335546731949 -0.06909569352865219 -0.01303495466709137 -0.02299576997756958 -0.07486822456121445 0.08383380621671677 -0.09951744228601456 0.09922904521226883 -0.028082028031349182 -0.0945672020316124 0.07014454156160355 -0.0013164505362510681 0.06334931403398514 0.041293807327747345 0.022620365023612976 -0.06944644451141357 -0.0071615129709243774 0.05615221709012985 0.06460423022508621 -0.012881062924861908 0.03500586003065109 0.017143450677394867 0.03834462910890579 0.004553698003292084 -0.02765016257762909 0.04343710094690323 0.07526720315217972 -0.0034422874450683594 0.047149814665317535 -0.09084836393594742 0.034403152763843536 -0.0925946980714798 -0.09808003157377243 -0.023151837289333344 0.06144890934228897 -0.0038244128227233887 -0.02458498626947403 -0.080345019698143 -0.09932594746351242 0.08869492262601852 -0.03764075040817261 -0.05730539560317993 -0.05152304098010063 0.010481461882591248 0.0789295956492424 0.008611775934696198 0.014888860285282135 -0.04983856901526451 0.07903934270143509 -0.027328290045261383 0.06510636955499649 -0.08604898303747177 -0.055442143231630325 0.0972263291478157 0.055347807705402374 0.07582343369722366 -0.09197763353586197 0.09324217587709427 -0.04576728492975235 -0.009786561131477356 -0.023086294531822205 0.0403565838932991 0.014378093183040619 0.044441841542720795 -0.03379987180233002 -0.003420531749725342 -0.08782365173101425 0.0075812190771102905 0.09007003158330917 0.04213116317987442 -0.005793407559394836 -0.09913724660873413 -0.057161737233400345 0.0977044329047203 0.051056988537311554 -0.03748375177383423 -0.009468838572502136 -0.024119578301906586 0.07483751326799393 -0.034586429595947266 0.06977934390306473 -0.06595809757709503 -0.07879906892776489 -0.027599677443504333 0.057574279606342316 0.012479104101657867 -0.0943761020898819 -0.09043917804956436 0.028582550585269928 0.035167522728443146 0.05996101349592209 -0.0005414485931396484 -0.005669929087162018 0.06988736242055893 0.05312640219926834 -0.08915174007415771 0.08257163316011429 0.05423497408628464 0.02262955904006958 -0.0953112244606018 0.021382570266723633 -0.009880147874355316 -0.0862635150551796 0.06410441547632217 0.06639378517866135 -0.05985879898071289 0.009800851345062256 0.056842632591724396 0.09335292130708694 -0.08628759533166885 -0.03000950813293457 -0.006630398333072662 0.047150515019893646 0.021533474326133728 -0.0834367647767067 -0.05673466995358467 0.06189199537038803 0.09338679164648056 -0.04669208452105522 -0.0867641493678093 -0.03710818290710449 0.08787814527750015 0.03457433730363846 -0.0004086047410964966 -0.005732573568820953 0.008767426013946533 0.023894593119621277 -0.007272087037563324 0.08918196707963943 0.0685853436589241 0.01166146993637085 -0.08699748665094376 -0.042915429919958115 -0.06487713009119034 -0.03459255397319794 0.06352982670068741 0.012108400464057922 -0.043734919279813766 0.0006813406944274902 -0.08116433769464493 -0.044684696942567825 -0.03243476152420044 -0.05769152566790581 0.024618446826934814 -0.02915181964635849 0.03218572586774826 -0.05460098013281822 -0.08830901235342026 -0.0005193203687667847 -0.05883847549557686 0.03783009201288223 -0.033238016068935394 0.07295543700456619 0.07076693326234818 0.004069700837135315 0.005194172263145447 -0.09835673868656158 -0.058163225650787354 -0.024334535002708435 -0.08480942249298096 0.04722420126199722 0.006342209875583649 -0.06804920732975006 -0.07013378292322159 0.027358494699001312 -0.07407106459140778 -0.03228865563869476 0.07496634870767593 -0.03492534160614014 0.06409477442502975 -0.0964130088686943 0.022081390023231506 0.016704022884368896 0.04158369451761246 0.08625055104494095 0.0371052548289299 -0.08410205692052841 0.05975774675607681 -0.09604769200086594 0.06213945895433426 -0.042640116065740585 -0.08003048598766327 -0.07029582560062408 -0.060924746096134186 -0.07569070160388947 0.0043619126081466675 0.04741131514310837 -0.05422244220972061 0.021179214119911194 -0.05440552160143852 -0.0831252932548523 0.04299623519182205 0.052892886102199554 0.07133584469556808 0.0014965534210205078 0.029498599469661713 -0.09079408645629883 -0.020833909511566162 -0.09555564075708389 -0.09189821779727936 0.0996793881058693 0.053089238703250885 0.0916825607419014 0.05986880511045456 -0.011191681027412415 0.02833385020494461 -0.017258241772651672 0.027521498501300812 -0.05297931656241417 -0.0640634149312973 0.09255782514810562 -0.06282074749469757 0.08258440345525742 -0.041475869715213776 0.04747564345598221 0.08842719346284866 0.08182621747255325 -0.029012978076934814 0.07008188217878342 0.02567923814058304 -0.020874440670013428 0.010260894894599915 -0.020006753504276276 -0.06804296374320984 0.06950151175260544 0.04229331761598587 0.015141665935516357 0.028107695281505585 -0.06975485384464264 0.09245217591524124 0.0007426366209983826 -0.003800109028816223 0.07977134734392166 0.04100913554430008 -0.07586946338415146 -0.06352618336677551 -0.09854388236999512 -0.06808295845985413 0.05829542130231857 -0.003847457468509674 -0.006239175796508789 -0.022939838469028473 0.0965367928147316 0.09942115098237991 0.06433241814374924 -0.09176459163427353 0.0020086169242858887 -0.09152763336896896 -0.03193771839141846 -0.0684213638305664 0.06142439693212509 0.05773409456014633 0.09540263563394547 0.011308670043945312 -0.08929208666086197 -0.026330187916755676 -0.09149807691574097 0.04341902583837509 -0.06548351049423218 -0.0752020925283432 0.06965205818414688 0.09583199769258499 0.006193280220031738 0.08821887522935867 0.09928648918867111 0.06622112542390823 -0.07901346683502197 -0.04189995676279068 -0.0450403206050396 -0.05654376745223999 0.04904354363679886 0.004734233021736145 0.05356576293706894 -0.02259005606174469 0.02256464958190918 -0.04004761204123497 0.022411130368709564 -0.0929129347205162 0.09703326970338821 0.027326710522174835 -0.04519408941268921 -0.09987366199493408 0.026163063943386078 0.098170705139637 0.07995451241731644 0.062007538974285126 0.067285917699337 -0.035309769213199615 0.006869517266750336 -0.05307849869132042 -0.09587623924016953 -0.03001680225133896 0.09027492254972458 -0.09829950332641602 0.028155095875263214 0.0370698943734169 -0.021683357656002045 -0.024987533688545227 0.04125920683145523 -0.034467317163944244 -0.011878624558448792 0.05238790065050125 0.016444042325019836 -0.0048366934061050415 -0.04323958232998848 0.06177107244729996 -0.06327235698699951 -0.028758585453033447 -0.0524476058781147 0.05950915068387985 -0.06395838409662247 -0.09433668106794357 -0.03659068048000336 0.057777173817157745 -0.04442400857806206 -0.012897573411464691 0.0664549246430397 0.0968882218003273 0.08791936188936234 -0.06103941425681114 0.09007132798433304 0.09703301638364792 -0.058635164052248 0.06829071789979935 -0.08782114833593369 -0.09136151522397995 -0.09798178821802139 -0.009649336338043213 0.09073757380247116 0.08110076934099197 -0.06643669307231903 -0.016654416918754578 0.06752962619066238 0.07505173236131668 0.005597271025180817 -0.010008096694946289 0.03934185951948166 0.07969889789819717 0.03897715359926224 -0.060155510902404785 0.03428352624177933 -0.033656731247901917 0.051492221653461456 -0.04316762834787369 -0.037408292293548584 0.06444466859102249 0.09488231688737869 -0.044167984277009964 0.034802861511707306 0.06837791949510574 -0.07361266762018204 0.04751709848642349 -0.03375507891178131 0.028928585350513458 -0.0618630051612854 0.09015121310949326 0.0580119863152504 0.030192025005817413 0.056175000965595245 -0.08984167873859406 0.07154030352830887 -0.038284994661808014 -0.08624573796987534 0.09515596181154251 0.05746469646692276 0.06415876001119614 -0.08933490514755249 0.017329812049865723 -0.059489406645298004 0.09517759829759598 -0.09519615024328232 0.057322315871715546 -0.03793753311038017 0.05341828614473343 0.05699469894170761 -0.09964976459741592 0.01782689243555069 -0.09374850243330002 0.041643209755420685 0.0411028191447258 -0.06031298637390137 -0.09516649693250656 -0.012130901217460632 0.00010710954666137695 0.07752401381731033 0.008693233132362366 -0.021169587969779968 0.0033119916915893555 0.022875413298606873 0.06373918801546097 0.02588338404893875 0.041490741074085236 -0.03906046226620674 0.007956370711326599 0.06275273114442825 -0.0562150739133358 0.02658303827047348 -0.06947968900203705 -0.09855771064758301 0.009362518787384033 0.0011317282915115356 -0.06856553256511688 0.05571199208498001 0.04681286960840225 0.018196985125541687 -0.014606371521949768 0.028276152908802032 0.07195381075143814 0.062274269759655 -0.03339049965143204 0.06770545989274979 -0.026165984570980072 0.031611569225788116 0.047490037977695465 -0.0022885575890541077 -0.08004270493984222 0.06859754770994186 0.052313871681690216 0.004105627536773682 -0.01870347559452057 0.026328690350055695 0.037116266787052155 -0.07443773746490479 0.02512458711862564 0.0027577877044677734 0.07101420313119888 -0.04313056543469429 0.0766335055232048 0.030988536775112152 -0.06249575689435005 -0.01738274097442627 0.08905486017465591 0.007497847080230713 -0.010628342628479004 0.08868134766817093 -0.004372432827949524 0.06056661158800125 0.040275491774082184 -0.0607898011803627 -0.022750258445739746 -0.04463822767138481 0.0701712891459465 0.03607732802629471 -0.08354010432958603 -0.0545450821518898 -0.03576836735010147 -0.07346338033676147 0.038749583065509796 0.05024410039186478 -0.05581164360046387 -0.05479266867041588 -0.06142694875597954 0.0978623703122139 -0.025692902505397797 0.09718967229127884 0.07876553386449814 -0.02625296264886856 0.06210031360387802 0.02532554417848587 0.08207448571920395 -0.0993904396891594 -0.0559331551194191 -0.02892317622900009 -0.01318744570016861 -0.017560340464115143 0.06118250638246536 0.08201096206903458 -0.011000357568264008 0.05240223556756973 0.08223225921392441 0.0256352499127388 0.011818744242191315 -0.09376569837331772 0.004722274839878082 -0.057028304785490036 -0.01792149245738983 -0.010434232652187347 0.03765370696783066 0.027125723659992218 -0.024551227688789368 -0.019918106496334076 -0.07126472145318985 0.043755240738391876 -0.09912101179361343 0.05997396260499954 -0.09379738569259644 -0.042984284460544586 -0.02227228879928589 0.055509500205516815 0.04805483669042587 0.09248975664377213 -0.07849176973104477 0.01668870449066162 -0.024781323969364166 -0.050506044179201126 -0.07370579242706299 -0.07385344803333282 0.08907865732908249 0.022540472447872162 -0.002312980592250824 0.09959057718515396 0.03511614352464676 0.045693106949329376 -0.03856753185391426 0.07267969101667404 -0.04246345907449722 -0.000145837664604187 -0.06711331009864807 -0.038312673568725586 -0.015346921980381012 0.06758888810873032 -0.026424266397953033 0.03514731675386429 -0.022791288793087006 -0.07723329216241837 -0.02016681432723999 0.0428193137049675 -0.03517701476812363 0.0572335347533226 -0.023530028760433197 -0.07740799337625504 0.0540657714009285 -0.09008210152387619 0.016190551221370697 0.08028955012559891 0.07418075948953629 -0.017963029444217682 0.06682508438825607 -0.03180702030658722 0.010382868349552155 -0.032498955726623535 -0.06470955908298492 0.031654082238674164 -0.06109672784805298 -0.0711524710059166 0.01181408017873764 0.012051582336425781 0.09649110585451126 0.015929602086544037 0.019676223397254944 0.06609060615301132 0.002218782901763916 -0.03630489110946655 -0.01409672200679779 0.014742255210876465 0.07499215751886368 -0.022320367395877838 0.02592109888792038 -0.08256842941045761 -0.0888013169169426 0.08313819020986557 -0.09699489921331406 -0.008482232689857483 -0.09980236738920212 -0.01634027063846588 -0.0934770256280899 0.04209069162607193 0.02652478963136673 -0.044846177101135254 0.08826201409101486 -0.011930190026760101 -0.0449865460395813 0.053560324013233185 0.05893642455339432 0.02505897730588913 -0.05251305177807808 0.07225058227777481 -0.06794516742229462 0.05921543389558792 -0.04483679682016373 -0.01214754581451416 0.07289556413888931 -0.09534802287817001 -0.025366827845573425 0.011780157685279846 -0.09646125137805939 -0.02908647060394287 0.04078906029462814 -0.06798750162124634 -0.09505770355463028 0.08406112343072891 -0.03228888660669327 0.08253010362386703 0.017682649195194244 -0.05690908432006836 0.01053708791732788 -0.01049572229385376 -0.05130261182785034 -0.04641310125589371 0.008996352553367615 -0.022451244294643402 0.056458182632923126 0.006095528602600098 -0.061947524547576904 -0.006680026650428772 0.07779084891080856 0.03989461809396744 0.06997350603342056 -0.008600786328315735 -0.04637516662478447 -0.0639290064573288 -0.05596357583999634 -0.05851355940103531 0.08031163364648819 -0.09690078347921371 -0.07401325553655624 -0.037835050374269485 0.027737043797969818 -0.07926447689533234 0.0373077318072319 -0.013582803308963776 0.061549507081508636 -0.03564707189798355 0.005418658256530762 -0.06597940623760223 0.07572551816701889 -0.022753000259399414 0.08121699839830399 -0.07096445560455322 -0.014293946325778961 0.04547923058271408 0.01808641105890274 -0.08865281194448471 -0.016456469893455505 0.03219188004732132 0.025313429534435272 0.010924853384494781 0.07246682792901993 -0.020624995231628418 0.03689228743314743 0.06816243380308151 -0.048240482807159424 -0.0988728404045105 0.04185425490140915 0.06870903819799423 -0.014508739113807678 -0.03909282758831978 -0.08270309120416641 0.08268769830465317 -0.05481969192624092 -0.01944746822118759 0.012449666857719421 -0.006976008415222168 -0.02751723676919937 0.07743700593709946 9.516626596450806e-05 -0.07549017667770386 -0.0036995187401771545 -0.0909251943230629 -0.02095840871334076 -0.02211829274892807 0.09564699977636337 0.09621307998895645 0.06750739365816116 0.061967842280864716 0.0024731531739234924 0.08810605853796005 0.02776915580034256 0.06142783910036087 -0.00946490466594696 0.08712523430585861 0.06700373440980911 -0.08091554790735245 0.01929505169391632 0.004014633595943451 0.07591123133897781 0.010730937123298645 0.051838137209415436 0.017567932605743408 0.038876183331012726 0.08664266020059586 -0.08044397830963135 -0.08615988492965698 -0.08956805616617203 -0.0414726622402668 -0.0968438982963562 -0.06837806850671768 0.09086231142282486 -0.047282613813877106 0.053227923810482025 0.07526189833879471 0.052569665014743805 0.09013617783784866 -0.0709051638841629 0.05152813345193863 -0.03929634019732475 -0.09717763960361481 0.07213694602251053 0.059835873544216156 0.06486480683088303 -0.07171056419610977 0.011772334575653076 0.0921451672911644 -0.06982845067977905 0.06054475158452988 0.09067519754171371 -0.01996694505214691 0.05594450980424881 0.06400985270738602 0.04998553544282913 -0.07030560821294785 0.041913993656635284 0.002460204064846039 0.019616827368736267 -0.06761762499809265 -0.07322639226913452 -0.0925600528717041 -0.04778412729501724 0.09985830634832382 -0.06153712421655655 0.00937710702419281 0.0171021968126297 -0.009674742817878723 -0.029809370636940002 -0.01889469474554062 -0.011539772152900696 -0.045847415924072266 -0.00014537572860717773 0.02083192765712738 -0.00027117878198623657 0.06414448469877243 0.0644214078783989 -0.04249242693185806 0.09837985783815384 -0.091846764087677 -0.019887052476406097 -0.06918741762638092 0.09507537633180618 0.03929098695516586 -0.029406346380710602 0.09307315200567245 -0.0945206806063652 -0.06256087124347687 -0.06980309635400772 0.028717227280139923 0.005950823426246643 -0.015824779868125916 0.05501561611890793 0.09377280622720718 0.03987561911344528 -0.013882435858249664 0.01770162582397461 0.005546852946281433 0.09545538574457169 0.08937560766935349 -0.05632906034588814 -0.04038368538022041 0.09837324172258377 0.012115105986595154 0.07690893858671188 -0.08756349235773087 6.584078073501587e-05 -0.0005576163530349731 -0.06978851556777954 0.08702873438596725 -0.07672472298145294 -0.024383224546909332 0.09671392291784286 0.00016494840383529663 0.008860170841217041 -0.024899721145629883 -0.038318123668432236 -0.006937339901924133 -0.02618245780467987 0.08046498149633408 0.05086112767457962 -0.0661260187625885 -0.004145070910453796 0.08691122382879257 0.056351132690906525 0.005233645439147949 0.04199729114770889 -0.07523684203624725 0.053608186542987823 -0.015382587909698486 -0.07705776393413544 -0.08296698331832886 -0.08814670145511627 -0.05718395859003067 0.006704941391944885 -0.028484895825386047 0.028193436563014984 -0.010184206068515778 0.09066898375749588 -0.023690417408943176 0.05638841539621353 -0.020430169999599457 0.055103011429309845 0.09188538044691086 0.055440254509449005 -0.08900805562734604 0.0910467877984047 0.09766469150781631 -0.04340726137161255 0.007974348962306976 -0.006075046956539154 0.09734409302473068 -0.08780733495950699 -0.044211842119693756 -0.024468205869197845 -0.08721144497394562 -0.05589346960186958 -0.0334099680185318 0.060877926647663116 0.028781868517398834 0.09840608388185501 0.06425341218709946 -0.005752168595790863 0.07677186280488968 -0.03875391557812691 0.030541010200977325 -0.09281640499830246 0.07945913821458817 0.07870424538850784 0.06613624840974808 -0.013701394200325012 0.012456759810447693 0.08219636231660843 -0.0243590846657753 -0.04741973802447319 -0.02617260068655014 -0.03735647350549698 0.0870635136961937 0.08000145107507706 0.09970814734697342 0.07861185818910599 0.07798715680837631 -0.03193690627813339 0.05025065690279007 -0.009712494909763336 0.08653534203767776 -0.028811514377593994 0.004737570881843567 0.00565493106842041 0.04470721632242203 0.05464128404855728 0.07560303062200546 -0.014395937323570251 -0.08034535497426987 -0.048443473875522614 -0.047971345484256744 -0.033450230956077576 0.07926168292760849 -0.0906926617026329 -0.01930292695760727 -0.00264720618724823 0.04289893060922623 -0.04203684255480766 0.016456186771392822 -0.0024092569947242737 -0.027273669838905334 -0.01682548224925995 -0.05822273716330528 0.013527356088161469 -0.035741522908210754 -0.045532431453466415 0.042493708431720734 -0.08895017951726913 0.02266697585582733 -0.06970550119876862 -0.05053424835205078 -0.046184755861759186 -0.02787090837955475 0.08178878575563431 -0.07133559882640839 -0.02893124520778656 -0.0018057376146316528 0.022961176931858063 -0.03486732393503189 0.03882960230112076 -0.0858088880777359 -0.02476433664560318 -0.03669019043445587 -0.08023159205913544 -0.01738164573907852 -0.0403900146484375 0.06815262883901596 -0.0790228471159935 0.06376887112855911 0.0673355832695961 0.09341946989297867 0.03678307682275772 -0.006291091442108154 -0.01245030015707016 0.07522522658109665 -0.02783370018005371 0.014791309833526611 0.08412165194749832 -0.04372072219848633 -0.09406337887048721 0.07497889548540115 0.07205291837453842 0.012260399758815765 0.030554048717021942 -0.06729590892791748 0.09397507458925247 -0.09294014424085617 -0.06812337785959244 -0.08327120542526245 -0.06375788152217865 -0.09796472638845444 0.027349643409252167 0.04971269518136978 -0.004921652376651764 -0.009151361882686615 0.07928081601858139 0.041157372295856476 -0.09410573542118073 0.052405424416065216 0.0802045539021492 -0.015832439064979553 0.04077266901731491 0.03935267776250839 -0.08192237466573715 0.08254357427358627 0.017339393496513367 0.08142978698015213 0.029571183025836945 -0.050696589052677155 0.06364443153142929 0.02289123833179474 0.03684128075838089 -0.09410759061574936 0.09244703501462936 0.016490496695041656 -0.04028395563364029 0.0392739400267601 0.08372189849615097 -0.01796257495880127 0.03377745300531387 -0.04793505743145943 0.03743935376405716 0.011576667428016663 -0.020157024264335632 -0.07596907764673233 0.07926016300916672 0.05326027423143387 -0.0426446795463562 0.09658155590295792 -0.020256295800209045 0.0592007115483284 0.020165763795375824 0.08529461175203323 0.013359643518924713 0.0664299800992012 0.008661702275276184 -0.05555281788110733 -0.010443627834320068 0.004733189940452576 -0.038188230246305466 -0.0003304332494735718 -0.0005994439125061035 -0.017814815044403076 -0.02258266508579254 0.09672040492296219 -0.0012994185090065002 -0.024689659476280212 0.04157049208879471 0.08631079643964767 0.04425816982984543 0.09629849344491959 0.0525045171380043 -0.07508239895105362 -0.045169949531555176 -0.06768512725830078 -0.03296949714422226 -0.06700128316879272 -0.07886111736297607 -0.0755947008728981 0.06818024069070816 -0.010387636721134186 