0.33157962560653687 -0.42826515436172485 0.6197473406791687 -0.6048359870910645 0.5894432663917542 -0.24018704891204834 -0.5044731497764587 0.167829692363739 0.17423921823501587 -0.35344743728637695 -0.3205484449863434 0.31667155027389526 0.45445138216018677 0.6340181231498718 0.3229963183403015 0.649723470211029 0.5080922245979309 -0.14947736263275146 0.15610933303833008 -0.6324601173400879 -0.4896968901157379 -0.26698392629623413 -0.6073130369186401 0.3438395857810974 0.4105406403541565 -0.5896533727645874 0.10151875019073486 0.1149970293045044 0.7012709975242615 -0.5271958708763123 -0.5228429436683655 -0.06059318780899048 -0.535891592502594 -0.5181065797805786 0.5148869156837463 -0.08579689264297485 0.17172402143478394 0.5593095421791077 -0.2695125639438629 0.6299640536308289
0.3420751690864563 -0.03170901536941528 -0.41267362236976624 0.18364012241363525 0.4439571499824524 -0.2728292644023895 0.6040807366371155 -0.4622028172016144 -0.10615038871765137 -0.4631417691707611 0.5039065480232239 0.6871427893638611 -0.09250473976135254 0.5533685088157654 0.3044378161430359 0.20495647192001343
-0.6811873912811279 0.5443225502967834 0.11800932884216309 -0.3753485381603241 0.6229879260063171 0.49327439069747925 0.40880292654037476 0.034313082695007324
-0.6346704363822937 0.23912066221237183 0.550331175327301 0.33266085386276245 0.1839895248413086 -0.15937358140945435 -0.10900235176086426 0.07541251182556152
