0.43879395723342896 -0.12975507974624634 -0.629676103591919 0.6938969492912292 -0.17913132905960083 -0.3548718988895416 -0.5871252417564392 0.45277637243270874 0.42879194021224976 -0.27980610728263855 0.5695342421531677 0.26873403787612915 0.06078231334686279 -0.11258441209793091 0.5639949440956116 0.2836862802505493 -0.03300577402114868 0.322207510471344 -0.6153938174247742 0.2959488034248352 0.3538094162940979 -0.3525146245956421 -0.18689078092575073 0.2676472067832947 0.49770480394363403 -0.3073519170284271 -0.6955962777137756 -0.6976549029350281 0.47360652685165405 0.4375947117805481 -0.6744772791862488 0.21852034330368042 0.5166191458702087 0.1596848964691162 -0.24167636036872864 0.603252112865448 -0.1464076042175293 0.4119113087654114 0.09679317474365234 -0.29823681712150574
-0.6356906294822693 0.37270623445510864 0.013422667980194092 -0.7029268741607666 0.30220288038253784 -0.5877425074577332 -0.5045488476753235 -0.6554266214370728 -0.1958664059638977 -0.09617024660110474 -0.3639930784702301 0.379710853099823 0.2299686074256897 0.1620553731918335 0.3703133463859558 0.4209570288658142
-0.36591681838035583 -0.04173034429550171 -0.6763219833374023 0.6234447360038757 0.05043637752532959 0.05775266885757446 0.6568275094032288 0.2819012403488159
0.4654635787010193 -0.4011499881744385 0.19577640295028687 0.6049163937568665 0.30957716703414917 -0.45842796564102173 -0.41830384731292725 -0.3896563649177551
