-0.16158485412597656 0.6064597964286804 -0.1891423463821411 0.511313259601593 0.5660720467567444 -0.009517490863800049 -0.5434378981590271 0.5541104674339294 -0.6676972508430481 0.2937273383140564 -0.3024917244911194 -0.40428251028060913 -0.10356104373931885 -0.529750645160675 -0.6819176077842712 0.483356773853302 -0.12270987033843994 0.19998830556869507 0.5172774195671082 0.6357908844947815 0.15826940536499023 0.0481877326965332 0.03341948986053467 -0.19725406169891357 -0.14860862493515015 -0.03828161954879761 -0.35845860838890076 0.24571681022644043 0.40413790941238403 -0.6286476254463196 -0.1507975459098816 0.53799968957901 0.37008136510849 0.4067683815956116 0.5016339421272278 -0.11257880926132202 -0.17403560876846313 -0.5325585603713989 -0.33426961302757263 0.6384972929954529
0.06837135553359985 -0.049217164516448975 -0.6258146166801453 -0.16804563999176025 0.26935476064682007 0.6449124217033386 0.36411052942276 -0.5446136593818665 -0.5560854077339172 0.4043571352958679 0.6992254853248596 0.6759244799613953 0.2747858762741089 -0.13225185871124268 0.5369207262992859 -0.3906864523887634
0.5153096318244934 0.04349362850189209 -0.19987833499908447 0.154649019241333 0.3655911087989807 -0.34290069341659546 0.6279870867729187 -0.40383121371269226
0.36223477125167847 -0.32179075479507446 0.6410035490989685 -0.2572939395904541 -0.2806262671947479 0.4644443392753601 0.5071539282798767 0.2926904559135437
