-0.008905669674277306 -0.039882346987724304 -0.023685239255428314 -0.29535022377967834 -0.21453875303268433 -0.16604582965373993 0.09797149151563644 -0.02208573743700981 -0.5919761657714844 -0.10118173062801361 0.33491653203964233 -0.4767628610134125 0.08904799818992615 0.18287110328674316 0.36440980434417725 0.16504956781864166 -0.4917634427547455 -0.15083789825439453 -0.469070702791214 -0.39172589778900146 -0.06023457646369934 0.540283739566803 0.4149287939071655 -0.11800449341535568 -0.15953698754310608 -0.5676766633987427 -0.9726812243461609 0.09454049170017242 -0.11556227505207062 0.22015060484409332 0.2780548334121704 0.028376566246151924 0.03849884867668152 -0.38078179955482483 -0.19898280501365662 0.3275194764137268 0.009696257300674915 0.060226935893297195 0.34867072105407715 -0.035823289304971695 -0.23690743744373322 0.2185998111963272 0.10450534522533417 -0.33241569995880127 -0.12204788625240326 -0.3338145315647125 0.5594847202301025 -0.13200485706329346 -0.4752853810787201 -0.2769094705581665 0.4169996976852417 -0.21071620285511017 0.2049759179353714 -0.5480813980102539 0.48706260323524475 0.3764834702014923 0.05561765283346176 -0.32669755816459656 -0.07595888525247574 -0.02351396717131138 0.4104316830635071 0.3461269736289978 0.30001330375671387 0.19598188996315002 0.5575414896011353 -0.38571643829345703 -0.7156173586845398 0.3720371127128601 0.1420968621969223 0.6589154601097107 0.11443112045526505 -0.13915082812309265 0.22601930797100067 -0.2294795960187912 -0.3333558738231659 0.3511163592338562 0.24611404538154602 0.3028530776500702 0.185796856880188 -0.1898280829191208 -0.5088216662406921 0.49872705340385437 0.253627210855484 -0.32799458503723145 -0.002380508929491043 -0.19119441509246826 -0.21443209052085876 0.0916861891746521 -0.049348145723342896 -0.004399026278406382 0.38482844829559326 -0.05752904713153839 -0.15634816884994507 -0.7332809567451477 -0.4076792597770691 0.19502994418144226 1.0189645290374756 -0.15898573398590088 -0.1445249766111374 0.12326627224683762 -0.014487497508525848 -0.25229349732398987 -0.45789340138435364 0.1325552612543106 0.5920912623405457 -0.1736956238746643 -0.5382127165794373 0.2193872630596161 0.27673882246017456 0.3647841811180115 -0.17231403291225433 -0.12077710032463074 -0.21855629980564117 -0.06623970717191696 -0.3490765392780304 0.029065223410725594 0.625613272190094 0.23698604106903076 0.0708867609500885 -0.4275367856025696 -0.06456177681684494 0.42367178201675415 0.3617715537548065 -0.0792078748345375 -0.22573916614055634 0.05349813774228096 -0.4576771557331085 0.23160681128501892 0.7682155966758728 0.5271722078323364 0.3294100761413574 0.16373887658119202 -0.22565391659736633 -0.58826744556427 -0.4292023479938507 0.3151701092720032 0.5547041893005371 0.35899585485458374 -0.17356260120868683 0.042400017380714417 -0.47492480278015137 -0.3465349078178406 -0.30391550064086914 0.047790516167879105 -0.2947413921356201 0.22803734242916107 -0.6167798638343811 -0.011200291104614735 0.04259895905852318 0.12937375903129578 -0.3516780436038971 -0.19753223657608032 -0.47719430923461914 -0.01456076093018055 -0.14603577554225922 0.20922230184078217 0.683263897895813 0.46915197372436523 0.13417653739452362 -0.2847483158111572 0.14181184768676758 0.048547789454460144 0.6909624934196472 -0.22243107855319977 -0.16116438806056976 0.14157480001449585 -0.2118259072303772 0.33974218368530273 0.26346519589424133 0.40340957045555115 0.24301494657993317 0.16197435557842255 -0.5620983242988586 -0.3842240273952484 -0.2475433498620987 0.5671406984329224 -0.4416643977165222 0.3726355731487274 -0.24677062034606934 0.22804906964302063 -0.5640554428100586 -0.21091517806053162 -0.08953923732042313 0.13364340364933014 -0.6131798028945923 0.33274900913238525 -0.44845151901245117 0.18117614090442657 -0.01154940016567707 -0.10955952107906342 -0.15202881395816803 -0.5022867918014526 -0.2917049527168274 0.2849120795726776 -0.06359775364398956 0.3407168984413147 0.23607052862644196 0.22329305112361908 -0.04618285596370697 -0.19034995138645172
0.0 0.0 0.0 0.0 0.0
-0.1615397185087204 -0.4338356554508209 0.09164135903120041 -0.01685221679508686 -0.06502643972635269 -0.1317378729581833 0.020417550578713417 -0.1211102306842804
-0.0485563650727272 0.07490882277488708 -0.1566784381866455 0.336372047662735 -0.03744393214583397 0.2621592581272125 0.07609765231609344 0.026077648624777794 -0.2241315394639969 -0.2385258972644806 0.060685403645038605 -0.2396189570426941 0.03791604936122894 0.09329509735107422 0.21250396966934204 -0.26549574732780457 -0.4240483343601227 -0.3674922287464142 -0.1713377833366394 0.06933924555778503 -0.004474120680242777 0.10592429339885712 0.024537181481719017 -0.11642137169837952 -0.2395608127117157 -0.020905762910842896 0.019061286002397537 -0.15401922166347504 0.09377532452344894 -0.09173513203859329 -0.06019407883286476 -0.1603998988866806 -0.1550651639699936 -0.22192257642745972 0.09289582073688507 -0.08248615264892578 -0.0721922218799591 -0.20550419390201569 -0.20629042387008667 -0.05567863583564758 -0.16166967153549194 0.10160040855407715 -0.08560936152935028 0.204855814576149 -0.0045884838327765465 0.008155489340424538 -0.0752246230840683 -0.08285006880760193 0.10318344831466675 0.13641193509101868 0.07817906141281128 0.07388172298669815 -0.09105974435806274 0.3116951882839203 0.056493405252695084 0.07328956574201584 -0.2155226618051529 0.23495875298976898 -0.0002914036449510604 -0.087058886885643 0.259381502866745 0.022004347294569016 -0.09620437771081924 -0.32970860600471497 0.17483898997306824 0.011480848304927349 0.08852808177471161 -0.11411645263433456 0.027143465355038643 -0.12865965068340302 0.09397679567337036 -0.12228108942508698 -0.0206294022500515 0.04017994925379753 -0.006841186434030533 -0.0075064185075461864 0.05376607924699783 0.012810362502932549 -0.294646292924881 -0.3478291928768158 0.1438552737236023 -0.21034789085388184 -0.004640513565391302 -0.13930387794971466 -0.03451717272400856 0.10636173188686371 0.0672714114189148 0.1347474753856659 -0.020457692444324493 0.0890526995062828 -0.047905709594488144 0.17351892590522766 0.007791598327457905 0.010445990599691868 -0.18458177149295807 -0.22862376272678375 0.054346900433301926 -0.17292679846286774 -0.06758856028318405 -0.2137795090675354 -0.10705529153347015 -0.1548767238855362 0.09497301280498505 -0.0458599254488945 0.2071380764245987 -0.20340421795845032 -0.002299768151715398 0.13997939229011536 -0.20155911147594452 0.0062004635110497475 -0.18691189587116241 -0.12045606970787048 -0.24754013121128082 -0.08475662767887115 0.06582364439964294 0.006924596149474382 0.1891084462404251 0.0770399197936058 -0.17276214063167572 -0.2833864986896515 -0.1984442174434662 0.09501618146896362 -0.09261514246463776 0.2119355946779251 0.07368660718202591 0.10686428099870682 0.11373836547136307 -0.14667150378227234 0.08424150198698044 -0.039294078946113586 -0.17963722348213196 -0.009699004702270031 0.17555756866931915 -0.06387952715158463 0.04961172863841057 0.047743603587150574 -0.16822083294391632 0.0903412476181984 0.10761340707540512 -0.17226392030715942 0.2040930837392807 -0.11726798862218857 -0.03859134018421173 -0.3180956244468689 0.00970472302287817 -0.08322117477655411 -0.2179967761039734 0.09753495454788208 0.014082209207117558 0.1118706464767456 -0.09546900540590286 0.1462501436471939 -0.0172132458537817 0.006064896937459707 0.06774496287107468 0.016066234558820724 0.01735650561749935 0.03324513137340546 -0.16326867043972015 -0.0674038901925087 -0.12452050298452377 -0.10368500649929047 0.11830869317054749 0.03259674087166786 -0.045340023934841156 -0.13090138137340546 -0.19791017472743988 -0.19376583397388458 -0.110832579433918 0.1220579519867897 -0.10454297065734863 -0.034609731286764145 -0.07766992598772049 0.12160255759954453 -0.09812972694635391 0.050101060420274734 0.047858599573373795 0.02430896833539009 -0.29505619406700134 -0.02118545025587082 -0.1597212851047516 -0.0461873859167099 -0.024837186560034752 0.026193756610155106 -0.17442941665649414 0.13573074340820312 0.004818559158593416 -0.26244238018989563 0.11393087357282639 0.004232535604387522 0.08479072153568268 -0.08313160389661789 0.09251601994037628 0.1012055054306984 -0.08425140380859375 -0.27617356181144714 -0.004526076838374138 0.08054431527853012 0.0298997163772583 -0.20573386549949646 -0.03663591295480728 0.050782375037670135 -0.20024706423282623 0.006767702754586935 -0.02771289087831974 0.14451947808265686 0.07301001995801926 -0.2813355624675751 0.16747891902923584 0.09994123876094818 -0.046445880085229874 -0.15787112712860107 0.043764591217041016 -0.005902669858187437 -0.09013102203607559 -0.1555970311164856 -0.025728747248649597 0.11445321887731552 -0.16811136901378632 -0.15517102181911469 -0.21824118494987488 0.11444833874702454 0.053038205951452255 -0.08609748631715775 0.09930238872766495 -0.049886249005794525 -0.0625072494149208 -0.18431325256824493 -0.12584854662418365 0.1327681988477707 0.24972666800022125 -0.21084073185920715 -0.1071542277932167 -0.09712269902229309 0.012305823154747486 0.08748137950897217 -0.014963881112635136 -0.15777380764484406 0.02287149429321289 0.005942130461335182 -0.05712178349494934 -0.1363808959722519 -0.019831780344247818 -0.10591742396354675 0.18068116903305054 0.13023440539836884 0.030371496453881264 -0.07429515570402145 -0.09528719633817673 -0.04768095538020134 9.840578422881663e-05 0.01724047213792801 0.2586511969566345 0.09724858403205872 -0.11583950370550156 -0.30848249793052673 0.039750680327415466 0.04373861476778984 -0.5088579058647156 -0.050851721316576004 0.17182858288288116 -0.1220608800649643 -0.08470294624567032 0.015206682495772839 -0.06178611144423485 0.14050047099590302 -0.04883328452706337 -0.1216805949807167 -0.07522128522396088 -0.07165323197841644 -0.2382495105266571 -0.12990990281105042 0.16946658492088318 0.036359041929244995 -0.2683849334716797 0.012044012546539307 0.1482742726802826 0.00866859219968319 -0.13063128292560577 0.13043315708637238 -0.02717692404985428 0.10295723378658295 0.10370689630508423 0.018851736560463905 0.14844031631946564 0.06706178933382034 0.055177390575408936 0.10997025668621063 -0.18943579494953156 -0.005999081768095493 0.30385270714759827 -0.19159215688705444 -0.06531042605638504 0.02804957702755928 -0.14962318539619446 -0.19667363166809082 0.12065266072750092 -0.08403707295656204 -0.0450231209397316 0.03514641895890236 0.2308434247970581 0.09381438046693802 -0.18373388051986694 -0.2450055330991745 0.0767126977443695 -0.0670645534992218 -0.221505269408226 0.05337882414460182 -0.13542556762695312 -0.09876688569784164 -0.3958395719528198 0.029541634023189545 -0.08997268974781036 0.04675177112221718 0.0584075041115284 -0.1472005844116211 -0.2249223291873932 0.002461853204295039 -0.14118272066116333 -0.031556058675050735 -0.0867142379283905 0.15227825939655304 0.0354142040014267 -0.10048027336597443 -0.03908427804708481 0.03019222617149353 0.01822228915989399 -0.0011970468331128359 -0.1046198308467865 -0.11617141216993332 0.04907683655619621 -0.10893512517213821 -0.03116292878985405 0.006858181674033403 0.04211319610476494 -0.05274982005357742 -0.14916153252124786 0.1575174331665039 0.065911203622818 -0.18990717828273773 -0.017072319984436035 0.07161525636911392 -0.19262701272964478 -0.1808212846517563 0.05139593034982681 -0.0879630520939827 0.16822099685668945 0.020531892776489258 -0.06344307214021683 -0.012753566727042198 0.001519288052804768 0.015698887407779694 -0.08557458221912384 -0.0634370818734169 -0.13873329758644104 -0.037059236317873 0.11242306232452393 0.1673273891210556 0.3384305536746979 -0.17530623078346252 -0.08725746721029282 -0.03807725012302399 -0.027682624757289886 -0.05924266204237938 0.25178393721580505 -0.3122556209564209 0.2129766196012497 0.09723944962024689 0.062275782227516174 -0.07741782814264297 -0.06442952156066895 -0.20915839076042175 -0.11858073621988297 -0.051570042967796326 -0.1589118242263794 0.07333499938249588 0.1517326980829239 0.1213555857539177 -0.09051921963691711 0.0012548284139484167 0.23459261655807495 0.15748290717601776 -0.19121961295604706 -0.4323715567588806 0.06987237185239792 -0.14093178510665894 -0.0611729770898819 -0.011578116565942764 -0.0767223984003067 -0.04382479190826416 -0.09855242073535919 0.14289642870426178 -0.09401162713766098 0.24015453457832336 -0.2106005698442459 0.09679513424634933 -0.20847836136817932 -0.13235674798488617 0.10067277401685715 0.1508241891860962 -0.06604431569576263 0.020245833322405815 -0.32384786009788513 -0.1514623612165451 -0.042400360107421875 0.060469940304756165 -0.18421754240989685 0.15230344235897064 -0.1883697807788849 -0.15240342915058136 0.17990727722644806 -0.12017375230789185 0.03722015395760536 0.19966517388820648 0.17827296257019043 0.08216695487499237 -0.25929775834083557 -0.057492636144161224 -0.024622570723295212 0.032486774027347565 -0.07339230179786682 0.13574251532554626 -0.11545287072658539 0.14271746575832367 0.202619731426239 -0.11465441435575485 -0.12805694341659546 0.00823953840881586 0.15979771316051483 0.08316077291965485 -0.03602447733283043 -0.19667373597621918 0.017891256138682365 -0.22820553183555603 0.25425848364830017 -0.03878039866685867 -0.0260448157787323 -0.06401971727609634 -0.22417625784873962 -0.11286602914333344 -0.1904933601617813 0.03201333060860634 -0.08153349906206131 -0.05531330034136772 -0.18970906734466553 0.048668306320905685 0.02166990377008915 -0.017718646675348282 -0.42325878143310547 0.02643323689699173 0.13938884437084198 -0.22765392065048218 0.03778141364455223 0.1536937803030014 0.0276777446269989 -0.19878682494163513 -0.32359328866004944 -0.08933133631944656 0.18991616368293762 -2.284697075083386e-05 -0.015280810184776783 -0.06924706697463989 -0.2107260823249817 -0.1430962234735489 -0.4209180474281311 0.07369084656238556 0.09438394010066986 -0.2829573452472687 0.09679015725851059 0.09522479772567749 -0.05458710715174675 -0.08327022194862366 -0.13038723170757294 0.011706658639013767 0.10685564577579498 0.017657192423939705 -0.01752249151468277 0.15344344079494476 -0.17480142414569855 -0.17387813329696655 0.023279596120119095 -0.01115367840975523 -0.2156323343515396 -0.15207965672016144 0.013805653899908066 -0.10033141821622849 0.13291393220424652 -0.0973266065120697 -0.41751110553741455 0.10205161571502686 0.049582589417696 0.052685417234897614 -0.06771023571491241 -0.16811995208263397 0.0007133163162507117 -0.18678048253059387 -0.10162952542304993 0.08752225339412689 -0.4155077040195465 -0.0562775544822216 -0.16487400233745575 0.1845567375421524 -0.17676687240600586 0.18912136554718018 -0.02469531260430813 0.07643667608499527 0.019431335851550102 0.05744437500834465 -0.09539055824279785 -0.12648992240428925 -0.09864502400159836 -0.10208545625209808 0.0033806723076850176 -0.08400165289640427 0.06495463848114014 -0.16568569839000702 -0.17927579581737518 -0.04634815454483032 -0.1779782921075821 0.035476990044116974 -0.008675266988575459 0.01837809942662716 0.03730705380439758 0.2357875555753708 -0.04736020416021347 0.10399580001831055 0.3137509822845459 0.102003313601017 -0.13984766602516174 0.023168597370386124 0.01921442337334156 -0.11588084697723389 0.19146016240119934 -0.004037109203636646 0.011934978887438774 -0.23563548922538757 0.10556872934103012 -0.13036979734897614 0.12268605828285217 -0.03157215937972069 0.12006985396146774 0.0034051937982439995 0.2643301784992218 0.13885964453220367 0.028283342719078064 0.1278182715177536 0.10250864923000336 0.040771208703517914 0.2679424285888672 -0.05560991168022156 -0.20521223545074463 0.17429880797863007 -0.0760231614112854 -0.22689108550548553 0.14191795885562897 0.008298621512949467 -0.0384463295340538 0.05675008147954941 -0.031363047659397125 -0.3059132993221283 -0.010425187647342682 -0.19912947714328766 0.2653420567512512 -0.1941799372434616 -0.13069668412208557 0.015378309413790703 -0.20720459520816803 -0.1352369636297226 0.13103502988815308 -0.05171440169215202 -0.2417459785938263 0.03639357164502144 0.04794403538107872 0.09268345683813095 0.1828036606311798 0.29411810636520386 -0.12040923535823822 -0.10167742520570755 0.0801175907254219 -0.09878663718700409 -0.038535766303539276 -0.025814874097704887 0.1374470591545105 -0.13266345858573914 -0.054851338267326355 -0.10610129684209824 -0.15951122343540192 0.009333260357379913 -0.07826177030801773 0.01485222764313221 -0.07545655965805054 -0.08805625140666962 -0.053237173706293106 -0.03614075854420662 -0.1400575488805771 -0.2071906179189682 0.013760979287326336 -0.06875447928905487 0.13195179402828217 -0.25563299655914307 -0.11851079016923904 -0.03035786934196949 -0.19135688245296478 -0.014692269265651703 -0.04273949936032295 -0.11697839200496674 -0.12367811053991318 -0.25240716338157654 -0.09471376985311508 0.04911564663052559 -0.18629583716392517 -0.0635862797498703 -0.2254447191953659 -0.15770451724529266 -0.08935342729091644 -0.2004280537366867 -0.3440623879432678 0.18808019161224365 -0.09984888136386871 0.10882620513439178 -0.22259250283241272 -0.12157081067562103 0.07995675504207611 -0.16178305447101593 0.13324090838432312 -0.14928001165390015 0.08706800639629364 0.09730042517185211 0.07714255154132843 -0.09517420828342438 -0.32634153962135315 0.10580228269100189 -0.19065749645233154 -0.03259379789233208 0.23554106056690216 0.02665071375668049 -0.08954305201768875 0.14581237733364105 0.08191221952438354 -0.2085665911436081 -0.09101364016532898 0.2147226631641388 -0.026621732860803604 0.05157006159424782 -0.1211773231625557 0.32022663950920105 0.04369436949491501 0.09223547577857971 -0.06325744092464447 -0.02202725224196911 0.07820228487253189 0.13963869214057922 0.11752580106258392 -0.03888171166181564 0.06007371470332146 -0.026013031601905823 -0.2706243395805359 -0.3101159930229187 0.3138743042945862 0.12477988004684448 -0.14042404294013977 0.2931738495826721 -0.11701644957065582 0.046961747109889984 0.14906015992164612 0.11880181729793549 -0.06913160532712936 -0.005129547324031591 0.0316203348338604 -0.05643380805850029 0.04811530187726021 0.2988450527191162 -0.13397930562496185 -0.2521321773529053 -0.011830953881144524 -0.14639954268932343 -0.05235185846686363 -0.21601001918315887 -0.0025521425995975733 -0.04069242998957634 0.044285356998443604 -0.017770782113075256 -0.1714411824941635 0.28688502311706543 -0.08422159403562546 -0.018315648660063744 0.13471324741840363 0.012885474599897861 -0.04760589823126793 0.03006272204220295 0.019656023010611534 0.19680674374103546 -0.08052719384431839 0.011384028010070324 -0.21612891554832458 0.1482413113117218 0.009679398499429226 0.10801473259925842 -0.05006469413638115 -0.0819503515958786 0.007519046775996685 0.09018582105636597 0.04155270382761955 0.047232598066329956 -0.06551364064216614 -0.09059122949838638 0.023113608360290527 -0.05959547683596611 0.2931978106498718 -0.2706142067909241 -0.06037205085158348 0.11720985919237137 0.10298444330692291 -0.17876966297626495 -0.18749172985553741 0.027232155203819275 0.01687629334628582 0.13470156490802765 -0.017945528030395508 -0.4175308346748352 0.019712625071406364 -0.08713001757860184 0.0037714543286710978 -0.22477124631404877 0.09788685292005539 -0.16688115894794464 0.019621342420578003 0.06551877409219742 -0.0011978113325312734 -0.0032879847567528486 -0.01943720318377018 0.05016486719250679 -0.17671631276607513 0.12186530977487564 -0.08262211829423904 -0.3146893382072449 -0.17052768170833588 -0.23834316432476044 -0.06033667176961899 -0.16995050013065338 -0.033424243330955505 0.12482482939958572 0.08771537244319916 -0.18026690185070038 -0.007876926101744175 -0.2226450890302658 -0.03363873437047005 -0.07149897515773773 -0.004041842184960842 0.030994925647974014 -0.1743750274181366 -0.22813014686107635 0.14427025616168976 0.026826167479157448 -0.03368503972887993 -0.029963649809360504 0.044401295483112335 -0.00817920919507742 -0.1776987910270691 0.07853612303733826 -0.09053533524274826 -0.05567554011940956 -0.23364153504371643 0.21172338724136353 0.22504501044750214 -0.02736382558941841 0.15297241508960724 0.007529497612267733 -0.1683894395828247 -0.014340892434120178 -0.05860815942287445 -0.2092268466949463 0.22805985808372498 0.09631044417619705 0.013782075606286526 0.08632590621709824 -0.007077492773532867 0.05495467036962509 0.15035666525363922 -0.04852486029267311 0.18937800824642181 0.1620369851589203 -0.02472190000116825 0.141331747174263 -0.229428231716156 -0.06490825861692429 0.19849348068237305 0.26148828864097595 -0.05311235040426254 0.1606343388557434 -0.29880863428115845 0.01396910473704338 -0.10631972551345825 -0.0630958154797554 -0.1507083922624588 -0.10008502006530762 -0.24847467243671417 -0.06115133687853813 -0.23055557906627655 0.37601208686828613 -0.2071416676044464 -0.16978149116039276 0.033954355865716934 -0.04015224426984787 -0.16536973416805267 -0.22261102497577667 -0.1673593968153 -0.27393051981925964 -0.06110904738306999 0.19294346868991852 -0.1574077308177948 0.07781386375427246 0.04437686875462532 0.09395760297775269 -0.06310079991817474 -0.10828489810228348 -0.0015511958627030253 0.006579856388270855 -0.19211812317371368 0.0649576336145401 0.017591042444109917 -0.09934677928686142 -0.2095622569322586 0.04698070138692856 -0.051215045154094696 0.16471682488918304 -0.039556872099637985 -0.20822332799434662 -0.14944511651992798 -0.0361546166241169 -0.02221817523241043 0.1207214742898941 0.2999582886695862 0.23056375980377197 -0.06461973488330841 -0.2762490510940552 0.06909330934286118 -0.19678574800491333 -0.13375046849250793 -0.10988809913396835 0.2246231585741043 0.08086526393890381 -0.12908129394054413 0.09552627056837082 -0.07196903228759766 0.04795333370566368 -0.04651498422026634 -0.1474749892950058 0.45203301310539246 0.11954653263092041 -0.16173416376113892 -0.23640334606170654 0.19735702872276306 -0.16614937782287598 -0.017205234616994858 -0.13807807862758636 0.17295633256435394 0.029607923701405525 -0.08813551068305969 0.05551593750715256 -0.04433790594339371 0.0736367329955101 -0.15798625349998474 -0.2498539388179779 0.19524505734443665 0.13645552098751068 -0.07773168385028839 -0.0817534402012825 -0.1511489450931549 0.06695391237735748 0.11131858080625534 0.02286013960838318 -0.04873289912939072 -0.013423288241028786 0.03186067193746567 0.035120345652103424 0.19375060498714447 -0.19751423597335815 -0.05463290959596634 -0.307727187871933 -0.07585285604000092 -0.24112747609615326 0.05050733685493469 0.07669983804225922 0.10807482153177261 0.07731342315673828 -0.30694225430488586 0.16664953529834747 -0.05626038834452629 0.21684065461158752 -0.16914008557796478 0.04296639561653137 0.13528364896774292 0.23113957047462463 -0.12688139081001282 -0.24865518510341644 -0.011775517836213112 -0.3926660418510437 -0.309909462928772 -0.15948143601417542 0.2135157287120819 0.06882794201374054 -0.07492679357528687 0.3043708801269531 0.06518077850341797 0.002930961549282074 -0.127066969871521 -0.06046278029680252 -0.07960820198059082 0.00649593910202384 -0.034580882638692856 0.1723267138004303 0.23561102151870728 0.13712583482265472 0.0663081556558609 0.06349027901887894 -0.10897787660360336 -0.08802513033151627 -0.07719530910253525 -0.24795007705688477 -0.021016471087932587 -0.1581384539604187 -0.23135975003242493 -0.0036638150922954082 -0.1716056615114212 0.032096657902002335 -0.07482249289751053 0.3110874593257904 -0.22062841057777405 0.20904089510440826 0.15977822244167328 -0.09720258414745331 -0.11710987240076065 0.06692557036876678 -0.10590993613004684 -0.07698346674442291 0.1575903296470642 -0.029459312558174133 -0.02547929808497429 0.06215678155422211 0.0352470688521862 0.129303976893425 -0.10958927124738693 -0.17728891968727112 0.026416394859552383 -0.1272609829902649 -0.2858070731163025 0.14832061529159546 -0.013737879693508148 -0.02813403122127056 0.0012315640924498439 0.08172206580638885 -0.09946141391992569 -0.15473148226737976 -0.024163249880075455 -0.10240335762500763 -0.13892489671707153 -0.12794269621372223 -0.17924050986766815 0.30378907918930054 0.03453875705599785 0.03316185995936394 -0.16464191675186157 -0.05641690269112587 0.036163609474897385 -0.011387751437723637 -0.11250792443752289 -0.09690215438604355 -0.18605074286460876 -0.0950997993350029 0.25999459624290466 0.08074875921010971 -0.0843893438577652 -0.2047734558582306 0.18762603402137756 0.03300371766090393 -0.07604195177555084 0.09188351035118103 0.021947888657450676 -0.0368315652012825 -0.0968012884259224 -0.1166985034942627 0.03851403668522835 -0.06056109443306923 -0.08165951073169708 -0.1052839457988739 0.21191082894802094 0.07372374087572098 0.09530612081289291 -0.12205453217029572 0.26066046953201294 0.043517667800188065 0.001977275824174285 -0.06891166418790817 -0.22090953588485718 -0.01589791290462017 -0.10367371886968613 -0.11773747950792313 -0.010742263868451118 0.12899141013622284 -0.24715320765972137 0.1592804193496704 0.13673707842826843 -0.013525492511689663 0.15584157407283783 -0.3323538899421692 0.09828410297632217 -0.20495210587978363 -0.15449947118759155 0.11260538548231125 0.053469669073820114 -0.11073622107505798 -0.08990351110696793 0.04020273685455322 -0.34499117732048035 0.1420428305864334 0.16220185160636902 0.043534114956855774 -0.07507352530956268 -0.09175790846347809 -0.0972885712981224 0.030156834051012993 -0.097773477435112 0.06938602775335312 0.0007687737816013396 -0.1931440234184265 -0.2279776781797409 -0.1257173717021942 -0.029420606791973114 -0.2055710405111313 -0.09918238967657089 0.15832926332950592 -0.09444310516119003 -0.33231496810913086 0.02645151875913143 0.02615419402718544 -0.12601810693740845 0.29019400477409363 -0.1049547865986824 0.17710275948047638 0.18613818287849426 0.2299138307571411 -0.25886794924736023 0.01693526655435562 -0.1457047164440155 0.01004709955304861 0.11681082099676132 -0.18038444221019745 -0.017400898039340973 -0.00491176825016737 -0.020424913614988327 -0.06834498047828674 -0.0891025960445404 -0.17567095160484314 0.05370161682367325 0.17704299092292786 -0.10393436998128891 0.08701781183481216 -0.05187755823135376 0.054895903915166855 0.04702167958021164 0.05203128606081009 -0.1913483887910843 0.06827230006456375 0.10698894411325455 -0.10222556442022324 0.07723911851644516 0.059710558503866196 -0.0875079557299614 -0.29207178950309753 -0.10233362019062042 -0.18263570964336395 0.06780456006526947 -0.008572586812078953 0.09744229167699814 -0.09607725590467453 0.025637399405241013 -0.027164127677679062 -0.1224074736237526 -0.22774262726306915 0.0073551274836063385 -0.2862144708633423 0.024203576147556305 -0.03939545899629593 -0.13464243710041046 -0.04898228496313095 -0.07661392539739609 0.2528759241104126 -0.035403620451688766 -0.18552133440971375 0.1029081717133522 -0.09630677103996277 0.11311928927898407 0.06293783336877823 -0.06704837828874588 -0.24717573821544647 0.09644073992967606 -0.11667614430189133 0.012778333388268948 -0.08442918956279755 0.04345068708062172 -0.13980109989643097 0.08899848163127899 0.044749319553375244 -0.3114350140094757 0.04892595484852791 0.22730889916419983 -0.16551727056503296 0.16055598855018616 0.09288190305233002 -0.13279679417610168 -0.17854630947113037 0.024682585150003433 -0.13202907145023346 0.04687060788273811 -0.09388758987188339 0.0136181078851223 -0.10184058547019958 0.19722984731197357 -0.008749159052968025 0.06521863490343094 -0.14292924106121063 -0.07374999672174454 -0.08055247366428375 -0.11092380434274673 -0.03303530812263489 -0.1665944755077362 0.149188831448555 -0.3320493996143341 0.29072636365890503 -0.03423725441098213 -0.13710661232471466 -0.22163213789463043 -0.2475641369819641 0.290810227394104 0.1467844545841217 0.028731584548950195 0.27042075991630554 -0.24614383280277252 0.16917124390602112 -0.06909117102622986 -0.0632992684841156 -0.16295258700847626 -0.0005015463684685528 -0.06589321047067642 -0.21807533502578735 0.19084477424621582 0.013898895122110844 -0.18845432996749878 -0.20787328481674194 -0.09059233963489532 -0.005929190199822187 0.2513008415699005 -0.20222805440425873 -0.2356211543083191 -0.3309613764286041 -0.0175944771617651 -0.1532975137233734 0.013996596448123455 -0.008995553478598595 0.22253666818141937 -0.09987379610538483 0.26786699891090393 0.13821323215961456 0.038704849779605865 0.07897382974624634 -0.04183318465948105 0.06413102149963379 0.11360441893339157 -0.15403836965560913 -0.07297760248184204 -0.16594025492668152 0.1335183084011078 0.0007701382855884731 0.016694866120815277 -0.0987670049071312 -0.044582583010196686 -0.13428206741809845 0.04598599299788475 -0.2784830629825592 -0.008997735567390919 -0.11347205191850662 0.033600907772779465 -0.0629393607378006 0.08956132084131241 -0.01767723448574543 -0.06351886689662933 0.01770399510860443 0.41476115584373474 -0.1551693081855774 -0.3004314601421356 -0.009857657365500927 -0.10328815132379532 -0.146629199385643 0.22819748520851135 0.02400660328567028 -0.03928394615650177 0.048212870955467224 -0.13877004384994507 -0.09151965379714966 0.11742118000984192 -0.30946698784828186 0.045385222882032394 -0.21113526821136475 -0.2359791398048401 -0.2197401374578476 -0.1129094809293747 -0.17027194797992706 0.23060502111911774 -0.2082870751619339 -0.13787615299224854 0.02545267343521118 0.05822640284895897 0.05294530466198921 -0.01877511478960514 0.014804522506892681 -0.1626027375459671 -0.0668223649263382 0.11636429280042648 -0.1266203671693802 -0.017827220261096954 -0.02413666807115078 -0.07971636205911636 -0.3476365804672241 -0.06686735153198242 -0.07311651110649109 -0.0500679537653923 0.042374394834041595 0.06090272590517998 -0.132890522480011 0.048310551792383194 0.032519835978746414 -0.1361592710018158 0.041426341980695724 0.0400947667658329 -0.06228456273674965 0.03815280646085739 0.07132304459810257 0.05662524700164795 -0.3444579839706421 0.0836050882935524 -0.18036633729934692 -0.13008107244968414 0.028644101694226265 -0.03315950557589531 -0.15852832794189453 -0.14416956901550293 -0.06570333242416382 -0.10581237822771072 -0.04676542803645134 0.2254476249217987 -0.023513853549957275 -0.10254069417715073 0.1170814260840416 -0.16782966256141663 0.06225169450044632 -0.3676583766937256 0.0704004243016243 -0.022778134793043137 0.0906781256198883 -0.11553328484296799 0.04372075945138931 0.3741243779659271 0.3640344440937042 0.07806967943906784 -0.09358218312263489 -0.22441278398036957 -0.08626920729875565 0.32661935687065125 -0.16016104817390442 -0.01980431191623211 -0.3154694437980652 -0.10342811793088913 -0.32365861535072327 0.22103194892406464 -0.039899468421936035 0.018136778846383095 -0.07897355407476425 0.037804488092660904 0.05150070786476135 -0.006567917298525572 -0.01865900307893753 0.09703120589256287 -0.10236301273107529 -0.06508835405111313 0.11691885441541672 -0.06016815826296806 -0.008472481742501259 -0.21262209117412567 -0.2781979739665985 -0.0368727371096611 0.22888055443763733 -0.11997079104185104 -0.20742550492286682 0.07954876869916916 0.03324810788035393 -0.2594493627548218 -0.41247090697288513 0.22207890450954437 0.1241966113448143 -0.06679479032754898 0.09220080822706223 -0.19684094190597534 -0.12562842667102814 0.06470972299575806 0.17549486458301544 -0.08926842361688614 -0.10490493476390839 0.17238400876522064 -0.1242508590221405 0.08899696916341782 0.09396980702877045 0.0788629949092865 -0.1847257763147354 -0.18425334990024567 0.06170615926384926 0.070465587079525 -0.4117316007614136 -0.08022551983594894 0.018100405111908913 0.10129479318857193 -0.10279397666454315 -0.18154288828372955 0.04115425795316696 0.047885648906230927 -0.03628380969166756 0.07948550581932068 0.030689295381307602 -0.026498841121792793 -0.07147711515426636 0.10619388520717621 0.13288091123104095 -0.07754771411418915 0.06012119725346565 -0.142697274684906 0.22561264038085938 0.04777821898460388 -0.03429274260997772 -0.11482483893632889 0.02512240596115589 -0.2376730889081955 0.09696881473064423 0.0002717328316066414 0.06317702680826187 -0.13898248970508575 -0.16148574650287628 -0.07702213525772095 0.09871963411569595 0.24231164157390594 -0.04102994501590729 -0.17194807529449463 0.24419665336608887 -0.006697640288621187 -0.09571023285388947 -0.22089523077011108 0.02421271987259388 -0.10760953277349472 0.11545589566230774 -0.047251924872398376 -0.03429028019309044 -0.33717676997184753 -0.13168516755104065 -0.188820481300354 -0.083558589220047 0.18291251361370087 -0.3434835374355316 -0.007040363736450672 0.11732611060142517 -0.02466648817062378 -0.30976781249046326 -0.16938409209251404 -0.10062311589717865 -0.009461888112127781 0.12172020971775055 -0.026693256571888924 -0.31722402572631836 -0.28975817561149597 0.10433737188577652 -0.01388031616806984 -0.05051632970571518 0.03713896498084068 0.20957456529140472 -0.18450738489627838 -0.019549662247300148 0.1546112596988678 -0.3532222509384155 -0.010529465973377228 0.19163021445274353 0.15413641929626465 -0.2091696560382843 0.004131439607590437 -0.24143242835998535 0.05195837840437889 -0.08649285137653351 -0.20650511980056763 0.20361441373825073 -0.018865467980504036 -0.09513308852910995 -0.2543099522590637 0.03281057998538017 -0.0142294242978096 0.09105060249567032 -0.17584896087646484 0.06868530809879303 -0.06462597101926804 -0.19672268629074097 0.23521210253238678 0.06498174369335175 -0.27132806181907654 -0.03494420647621155 -0.0791080892086029 0.08736559748649597 0.11251313239336014 -0.10193310678005219 -0.13848954439163208 -0.0869782343506813 -0.30059608817100525 -0.21249951422214508 -0.15893007814884186 -0.1257057934999466 -0.04156796634197235 -0.1793665885925293 -0.11523935943841934 0.21758069097995758 -0.06401660293340683 -0.26588988304138184 0.168926402926445 0.04247131571173668 0.09745048731565475 0.19108274579048157 -0.2091635912656784 -0.18083925545215607 0.14580826461315155 0.11843215674161911 -0.005107280798256397 0.0408390648663044 0.06912048906087875 0.009860995225608349 -0.15439842641353607 0.0710567906498909 -0.14239712059497833 -0.15736238658428192 -0.15159590542316437 -0.04184994846582413 -0.15742963552474976 -0.25279468297958374 -0.06403307616710663 0.05864730849862099 0.018988952040672302 -0.025889908894896507 -0.07835753262042999 0.030051985755562782 0.07709188759326935 0.03802406042814255 -0.009932506829500198 -0.18234165012836456 0.10386131703853607 -0.138672336935997 -0.07308638095855713 0.01664741523563862 0.016774829477071762 0.09042976051568985 -0.1327848583459854 0.011032504960894585 0.02868163213133812 -0.19381144642829895 -0.04269751161336899 -0.12655338644981384 -0.2871221899986267 0.016906339675188065 -0.09679907560348511 0.10196544229984283 0.06113322824239731 0.33410748839378357 -0.12551997601985931 0.10739443451166153 0.0295697208493948 -0.355466365814209 -0.11678595840930939 -0.01599220559000969 0.18238131701946259 -0.14124174416065216 -0.09465787559747696 0.060782019048929214 -0.1462544947862625 -0.08783704787492752 -0.10898774862289429 0.06117721647024155 0.2678220272064209 0.22844070196151733 -0.038405247032642365 -0.18659746646881104 0.07365645468235016 -0.37280553579330444 -0.0029734582640230656 -0.04630351811647415 0.16908086836338043 -0.053274139761924744 -0.16604609787464142 0.09836620092391968 -0.03396182507276535 0.04923733323812485 -0.06392887234687805 -0.02578314207494259 -0.09816950559616089 0.2172389030456543 0.004388993140310049 0.02412394806742668 0.006971132941544056 -0.1426796168088913 -0.12225835025310516 -0.033520955592393875 -0.01628076285123825 -0.05223367363214493 0.11308486014604568 0.017099518328905106 0.03481123223900795 -0.32161587476730347 0.011019124649465084 -0.01332571730017662 -0.05744583159685135 -0.275541216135025 0.00471616443246603 0.0010445468360558152 -0.015967441722750664 0.08898136019706726 -0.14748217165470123 0.17738287150859833 0.08650588989257812 -0.015350324101746082 -0.14319154620170593 0.10826094448566437 -0.007965746335685253 0.07206568121910095 -0.21673327684402466 0.014578567817807198 -0.06318891793489456 -0.07790732383728027 -0.14241962134838104 0.08124995976686478 0.05474758893251419 -0.3222334086894989 0.023261770606040955 0.033185843378305435 -0.3113889992237091 -0.10563881695270538 0.02467939630150795 0.07491951435804367 -0.10860631614923477 0.20411331951618195 -0.09721174836158752 0.1737419217824936 -0.019434919580817223 -0.037482984364032745 0.29191306233406067 0.2917325794696808 -0.006137829273939133 0.22110812366008759 -0.015509634278714657 -0.07755236327648163 -0.06662363559007645 0.14200490713119507 -0.09763240069150925 -0.020703274756669998 -0.09441854059696198 0.3241947889328003 -0.025068696588277817 -0.039821118116378784 -0.21656720340251923 0.06389889866113663 0.11741940677165985 -0.026763247326016426 -0.2890889048576355 -0.02071668952703476 -0.06556273996829987 0.05539616942405701 0.18612925708293915 -0.19456534087657928 -0.061385318636894226 0.12592512369155884 -0.14262109994888306 -0.11919524520635605 0.01903403177857399 -0.25745889544487 -0.2577744424343109 -0.024227652698755264 -0.39411407709121704 -0.015930501744151115 -0.027242209762334824 -0.09706991165876389 0.1606300324201584 -0.17626126110553741 -0.02009236253798008 -0.12090275436639786 0.08746067434549332 0.10180413722991943 -0.20621660351753235 -0.26542770862579346 -0.1893685907125473 0.0798535943031311 0.12183117866516113 0.2040674388408661 -0.24463215470314026 -0.16939426958560944 -0.06011905521154404 -0.2274830937385559 -0.09005735069513321 -0.2860567569732666 -0.0730196163058281 -0.27055782079696655 0.03137040138244629 0.01342702005058527 -0.056947972625494 -0.0845630019903183 -0.19994805753231049 0.05101073160767555 0.25750207901000977 0.22744369506835938 -0.1275767683982849 -0.1421593427658081 -0.09551245719194412 -0.26056259870529175 0.07597807794809341 -0.22906593978405 -0.0049301194958388805 -0.07318087667226791 0.05789146572351456 0.12314315885305405 -0.05958188325166702 -0.08805416524410248 0.05618865415453911 -0.014383804984390736 0.05408528447151184 0.008541063405573368 -0.16132496297359467 0.06975679844617844 0.03739583492279053 -0.14107142388820648 -0.13553713262081146 0.09517482668161392 -0.3144981563091278 0.010391289368271828 -0.003986587282270193 -0.09961263090372086 -0.11138920485973358 -0.3562094271183014 0.0839545726776123 0.042783498764038086 -0.14051668345928192 0.09809847176074982 0.2690306305885315 0.1516658067703247 -0.12800705432891846 0.06020360440015793 0.016575947403907776 -0.009978152811527252 -0.10313296318054199 -0.004041086416691542 -0.08036774396896362 -0.07098469883203506 -0.26341134309768677 -0.0882047787308693 -0.04152447730302811 -0.06515297293663025 0.08335787802934647 -0.04336024448275566 -0.168904110789299 0.15367542207241058 0.38092151284217834 -0.201360285282135 0.1926700621843338 -0.10159981995820999 0.20701704919338226 -0.09003341943025589 0.13456374406814575 -0.02895020693540573 -0.05182056128978729 0.2693951427936554 -0.13881389796733856 -0.05646875500679016 0.18148548901081085 -0.009017903357744217 -0.07261534035205841 0.026248710229992867 -0.2651108205318451 0.05625397711992264 0.13888637721538544 0.07628408819437027 0.10591831803321838 0.13014067709445953 0.05212269723415375 -0.07595597207546234 0.03273649141192436 0.1566508412361145 0.030275115743279457 -0.01785420812666416 -0.33296993374824524 0.14773015677928925 -0.020101457834243774 0.05650826171040535 0.07068709284067154 -0.1511194258928299 -0.16551128029823303 -0.03436293080449104 -0.1453993320465088 -0.09279078990221024 0.16545958817005157 0.1965235471725464 -0.19825321435928345 -0.32461950182914734 -0.059397969394922256 -0.12250763177871704 -0.03435538709163666 -0.19617895781993866 -0.05849297717213631 -0.24141086637973785 -0.05903433635830879 -0.2709146738052368 0.03075721487402916 -0.2565389573574066 0.05200555548071861 -0.25593292713165283 -0.05363624170422554 0.11107568442821503 -0.14555296301841736 0.13361530005931854 -0.2798451781272888 0.0009659613133408129 0.05317186191678047 -0.21519555151462555 -0.0999741330742836 -0.1019238829612732 -0.004552461672574282 -0.15644875168800354 -0.10807409882545471 -0.25962597131729126 -0.13041187822818756 -0.14691874384880066 -0.13399361073970795 -0.05321495980024338 -0.09911275655031204 -0.10452355444431305 0.05454479157924652 0.03963678330183029 -0.03601532801985741 -0.03920923173427582 0.09536141157150269 -0.18551060557365417 -0.09497489780187607 -0.0013613420305773616 -0.17076259851455688 -0.2751132845878601 0.09280980378389359 -0.14036430418491364 -0.04785851016640663 0.04298393800854683 0.04746931046247482 -0.2849140465259552 0.06807364523410797 -0.11152090132236481 0.24592797458171844 0.11151274293661118 -0.19594880938529968 0.18993385136127472 -0.23143675923347473 -0.07134335488080978 0.03664242476224899 0.07800910621881485 -0.47275543212890625 0.1460496485233307 -0.06419599056243896 -0.12186338007450104 -0.07439027726650238 -0.21656933426856995 0.09346265345811844 0.16653329133987427 -0.1280091404914856 0.20268431305885315 -0.10449036210775375 0.17288422584533691 0.05639393627643585 -0.01516373734921217 0.14946916699409485 -0.2428470104932785 0.05010022595524788 -0.12455408275127411 0.20427902042865753 -0.0008237772271968424 -0.1160246729850769 -0.050144344568252563 -0.1979944407939911 -0.0017513337079435587 0.19361533224582672 -0.13156744837760925 -0.016749761998653412 -0.22421495616436005 0.1050080731511116 -0.1776132583618164 -0.009337572380900383 0.2448979616165161 0.3854483664035797 -0.3663826882839203 0.10168687254190445 -0.172121062874794 -0.16174907982349396 0.2602117359638214 -0.21355649828910828 0.022393103688955307 0.1050480380654335 -0.013067308813333511 -0.05503610521554947 -0.04860479012131691 -0.15205053985118866 0.2802278399467468 -0.1232849508523941 -0.020773520693182945 -0.26075512170791626 0.0034701437689363956 0.11218740046024323 0.08835187554359436 0.005789116956293583 0.03153498098254204 0.008439828641712666 -0.23392893373966217 -0.10871702432632446 -0.07789589464664459 -0.11650703102350235 0.023165585473179817 0.3318842351436615 -0.2525765001773834 -0.14050377905368805 -0.17309468984603882 -0.30033671855926514 -0.14952827990055084 0.31870847940444946 -0.1534443348646164 0.017626123502850533 -0.16695570945739746 -0.20925423502922058 -0.05769868940114975 0.16988778114318848 -0.11069397628307343 0.06224910169839859 -0.08935874700546265 -0.10785036534070969 -0.018035758286714554 -0.0777837485074997 -0.18491968512535095 0.27454715967178345 -0.0500066801905632 -0.2537054121494293 0.13117626309394836 -0.021077953279018402 0.1024443507194519 -0.2502667009830475 -0.1062842309474945 -0.09674572199583054 -0.18159429728984833 0.048825137317180634 -0.07014458626508713 -0.21660463511943817 -0.01132863387465477 0.050221994519233704 -0.35321348905563354 -0.0436120443046093 -0.013537811115384102 -0.24756480753421783 -0.16055887937545776 0.029655463993549347 -0.041142191737890244 -0.21471673250198364 -0.1121276468038559 -0.26634207367897034 -0.07762393355369568 0.2147902250289917 -0.026583096012473106 -0.09369457513093948 0.03900471329689026 -0.1479339748620987 -0.33209237456321716 -0.1445498913526535 -0.102110855281353 -0.16139189898967743 -0.0012099439045414329 -0.04112407565116882 -0.23581789433956146 -0.14910942316055298 -0.11186471581459045 0.22934259474277496 -0.18753792345523834 0.021181173622608185 0.028532806783914566 -0.10895461589097977 0.00016185354616027325 0.4154664874076843 -0.15379448235034943 -0.3230421841144562 0.09752059727907181 0.0328502431511879 -0.05861654877662659 -0.10924137383699417 0.32752954959869385 0.052287135273218155 0.20362819731235504 -0.12345310300588608 -0.10785188525915146 -0.2289963662624359 0.037754155695438385 0.15921442210674286 -0.2306392341852188 0.0863298699259758 -0.15101458132266998 0.14710229635238647 -0.21219541132450104 0.08759090304374695 -0.20941269397735596 -0.02451903373003006 -0.09284720569849014 -0.2439771592617035 -0.14073416590690613 -0.128403440117836 -0.011617684736847878 -0.008688589558005333 -0.05782179534435272 -0.011592800728976727 0.29637154936790466 -0.215978741645813 -0.02289782464504242 0.042552441358566284 -0.15072456002235413 -0.014137346297502518 -0.17719906568527222 -0.17006425559520721 -0.19547367095947266 -0.048412397503852844 -0.14629940688610077 0.08103776723146439 -0.03239436820149422 -0.23740322887897491 -0.05020014941692352 -0.19451801478862762 -0.10742619633674622 -0.24279186129570007 -0.13045519590377808 0.18507567048072815 0.03912606090307236 -0.13829170167446136 0.031676847487688065 0.15128959715366364 -0.26255157589912415 0.1068376824259758 -0.05188735947012901 0.11649572849273682 -0.05622471496462822 -0.030384177342057228 -0.06424456834793091 0.16709300875663757 -0.19750390946865082 -0.015917537733912468 0.07602665573358536 0.09576630592346191 -0.06607762724161148 -0.19995787739753723 -0.16958419978618622 0.013271360658109188 -0.14723460376262665 0.21037662029266357 -0.17983876168727875 -0.021494023501873016 -0.15736185014247894 0.08268117904663086 -0.08110922574996948 -0.15218207240104675 -0.1518121361732483 -0.04841594025492668 0.0938318520784378 -0.00957147404551506 -0.05211322754621506 -0.12156588584184647 -0.19902090728282928 -0.20677244663238525 0.09034634381532669 -0.09034977108240128 0.051146265119314194 -0.308615118265152 -0.16161546111106873 0.07809252291917801 -0.0030470085330307484 0.11347775161266327 0.15858601033687592 -0.09484104812145233 0.33953657746315 -0.027158547192811966 -0.09712506085634232 -0.09179354459047318 -0.026749441400170326 0.002376855816692114 -0.18238921463489532 -0.16415968537330627 -0.030044136568903923 -0.22315596044063568 -0.11911161243915558 0.09153605997562408 0.023859236389398575 0.16025127470493317 -0.07947812229394913 -0.0024584163911640644 0.18416205048561096 -0.07471144944429398 -0.20187105238437653 0.00566032575443387 -0.01245815958827734 -0.01337971817702055 -0.06771471351385117 -0.10781820863485336 -0.09822338819503784 -0.0414196215569973 -0.031183898448944092 0.22329550981521606 0.16060075163841248 -0.0902671217918396 -0.008377982303500175 -0.3274580240249634 0.09280002862215042 0.008365999907255173 -0.17690040171146393 -0.1614876091480255 0.2112896740436554 -0.17833857238292694 -0.19504885375499725 -0.13937342166900635 -0.08770299702882767 -0.02395634539425373 -0.18647974729537964 -0.20560866594314575 0.10302932560443878 -0.13528560101985931 -0.020986804738640785 -0.1918422132730484 0.018781501799821854 -0.08133108913898468 0.033384159207344055 -0.12131179869174957 -0.2540980279445648 0.025440169498324394 -0.2012820541858673 0.18708638846874237 0.05966806784272194 -0.019025469198822975 0.13751232624053955 -0.220678448677063 -0.09876188635826111 0.08350186049938202 -0.07229720801115036 0.12541504204273224 -0.10349399596452713 -0.23668603599071503 0.043895818293094635 -0.09580163657665253 -0.07671749591827393 0.04682784900069237 -0.2218245267868042 0.03985869139432907 -0.02337529882788658 0.021817907691001892 -0.059059496968984604 0.06156664341688156 -0.09176084399223328 0.18235157430171967 -0.016946321353316307 -0.06454624235630035 -0.12266993522644043 0.28898191452026367 0.41298454999923706 0.015856213867664337 0.08540340512990952 0.08293496072292328 0.2364950031042099 -0.07647205144166946 -0.08999726176261902 -0.06145666539669037 0.0018222701037302613 -0.1246211901307106 -0.14641475677490234 -0.08623357862234116 -0.06705359369516373 -0.1271553635597229 0.004962973762303591 -0.0959567129611969 -0.01841019280254841 -0.0537114143371582 -0.11765152215957642 -0.003952840343117714 -0.07208721339702606 -0.1807117611169815 -0.04937426373362541 -0.08803610503673553 0.11343424767255783 0.047795411199331284 -0.19992229342460632 -0.10425513982772827 -0.1224156990647316 0.2082269936800003 -0.11348801851272583 -0.009464219212532043 0.11798721551895142 0.0704243928194046 -0.023556945845484734 -0.18484020233154297 -0.17100994288921356 0.007331250701099634 -0.23894789814949036 -0.2238905280828476 -0.15872830152511597 -0.08405105769634247 0.16690699756145477 -0.032948583364486694 0.13648101687431335 0.06369614601135254 -0.08630041778087616 -0.15988504886627197 -0.1476992666721344 0.0025590502191334963 -0.08731986582279205 -0.1989220380783081 -0.16123518347740173 0.003970691002905369 0.0072184475138783455 -0.12484310567378998 -0.02858673594892025 -0.04863325506448746 0.08294444531202316 0.2242022603750229 -0.21827982366085052 0.04067029803991318 0.06374285370111465 0.0544915534555912 -0.27743834257125854 -0.11029907315969467 -0.13195830583572388 -0.17719145119190216 -0.08311907947063446 0.09861180186271667 -0.15795856714248657 -0.27048927545547485 -0.05016835778951645 -0.06604526191949844 0.3162372410297394 0.05209892615675926 0.04811171442270279 -0.2666175365447998 -0.13988149166107178 0.11483966559171677 -0.06324184685945511 -0.0743972659111023 0.014196478761732578 -0.06549357622861862 -0.23731712996959686 -0.12462515383958817 0.03267451003193855 0.05116294324398041 -0.10601148009300232 -0.050312675535678864 0.1922081559896469 -0.1361083984375 0.05387340858578682 -0.16316969692707062 0.150464728474617 -0.14065606892108917 -0.14381882548332214 -0.0889936164021492 -0.16289924085140228 0.01224359031766653 0.12388995289802551 -0.1633685678243637 0.13278897106647491 -0.15085993707180023 0.14997632801532745 0.013917885720729828 0.05858054757118225 0.2565140426158905 -0.44739943742752075 0.28689634799957275 -0.1677403748035431 -0.1671891063451767 0.12919515371322632 0.02719433605670929 -0.0836677998304367 -0.13048386573791504 0.5647211670875549 0.06683377921581268 -0.026691852137446404 -0.1350330263376236 -0.09332706034183502 0.03754884749650955 -0.20980994403362274 0.014541476964950562 0.31805288791656494 -0.13318678736686707 0.1058027446269989 0.23331642150878906 0.29805049300193787 -0.0742754265666008 -0.03762085363268852 0.003140414599329233 0.1504427045583725 0.16921831667423248 -0.17280615866184235 -0.08668345212936401 0.16539031267166138 0.17384164035320282 -0.008710562251508236 -0.1423463076353073 -0.0856904536485672 0.09608038514852524 -0.03639049455523491 -0.20687498152256012 -0.12360013276338577 0.021292470395565033 -0.10368996113538742 -0.006152662448585033 -0.20404502749443054 0.14254017174243927 -0.1269768625497818 -0.2845146059989929 0.21766941249370575 -0.12909503281116486 -0.04682142287492752 0.12156648933887482 -0.00718895485624671 0.14921563863754272 -0.25558170676231384 -0.06404496729373932 0.019765134900808334 0.029075266793370247 0.039840150624513626 -0.1390407681465149 -0.2275809943675995 -0.07861194759607315 -0.23975811898708344 -0.14342059195041656 0.10759252309799194 -0.3694094121456146 0.11060523986816406 0.08593237400054932 -0.015775423496961594 -0.0037346198223531246 -0.25249359011650085 -0.042811069637537 -0.02927429974079132 -0.06768953055143356 0.03775434568524361 0.030412355437874794 -0.023606058210134506 -0.14850379526615143 -0.08903712034225464 0.1028762087225914 -0.021807512268424034 -0.1936386227607727 -0.04587904363870621 0.006014008074998856 -0.11146153509616852 -0.03894009813666344 -0.11109992116689682 -0.1043921411037445 -0.20961572229862213 -0.034764617681503296 -0.04075516015291214 -0.04285247623920441 0.16590599715709686 -0.23252789676189423 0.02584853582084179 0.046747662127017975 0.24360664188861847 -0.27216678857803345 0.40803149342536926 0.06606831401586533 -0.06906991451978683 -0.023337947204709053 -0.0026444685645401478 -0.21280460059642792 0.07036372274160385 -0.11996402591466904 -0.13462430238723755 -0.06900258362293243 0.07318214327096939 -0.06253013759851456 0.1427505761384964 0.020217157900333405 -0.03961804136633873 0.3456336557865143 -0.03713640570640564 -0.06001388654112816 0.08013579249382019 0.25546497106552124 -0.21358545124530792 -0.08603596687316895 -0.003919785842299461 -0.024037620052695274 -0.10132147371768951 -0.07255029678344727 0.1707567274570465 -0.05148942396044731 -0.14105871319770813 -0.18104656040668488 0.09022607654333115 -0.11738067120313644 -0.03538193926215172 0.11730678379535675 -0.2263404130935669 -0.015411085449159145 0.2257034331560135 0.5326575636863708 -0.14618422091007233 0.11560872942209244 0.11257169395685196 -0.1340228170156479 0.313791960477829 -0.14210717380046844 -0.19448880851268768 -0.14488591253757477 -0.1711762398481369 -0.1953873336315155 -0.28772059082984924 -0.20258715748786926 0.22364796698093414 -0.13101647794246674 -0.040477361530065536 -0.2700497806072235 0.45092645287513733 0.07666853815317154 0.006653539836406708 -0.17332570254802704 -0.11615198105573654 0.14360961318016052 -0.26170045137405396 -0.13464973866939545 0.13645263016223907 0.10644400119781494 0.09049119055271149 0.01164259109646082 -0.17559345066547394 -0.1300518810749054 -0.21579091250896454 -0.26998311281204224 0.1495802253484726 0.03636464849114418 0.014912329614162445 -0.049622949212789536 -0.1375880241394043 -0.044369928538799286 -0.1221049427986145 -0.3046033978462219 -0.08930354565382004 -0.13732853531837463 -0.11034749448299408 0.0035247579216957092 -0.18015383183956146 -0.08543993532657623 0.19728107750415802 0.1879449039697647 0.02036255970597267 -0.0708167552947998 0.0584467351436615 -0.05649721994996071 0.08174533396959305 -0.09635965526103973 -0.27992352843284607 0.024188712239265442 -0.15143786370754242 -0.1553630232810974 -0.10251773148775101 -0.05190753936767578 0.01270093210041523 0.07279594242572784 -0.10596401989459991 0.042708754539489746 -0.015447476878762245 -0.20112550258636475 -0.06211590766906738 0.06721687316894531 0.116352379322052 -0.11118531972169876 -0.12862099707126617 0.04679396376013756 -0.04705292358994484 -0.040722887963056564 -0.2300465703010559 -0.2649535536766052 0.04609062895178795 0.08308213204145432 -0.17374996840953827 -0.08965624868869781 -0.14057491719722748 -0.19113384187221527 0.0376976914703846 -0.04476536437869072 -0.1972079873085022 0.0010178566444665194 0.1136445626616478 0.0606386698782444 0.07313501089811325 -0.27323150634765625 0.25558218359947205 0.04583947733044624 -0.051095329225063324 0.36329415440559387 -0.06366381794214249 -0.4394574761390686 0.15928137302398682 -0.09960241615772247 -0.12708264589309692 0.030526040121912956 0.2908965051174164 -0.046142395585775375 0.13158179819583893 -0.22699958086013794 0.20752102136611938 -0.04480655491352081 -0.07186485081911087 0.08227597922086716 0.0989835262298584 0.0504726804792881 -0.14563654363155365 0.1030510887503624 0.17523805797100067 0.001147413277067244 -0.1316782534122467 -0.15175916254520416 0.10365675389766693 -0.06620555371046066 -0.2089109718799591 -0.05452343448996544 -0.09987356513738632 0.029220901429653168 0.018195228651165962 0.007059205789119005 -0.0890120267868042 -0.40401268005371094 0.043584953993558884 0.06323060393333435 -0.4173044264316559 0.15440720319747925 0.2564495801925659 -0.18938277661800385 0.161493182182312 -0.0411934033036232 -0.0486660897731781 0.051293082535266876 -0.033201031386852264 -0.026403218507766724 -0.09146153181791306 -0.22032365202903748 0.029840026050806046 -0.17336785793304443 0.12866266071796417 -0.18242688477039337 0.20728935301303864 0.16469424962997437 0.09326324611902237 -0.20669680833816528 -0.13322797417640686 0.27800285816192627 -0.16718319058418274 -0.18743896484375 -0.03270944580435753 -0.13352985680103302 0.08541125059127808 0.05309115722775459 0.044607698917388916 0.01287066750228405 0.015864823013544083 -0.2437833547592163 0.09984276443719864 -0.18707342445850372 -0.227367103099823 0.0032545679714530706 -0.16831110417842865 -0.27202555537223816 0.008145126514136791 -0.06706076860427856 -0.11934427917003632 0.1795545071363449 -0.11216948181390762 -0.26768311858177185 -0.1537073850631714 -0.4912426471710205 0.0592418871819973 0.19146886467933655 -0.06700050085783005 -0.10379768908023834 0.4097166359424591 0.01606758125126362 0.010859944857656956 -0.014575309120118618 -0.23746807873249054 0.03565060719847679 -0.22546334564685822 0.20691698789596558 -0.033576782792806625 -0.2647268772125244 0.04051654040813446 -0.07456394284963608 -0.02693963795900345 -0.011483201757073402 0.023837575688958168 -0.16328373551368713 -0.010524691082537174 0.08085127174854279 0.13448728621006012 -0.09871657192707062 0.013764279894530773 -0.2130674421787262 -0.2611229121685028 0.06942731142044067 -0.09080245345830917 -0.15725389122962952 -0.016049660742282867 -0.05142957344651222 -0.13241371512413025 -0.2996372580528259 0.06427764147520065 -0.27423498034477234 -0.13629987835884094 0.029338540509343147 -0.1428460329771042 -0.18400131165981293 -0.10149776935577393 0.20430348813533783 -0.16639703512191772 0.0008122368017211556 -0.10798429697751999 -0.09785081446170807 0.14732231199741364 0.08401496708393097 0.1399761587381363 -0.10271696001291275 -0.08419856429100037 -0.07681623101234436 -0.07500675320625305 0.17891861498355865 0.36171799898147583 -0.1683509647846222 0.09525342285633087 -0.14539755880832672 -0.1947113275527954 0.00650830427184701 -0.12144140154123306 -0.04044591262936592 -0.068105049431324 0.011281110346317291 0.003219667822122574 0.09911081194877625 -0.1662071943283081 -0.25354382395744324 -0.12282302230596542 -0.10092924535274506 -0.030984580516815186 -0.15621019899845123 0.01365603692829609 0.10890022665262222 -0.15776567161083221 -0.015095324255526066 -0.16025540232658386 -0.1859850287437439 0.4117778539657593 -0.1534215211868286 -0.10938775539398193 0.0912562757730484 0.16351141035556793 -0.10795308649539948 -0.06413081288337708 -0.0974060446023941 -0.17629767954349518 -0.028884807601571083 0.038986269384622574 0.08797059208154678 -0.14428606629371643 -0.1707688570022583 0.0014504591235890985 -0.04792727530002594 -0.11680089682340622 -0.2949340045452118 0.2589865028858185 0.08771529048681259 -0.1807737499475479 -0.049724891781806946 -0.12825359404087067 0.06676064431667328 -0.1404028981924057 0.232931986451149 -0.20511776208877563 -0.13530519604682922 0.0955083891749382 -0.08106335997581482 0.10531934350728989 0.16302193701267242 -0.21639364957809448 0.2180190533399582 -0.03709479421377182 -0.012398604303598404 -0.08658703416585922 -0.027544889599084854 0.022188352420926094 0.04124471917748451 -0.22431613504886627 0.2200196087360382 0.015564031898975372 0.02870049700140953 -0.0798630565404892 0.15436951816082 -0.09204757958650589 -0.06944306194782257 0.027344848960638046 0.06498148292303085 0.024868855252861977 -0.14839990437030792 -0.06912677735090256 0.12397248297929764 -0.31067028641700745 0.049227409064769745 -0.1292535364627838 -0.0892462208867073 -0.13449865579605103 -0.1045035645365715 -0.09363073855638504 -0.04656391963362694 0.09484831988811493 0.09510540217161179 0.1120070368051529 0.235667422413826 -0.010053749196231365 0.2872070074081421 -0.06483881920576096 -0.0036450019106268883 -0.12744025886058807 -0.16628874838352203 -0.07483283430337906 -0.06664136052131653 -0.1615401655435562 -0.16202999651432037 -0.1495795100927353 -0.08869077265262604 0.1608676165342331 0.24531272053718567 -0.06647878885269165 0.14657947421073914 0.20452354848384857 0.31381815671920776 -0.12630799412727356 -0.07564867287874222 0.04912189766764641 -0.05811981111764908 0.04841993749141693 -0.10106638073921204 0.012015719898045063 -0.24664004147052765 -0.003995437640696764 0.12044026702642441 -0.10472562164068222 -0.08425956964492798 0.01626286283135414 -0.1723305881023407 0.019341707229614258 0.07036849856376648 0.24420857429504395 -0.03366705775260925 -0.007434510625898838 -0.0029308595694601536 -0.03647194057703018 -0.0542483776807785 -0.13444285094738007 0.10000108927488327 0.007361341267824173 -0.2074623703956604 0.06137075647711754 -0.1711433380842209 0.12352730333805084 -0.21491499245166779 -0.12333155423402786 -0.03549562767148018 0.043803803622722626 0.11819427460432053 -0.16105949878692627 0.08109414577484131 -0.2544558644294739 0.13726967573165894 0.06855358183383942 0.0692625641822815 0.251747190952301 0.1075926199555397 -0.13653306663036346 -0.12051472067832947 0.017783701419830322 0.09149223566055298 -0.2371327430009842 -0.1888251006603241 0.21818752586841583 -0.0700661763548851 -0.06737338751554489 -0.05478455126285553 0.057226505130529404 -0.031945936381816864 -0.19773052632808685 -0.04962887242436409 -0.10231653600931168 -0.042811471968889236 0.26603856682777405 0.27238303422927856 -0.09085573256015778 -0.09352410584688187 0.21669164299964905 0.10936245322227478 -0.1091005727648735 -0.044023074209690094 -0.2527438998222351 0.14625200629234314 -0.1986180543899536 -0.004677221644669771 -0.08873164653778076 -0.0848151445388794 0.006111889611929655 0.35987138748168945 0.04650091007351875 -0.008763990364968777 -0.1288449466228485 0.13218767940998077 -0.09719419479370117 -0.37198057770729065 -0.17648042738437653 0.017605124041438103 -0.12999142706394196 0.011193477548658848 -0.30288660526275635 -0.1958836317062378 0.11945352703332901 -0.05492853373289108 0.23744235932826996 0.20183216035366058 -0.39201831817626953 -0.1507980078458786 -0.0563633032143116 0.29817140102386475 0.13010556995868683 -0.175765722990036 -0.08782480657100677 -0.010953606106340885 -0.15583258867263794 -0.02631327509880066 -0.12802155315876007 0.04291274771094322 -0.0980876088142395 -0.21774233877658844 -0.027987675741314888 0.014204084873199463 -0.15530411899089813 -0.08366659283638 0.21813322603702545 0.19389821588993073 -0.21884240210056305 0.06547840684652328 0.10607345402240753 0.009588697925209999 0.027963491156697273 0.009861456230282784 -0.035415589809417725 0.08528124541044235 -0.21263828873634338 -0.2182544618844986 0.04422473534941673 -0.05188758298754692 0.007717343047261238 -0.06002480909228325 0.12208424508571625 0.133265420794487 0.04937514290213585 0.23368261754512787 -0.04893269017338753 -0.03788130730390549 0.02613997645676136 0.004158083815127611 -0.11450047045946121 0.029901163652539253 0.010197232477366924 -0.14976917207241058 -0.04197770729660988 -0.3008423447608948 -0.020620400086045265 0.020854402333498 0.1590464860200882 -0.05561603605747223 -0.06956855207681656 0.0471089631319046 0.2915133535861969 -0.035192061215639114 0.041091177612543106 0.05228158086538315 0.030523812398314476 -0.04046550393104553 -0.02363727241754532 0.08658400177955627 -0.0008207806968130171 0.23621651530265808 0.058428023010492325 -0.21788561344146729 0.04946614056825638 -0.022662123665213585 -0.17904020845890045 -0.10357911139726639 0.01870122365653515 -0.09342923015356064 -0.24944673478603363 0.10130314528942108 0.11896011233329773 -0.22900572419166565 0.19720420241355896 -0.11244388669729233 0.2061816304922104 -0.0332721546292305 -0.056563474237918854 -0.04514119401574135 -0.2121708244085312 0.290023535490036 0.10788559913635254 -0.22406916320323944 0.011017071083188057 -0.030211621895432472 -0.16019511222839355 -0.01907430961728096 0.19953320920467377 -0.016985073685646057 -0.059743013232946396 -0.042808786034584045 0.006899564526975155 0.16733400523662567 -0.08098441362380981 0.02918483130633831 -0.1386258602142334 0.1005655825138092 0.34534886479377747 0.15135277807712555 0.022545920684933662 0.0592571422457695 0.08971523493528366 0.04708539694547653 -0.017628170549869537 0.08354384452104568 -0.08821404725313187 0.06490638852119446 0.2766287326812744 0.21723999083042145 -0.1834431290626526 -0.06993799656629562 0.16614267230033875 0.4399641156196594 -0.25636056065559387 -0.1998114436864853 -0.36285629868507385 0.06567129492759705 -0.23787249624729156 0.11057950556278229 -0.10019979625940323 0.1662747710943222 0.10940859466791153 -0.20862248539924622 0.24051932990550995 -0.06852944940328598 -0.1876724660396576 -0.19823753833770752 -0.1798936128616333 -0.1719454526901245 0.10013291984796524 -0.003384033218026161 -0.1646607518196106 0.09364321082830429 0.16503837704658508 -0.07978161424398422 -0.050402626395225525 0.12131419032812119 -0.17803440988063812 -0.14133720099925995 0.12716907262802124 -0.1805029958486557 -0.1286766529083252 -0.06908846646547318 0.1691981554031372 -0.04151574522256851 -0.29506269097328186 0.0838024914264679 0.17202182114124298 -0.05741386488080025 0.24610066413879395 -0.14734292030334473 -0.0935060977935791 -0.02457486093044281 -0.07652730494737625 0.065093033015728 0.1916884034872055 -0.27008572220802307 0.03692972660064697 -0.1255997121334076 0.335713267326355 0.20365791022777557 -0.2703650891780853 -0.09103207290172577 -0.15003490447998047 -0.10285808891057968 0.12312952429056168 -0.032206129282712936 -0.12613283097743988 0.0048353346064686775 0.14021894335746765 -0.16107846796512604 0.13791726529598236 -0.28397229313850403 0.1922045648097992 0.027191419154405594 0.1232963502407074 -0.1585884541273117 -0.13921429216861725 -0.01670234091579914 0.32067209482192993 0.0031558224000036716 -0.05352376773953438 -0.1286614090204239 0.20391343533992767 -0.10529949516057968 0.09182456880807877 0.027638006955385208 0.12805607914924622 0.20448674261569977 -0.054176099598407745 -0.0930866226553917 0.19994878768920898 0.41956639289855957 -0.04897414892911911 -0.1982647329568863 -0.1874760091304779 -0.02825877070426941 -0.21263112127780914 0.06163343787193298 0.1586868166923523 -0.02906440757215023 -0.09422450512647629 -0.11850579082965851 0.21707259118556976 -0.09099238365888596 -0.02044721692800522 0.015836525708436966 -0.3250301480293274 0.06880120187997818 0.07633709162473679 0.10293186455965042 -0.21795699000358582 -0.048604816198349 0.021143218502402306 -0.2559832036495209 0.11655484884977341 -0.2768247425556183 -0.1125706136226654 0.0301041416823864 -0.18040525913238525 0.07085315883159637 -0.15563209354877472 -0.23183348774909973 0.04092376306653023 0.0208098366856575 0.3155892789363861 -0.08066635578870773 0.07225018739700317 -0.07569599151611328 0.12468481063842773 -0.12498585879802704 -0.1709584891796112 0.09926435351371765 -0.040617506951093674 -0.03164593502879143 -0.009538683108985424 -0.1154613047838211 -0.07283502072095871 0.001530040637589991 0.20422761142253876 -0.05926847830414772 -0.20046265423297882 -0.18321824073791504 -0.15256500244140625 -0.23016110062599182 -0.05145514756441116 -0.0015058054123073816 0.07741624861955643 0.005768158473074436 -0.19130270183086395 -0.12663622200489044 -0.17843331396579742 -0.2529595196247101 -0.1248227208852768 -0.09438861906528473 -0.37127357721328735 -0.24014495313167572 0.2971039116382599 0.37624815106391907 -0.11477534472942352 -0.0593719445168972 0.39487364888191223 -0.14710566401481628 -0.07200723141431808 0.24392525851726532 -0.08374585211277008 -0.016071122139692307 -0.19436706602573395 -0.40147969126701355 -0.09103234857320786 -0.06595040112733841 0.035062212496995926 0.00037549223634414375 -0.15180177986621857 -0.14140568673610687 0.3727625012397766 -0.11014849692583084 0.09092846512794495 -0.1371580809354782 0.08454099297523499 0.17667894065380096 -0.019345849752426147 0.11451203376054764 -0.22891616821289062 -0.23792697489261627 -0.044569652527570724 -0.20399163663387299 0.10861741006374359 0.03594811260700226 -0.05754399672150612 -0.2173289805650711 0.11583326756954193 -0.11736606061458588 -0.10657943785190582 -0.13436146080493927 0.145134836435318 0.06233600899577141 -0.06834572553634644 0.012831315398216248 -0.08778789639472961 -0.262513667345047 0.005665880162268877 0.082292340695858 -0.2152068167924881 -0.0052890595979988575 -0.03144282102584839 -0.2902557849884033 0.3670864999294281 -0.07921914756298065 -0.12692058086395264 -0.2030724138021469 0.39868035912513733 0.021029504016041756 0.009870793670415878 -0.2687792479991913 0.03979964554309845 0.02693212404847145 -0.15483108162879944 -0.12686052918434143 0.20225705206394196 0.042421575635671616 -0.0332910381257534 0.15548637509346008 -0.1797899752855301 -0.11692720651626587 -0.21643297374248505 -0.07703544199466705 -0.14081212878227234 -0.11525478214025497 -0.09509705752134323 -0.12814028561115265 -0.0017187350895255804 0.2096763700246811 -0.2279190868139267 -0.05988568067550659 -0.3261643350124359 -0.36349788308143616 0.13270224630832672 0.04686513915657997 -0.11637169122695923 0.333089143037796 0.15030646324157715 -0.23769408464431763 -0.04899950698018074 -0.12977243959903717 -0.06719961762428284 0.05778695270419121 -0.08521424978971481 -0.18798932433128357 -0.3424217998981476 -0.2936010956764221 -0.03400858864188194 0.10684994608163834 0.007795214187353849 0.10925643891096115 0.009152990765869617 -0.003150396514683962 0.05165494978427887 0.07063423097133636 -0.20983107388019562 0.21687322854995728 -0.06548523902893066 -0.22380830347537994 -0.15162914991378784 -0.07271390408277512 0.07327347993850708 -0.09126650542020798 0.16534742712974548 0.16172394156455994 -0.03480299934744835 -0.15383674204349518 0.018248051404953003 -0.39112693071365356 -0.17465926706790924 -0.18658564984798431 -0.2571466267108917 -0.181751549243927 -0.1192246600985527 0.05505189672112465 0.04169084504246712 0.17525887489318848 -0.1977689117193222 -0.06995970755815506 -0.16650912165641785 -0.2607001066207886 0.08274230360984802 -0.07663280516862869 -0.26217031478881836 0.09051993489265442 0.4704922139644623 0.18601414561271667 -0.117163747549057 0.11755242943763733 -0.016262857243418694 0.01352375466376543 -0.062224071472883224 0.10473358631134033 -0.20395876467227936 -0.23418982326984406 0.0078024109825491905 0.03628600388765335 -0.04517204314470291 -0.10973489284515381 0.1392187774181366 0.05914198234677315 -0.05229874700307846 0.21955598890781403 0.026495829224586487 0.18537060916423798 -0.18477843701839447 -0.030975310131907463 -0.0912007987499237 0.30465835332870483 -0.01769099198281765 -0.07138212025165558 -0.03923631086945534 0.024911096319556236 -0.1507311314344406 -0.05894472822546959 0.18574032187461853 -0.1139947697520256 -0.37033939361572266 0.24079091846942902 0.08243904262781143 0.1462024450302124 -0.14316894114017487 -0.08989682048559189 -0.05079735442996025 0.011185912415385246 -0.07838823646306992 -0.030701953917741776 -0.01444218773394823 -0.005490325856953859 0.03578062355518341 0.11769703775644302 0.017799165099859238 0.06328267604112625 -0.10414785146713257 0.19344545900821686 -0.2521674633026123 0.0817892849445343 -0.003482609521597624 -0.17290523648262024 -0.27080097794532776 -0.018077388405799866 -0.17640529572963715 -0.12586498260498047 -0.07609310001134872 -0.043400608003139496 0.1480933427810669 0.026040056720376015 0.004090193193405867 -0.07971490174531937 0.025393960997462273 -0.2096453309059143 -0.08686868846416473 -0.03560324013233185 -0.11389368772506714
0.0 0.0 0.0 0.0 0.0
-0.08224882185459137 -0.10886877775192261 -0.14103959500789642 -0.20486916601657867 -0.17913565039634705 -0.2154383808374405 -0.1338050663471222 -0.19572456181049347 -0.26825064420700073 -0.25821220874786377 -0.07615606486797333 0.01328414585441351 -0.004444644320756197 -0.41474083065986633 -0.17879115045070648 -0.03865588828921318
-0.04485602676868439 0.007791661191731691 0.06810081750154495 0.02999374084174633 -0.1264096349477768 0.14021874964237213 -0.055284902453422546 -0.04938381537795067 0.08432205021381378 -0.05454041436314583
