-0.031942903995513916 0.35930317640304565 -0.6323915123939514 -0.384111613035202 -0.6358929872512817 -0.7047280669212341 -0.6438654065132141 -0.502237856388092 -0.2217622995376587 -0.6926969885826111 -0.6362385153770447 -0.13290822505950928 0.19080781936645508 0.286559522151947 0.18688815832138062 -0.5421610474586487 0.5037047266960144 0.3234773278236389 0.6516998410224915 -0.5703049302101135 0.2558016777038574 -0.4829524755477905 0.5368253588676453 -0.594986617565155 -0.05911737680435181 0.3084823489189148 -0.548076868057251 0.28714531660079956 -0.32776230573654175 -0.4137413501739502 0.012588739395141602 -0.41762056946754456 0.08094531297683716 -0.5156748294830322 0.1858835220336914 0.3390410542488098 -0.08911788463592529 -0.4155965745449066 -0.16756683588027954 -0.05799442529678345
-0.6901962757110596 0.027706384658813477 0.15809470415115356 -0.21839576959609985 -0.6315658688545227 -0.22695022821426392 0.5661676526069641 0.1600121259689331 0.6107445359230042 -0.260107159614563 0.16860562562942505 0.26375794410705566 -0.056637704372406006 -0.4884108304977417 -0.06847959756851196 -0.4329707622528076
-0.22136259078979492 0.22712010145187378 0.5217525362968445 0.11556899547576904 -0.16928642988204956 -0.29964420199394226 0.062386274337768555 0.24108505249023438
0.6215642094612122 0.5054311156272888 0.5241883397102356 0.44001227617263794 0.15750181674957275 -0.6632304787635803 -0.6136094331741333 0.5181854367256165
-0.3437705934047699 0.32610708475112915 -0.6903215646743774 0.5263424515724182
0.027428269386291504 -0.17071717977523804
-0.5844573378562927 -0.6705942749977112 0.5338642001152039 -0.2968864440917969 -0.14885324239730835 -0.17958444356918335
0.23400890827178955 0.14803993701934814 0.1127774715423584
0.21610987186431885 0.4476025104522705 0.21522432565689087 0.2874481678009033 0.17108196020126343 0.10677766799926758 0.06955009698867798 -0.5202819108963013 0.42208993434906006
0.2666311264038086 0.0011852383613586426 -0.537690281867981
-0.576093852519989 0.39857685565948486 0.3455117344856262
-0.02964407205581665
