0.12790238857269287 0.16241222620010376 0.692621648311615 0.06522560119628906 -0.6279370188713074 0.7062049508094788 0.2091929316520691 -0.1378844976425171 0.16112202405929565 -0.31045806407928467 -0.2090170979499817 -0.26380521059036255 -0.4134109318256378 -0.5433552265167236 -0.0141105055809021 0.4194188714027405 0.4663941264152527 0.052572011947631836 0.23876196146011353 0.356462299823761 -0.08541351556777954 -0.5873173475265503 0.2200406789779663 -0.517823338508606 -0.2996383011341095 -0.3315475881099701 0.36736589670181274 0.6954582333564758 -0.058197021484375 -0.2537192106246948 -0.08683007955551147 -0.1835416555404663 -0.1370219588279724 -0.08309835195541382 0.20710116624832153 0.3972232937812805 0.3817971348762512 0.001647353172302246 -0.0398288369178772 -0.5815061330795288
-0.5867486000061035 -0.3610245883464813 -0.5644239187240601 0.5325091481208801 0.04227101802825928 0.44097739458084106 -0.42744919657707214 -0.3538963794708252 0.3676982522010803 -0.4562644064426422 -0.01909536123275757 -0.5575870275497437 0.3562842011451721 -0.5627895593643188 0.6991984248161316 0.38469308614730835
0.1823195219039917 -0.28828907012939453 0.3175807595252991 -0.2953295409679413 -0.4865099787712097 0.5056343674659729 -0.4189957082271576 -0.09590429067611694
0.21083301305770874 0.4821097254753113 -0.25657644867897034 -0.6968795657157898 -0.01379626989364624 0.26846176385879517 -0.04014897346496582 0.09662681818008423
