-0.3434062898159027 0.21428686380386353 0.577166736125946 -0.5733722448348999 0.5878668427467346 0.24163293838500977 -0.35526666045188904 -0.04430466890335083 -0.3261066973209381 0.4757465720176697 -0.615627110004425 -0.2511304020881653 0.4205678105354309 0.39005857706069946 0.014635086059570312 -0.20139861106872559 0.5256603360176086 0.016289591789245605 -0.12902534008026123 -0.6011452078819275 -0.11151725053787231 -0.04053777456283569 -0.667797863483429 -0.4226008653640747 0.23518556356430054 0.4520912766456604 0.15664136409759521 0.30024439096450806 -0.42896074056625366 -0.030419886112213135 -0.4151025414466858 0.025087058544158936 -0.5341091156005859 -0.034809231758117676 0.3499196171760559 -0.5105241537094116 -0.7048578262329102 0.037712812423706055 -0.4436227083206177 0.12039220333099365
-0.4028732180595398 0.41907209157943726 0.18867641687393188 -0.6579300761222839 -0.12081503868103027 -0.3075396418571472 -0.5268770456314087 -0.5317131876945496 0.2223447561264038 0.2675175666809082 -0.16091829538345337 -0.21491798758506775 0.17281723022460938 0.16324150562286377 -0.412068635225296 0.4117252230644226
-0.2571490406990051 -0.034962236881256104 -0.16779959201812744 -0.02387911081314087 0.5365790724754333 0.19973957538604736 0.4172913432121277 0.16740357875823975
0.17331653833389282 -0.11932456493377686 0.25294655561447144 0.5296879410743713 0.4023793339729309 -0.030208230018615723 0.428783118724823 -0.10637974739074707
