0.00176924467086792 0.16594107449054718 -0.10274150967597961 0.2109011560678482 -0.20764875411987305 -0.0546688437461853 -0.21515758335590363 -0.07206985354423523 0.16136591136455536 -0.15496210753917694 0.12971068918704987 0.18975503742694855 0.1546860784292221 0.19985948503017426 0.11038024723529816 0.08832933008670807 -0.08327040076255798 -0.04968990385532379 -0.16843493282794952 0.021240994334220886 0.20049257576465607 -0.0395868718624115 0.11559607088565826 0.12215609848499298 0.13639618456363678 0.049336329102516174 -0.22102338075637817 -0.12465383112430573 -0.038694828748703 0.17747198045253754 0.16998504102230072 0.09062366187572479 -0.19744306802749634 -0.07796551287174225 0.223253533244133 -0.07552984356880188 -0.13753488659858704 -0.2100968062877655 -0.07850620150566101 0.16133375465869904 -0.03176942467689514 0.10043971240520477 -0.1539098024368286 0.0712306946516037 -0.20078521966934204 -0.0036707669496536255 0.011795774102210999 -0.21996887028217316 -0.001515313982963562 0.00030109286308288574 -0.10399243235588074 0.2175619751214981 0.1663542240858078 -0.02351050078868866
-0.1775035560131073 -0.08007803559303284 -0.11667869240045547
