-0.4148949086666107 -0.7031240463256836 0.1060338020324707 -0.6172170639038086 0.3508191704750061 0.5919793248176575 -0.49556946754455566 0.5599502921104431 
0.6417569518089294 -0.2290283441543579 -0.6546130180358887 0.41253572702407837 0.21641218662261963 -0.564363420009613 0.06914925575256348 0.12203848361968994 
-0.4819066524505615 -0.23962700366973877 0.2718926668167114 -0.6415411829948425 0.12889283895492554 -0.5601184368133545 0.17255282402038574 -0.08328711986541748 
0.0096663236618042 0.022947192192077637 -0.0506284236907959 0.10423564910888672 0.03650391101837158 0.5350862145423889 0.35751110315322876 -0.6889411211013794 
-0.04739445447921753 -0.17652910947799683 0.04864060878753662 -0.27614840865135193 0.20896989107131958 -0.43344974517822266 -0.7023041248321533 -0.6304713487625122
-0.2827621102333069 0.6112576127052307 -0.5975368618965149 0.6114575266838074 0.18556851148605347 0.4793708920478821 0.34501391649246216 -0.46747511625289917 
-0.6026468276977539 0.4954614043235779 0.6455362439155579 -0.5834551453590393 -0.39888182282447815 0.23571383953094482 0.051039814949035645 0.3055756688117981
-0.4457271099090576 0.47117894887924194 0.016655147075653076 -0.46286308765411377 0.055909037590026855 -0.07416582107543945 0.4170282483100891 -0.007185459136962891
0.2136337161064148 0.6250198483467102 -0.05379372835159302 -0.2568627893924713 0.5997106432914734 0.2813892364501953 0.6050739884376526 0.2586475610733032
0.15156257152557373 -0.5079735517501831 
-0.6019667387008667 0.5515384078025818
-0.6675245761871338 -0.13260942697525024
-0.3687640130519867 0.5217465758323669 0.06701576709747314 
0.7025912404060364 -0.0469510555267334 -0.36217746138572693
0.1923978328704834 -0.6773117184638977 0.119301438331604
0.5254000425338745 0.07462787628173828 -0.10173305869102478 
0.045328617095947266 -0.4090135097503662 0.4298778772354126 
0.2593423128128052 -0.18040123581886292 -0.05411243438720703
0.45110583305358887 0.5481623411178589 0.42756199836730957
-0.2214469313621521 
0.11532366275787354 
0.3259332776069641
-0.40076106786727905
