0.6457230448722839 -0.4264865517616272 -0.2989886403083801 -0.6853176355361938 0.48122936487197876 -0.33728504180908203 -0.028473317623138428 0.020145773887634277 
-0.39492422342300415 0.3291643261909485 -0.042314112186431885 0.2812579870223999 -0.2337445616722107 0.2146991491317749 0.6208643317222595 0.09048014879226685 
0.053353965282440186 0.18371433019638062 -0.6534570455551147 -0.059422850608825684 0.0426943302154541 -0.3913591206073761 -0.27810925245285034 0.5524383187294006 
-0.5043650269508362 0.07555919885635376 -0.006459176540374756 0.3478688597679138 -0.35760438442230225 0.06296038627624512 0.39346522092819214 0.2965371012687683 
0.6371284127235413 -0.13665205240249634 -0.18532323837280273 0.6936255097389221 -0.594993531703949 -0.5788061022758484 0.5601748824119568 -0.31016287207603455
-0.21254831552505493 -0.5107829570770264 0.19382566213607788 -0.16341090202331543 0.6020063757896423 -0.4102865755558014 0.1561124324798584 -0.290057897567749 
0.13789308071136475 0.020102858543395996 0.14507323503494263 0.1792251467704773 0.48278123140335083 0.19727540016174316 -0.11822569370269775 0.20661860704421997
-0.3977305293083191 0.3199588656425476 -0.655419111251831 -0.3548782169818878 0.14188337326049805 0.43320828676223755 0.6259378790855408 0.643635094165802
-0.25020939111709595 -0.4780706763267517 0.28429293632507324 -0.08159476518630981 0.36461132764816284 0.19422340393066406 0.3787274956703186 -0.5941228866577148
