-0.016947418451309204 0.10949398577213287 0.1846822053194046 -0.11947603523731232 -0.2233084738254547 -0.1275833696126938 0.002406775951385498 -0.13659071922302246 0.12317623198032379 -0.2007995843887329 -0.23245422542095184 0.18452970683574677 -0.20412364602088928 -0.22600334882736206 0.155747190117836 -0.08545321226119995 -0.17213019728660583 -0.19646340608596802 0.22405685484409332 0.22690333425998688 0.22417192161083221 -0.029654890298843384 -0.16396230459213257 0.05880068242549896 -0.22723492980003357 -0.1270296573638916 -0.06672962009906769 0.1334664672613144 0.028587952256202698 -0.06355424225330353 0.06189660727977753 0.07778064906597137 0.09934832155704498 -0.19724033772945404 0.18348516523838043 -0.10826756060123444 0.04965381324291229 -0.05448894202709198 -0.039064422249794006 0.08100111782550812 -0.2238142341375351 0.014082163572311401 0.07713110744953156 0.17298148572444916 0.20060549676418304 0.1703220158815384 -0.1569007784128189 0.03060932457447052 0.10072155296802521 0.011469230055809021 0.1171293705701828 0.10942088067531586 -0.06843563914299011 0.21480219066143036
-0.04557245969772339 0.005616173148155212 -0.12947285175323486
