0.649953305721283 -0.6341811418533325 0.5554460883140564 -0.5709508657455444 0.44876497983932495 0.5093463063240051 -0.6160009503364563 0.6393216252326965 -0.4639344811439514 0.002237975597381592 0.4889363646507263 0.31751078367233276 -0.4109569787979126 -0.05649298429489136 0.12014681100845337 -0.6923564672470093 0.3953250050544739 -0.6337025761604309 -0.6315191984176636 0.07815110683441162 -0.5305178165435791 -0.2809728980064392 0.564403235912323 -0.6847611665725708 -0.6395877599716187 -0.4350959062576294 0.6540601849555969 0.1441030502319336 -0.27568161487579346 0.4607582688331604 0.34000545740127563 0.6695547699928284 0.01628696918487549 -0.5780366063117981 -0.20415782928466797 -0.5996513366699219 0.0317344069480896 -0.06196630001068115 -0.07890540361404419 -0.5603699088096619
0.4570459723472595 0.004826486110687256 -0.17748719453811646 -0.38620033860206604 0.33154863119125366 -0.5683916211128235 -0.4131356179714203 0.2538744807243347 -0.5590243339538574 -0.274080365896225 0.6102311015129089 0.3468652367591858 0.4825732111930847 -0.4119621813297272 0.0616421103477478 0.028994500637054443
-0.05200004577636719 0.5190200209617615 -0.13579493761062622 -0.12582427263259888 0.6363889575004578 0.3297882676124573 0.024458348751068115 -0.24288949370384216
0.6202052235603333 0.011947870254516602 -0.41928383708000183 0.5899469256401062 -0.5150718092918396 -0.42442500591278076 0.13126516342163086 -0.010301351547241211
0.5921991467475891 0.12884461879730225 -0.6479759216308594 -0.22172588109970093
-0.6650722622871399 -0.5611532330513
0.12074112892150879 0.505686342716217 -0.35235995054244995 0.4991951584815979 0.11561024188995361 -0.5266914367675781
-0.5799465179443359 -0.4491264224052429 0.016057610511779785
0.3654314875602722 0.3042224645614624 0.23975759744644165 -0.10342341661453247 -0.239951491355896 0.41999757289886475 0.26867711544036865 -0.2534681260585785 -0.34178709983825684
-0.3215230107307434 0.0976567268371582 -0.09035509824752808
0.3055339455604553 -0.05591839551925659 -0.28311973810195923
0.2775607705116272
