0.29886990785598755 0.405026376247406 -0.47510337829589844 -0.31432268023490906 0.24387431144714355 -0.521073043346405 0.4961208701133728 -0.09153550863265991 
0.10035955905914307 -0.642709493637085 -0.6878283619880676 -0.07843822240829468 0.5897819399833679 -0.4547407925128937 -0.2616884410381317 0.6201747059822083 
-0.6017004251480103 -0.2554183304309845 -0.7030519247055054 0.5424532294273376 0.5625393986701965 0.5422167181968689 0.48686105012893677 -0.49454066157341003 
0.035416603088378906 0.33766037225723267 -0.48340511322021484 -0.5130950212478638 0.38862282037734985 -0.41611000895500183 0.013094544410705566 0.2833811640739441 
0.45443063974380493 -0.4470387101173401 -0.0649939775466919 0.6333926320075989 -0.02963203191757202 0.13796913623809814 0.4230843186378479 0.6083973050117493
0.2593226432800293 0.3118380904197693 0.6824527382850647 -0.03896123170852661 -0.09895604848861694 0.6284273266792297 -0.6094111204147339 0.012844741344451904 
-0.2125234603881836 0.5318017601966858 -0.3544045090675354 0.22485780715942383 -0.43317511677742004 -0.12073689699172974 -0.2646060883998871 -0.4911482632160187
-0.5684323310852051 0.30685287714004517 0.2608504891395569 -0.013045012950897217 -0.16038334369659424 0.251129686832428 0.08524340391159058 -0.4349512457847595
0.22449755668640137 0.03622084856033325 0.3993319869041443 0.5906813740730286 -0.5189248919487 0.17856526374816895 -0.08683466911315918 0.22095483541488647
-0.37365633249282837 -0.2515750527381897 
0.6258158087730408 0.6057263016700745
-0.43410956859588623 -0.6673921346664429
0.06786435842514038 -0.5684691667556763 -0.0947994589805603 
-0.41636568307876587 -0.12148237228393555 -0.10572105646133423
-0.3252553939819336 0.4766753315925598 0.11646503210067749
0.5494717359542847 -0.029031753540039062 0.22221750020980835 
-0.41651424765586853 -0.3853842616081238 -0.28757888078689575 
-0.33655112981796265 0.1347333788871765 -0.4561571478843689
0.33412039279937744 -0.5432939529418945 -0.01884901523590088
-0.12074136734008789 
-0.056949079036712646 
-0.3830123543739319
0.45980989933013916
